  -8.1892930e-02  -5.3705791e-02  -6.8226940e-02  -9.8733650e-02  -5.2796522e-02  -5.2268857e-02  -6.0708770e-02  -5.9487723e-02  -6.9210406e-02  -6.0603580e-02  -5.2633894e-02  -3.7839996e-02  -6.1226903e-02  -6.7097451e-02  -6.0693524e-02  -8.3891772e-02  -2.1711869e-02  -5.2972931e-02  -5.4442804e-02  -6.9070743e-02  -6.7348796e-02  -5.4420419e-02  -5.2300289e-02  -6.7738512e-02  -3.0788170e-02  -3.6932084e-02  -6.8146053e-02  -5.3528174e-02  -5.3265047e-02  -1.5041674e-02  -7.0109829e-02  -4.4794792e-02  -5.2332879e-02  -6.9114320e-02  -5.9881575e-02  -4.5328461e-02  -6.0579635e-02  -6.0103501e-02  -8.3240380e-02  -6.1204696e-02  -3.8784001e-02  -6.7246202e-02  -2.9066580e-02  -9.1326256e-02  -6.9188245e-02  -8.3029291e-02  -6.7893752e-02  -6.8312174e-02  -6.0770572e-02  -6.0172491e-02  -5.9778493e-02  -7.5925964e-02  -4.6613158e-02  -6.7993848e-02  -6.8884829e-02  -6.0996831e-02  -8.2422701e-02  -8.2827065e-02  -4.5821136e-02  -5.3169188e-02  -5.4648615e-02  -4.5998447e-02  -3.8904904e-02  -5.2514726e-02  -9.0171286e-02  -5.2477655e-02  -8.4076373e-02  -4.6427478e-02  -7.5502775e-02  -4.5664500e-02  -6.7952438e-02  -6.7944361e-02  -4.4254087e-02  -6.8199963e-02  -9.1648109e-02  -6.0847510e-02  -4.4817381e-02  -9.0758124e-02  -6.7678661e-02  -5.3466852e-02  -7.4627529e-02  -6.0321269e-02  -7.7134923e-02  -5.2220881e-02  -4.6110040e-02  -8.4095590e-02  -6.1181030e-02  -7.4904233e-02  -5.2247448e-02  -3.8658221e-02  -4.5918419e-02  -6.9124799e-02  -3.9294994e-02  -6.1737139e-02  -5.1567818e-02  -6.8800389e-02  -6.8630334e-02  -5.3736952e-02  -6.8062323e-02  -5.3484564e-02  -6.7732474e-02  -5.2397291e-02  -8.4099768e-02  -6.6923635e-02  -5.3774572e-02  -6.8880779e-02  -8.2448234e-02  -6.7943719e-02  -2.8691186e-02  -7.5110882e-02  -5.2291389e-02  -3.7179207e-02  -6.8086218e-02  -7.5491041e-02  -9.9375613e-02  -6.7755081e-02  -7.5668296e-02  -6.7499811e-02  -6.7111676e-02  -6.7050288e-02  -4.3797822e-02  -4.5773113e-02  -6.1153270e-02  -7.6633438e-02  -4.5172744e-02  -6.8050828e-02  -6.0228753e-02  -2.9344422e-02  -6.7309174e-02  -3.7667129e-02  -4.5564883e-02  -7.6571993e-02  -6.7575589e-02  -9.0723470e-02  -8.2289360e-02  -5.2940620e-02  -6.7860860e-02  -5.2129062e-02  -6.0064865e-02  -5.9827052e-02  -5.9316505e-02  -6.8276048e-02  -5.2336549e-02  -5.4703161e-02  -5.2886443e-02  -5.2975830e-02  -8.9807887e-02  -5.2688434e-02  -4.5695104e-02  -2.9373048e-02  -5.9712515e-02  -4.5630754e-02  -8.3319528e-02  -3.8009530e-02  -7.6016489e-02  -4.6811414e-02  -6.1231533e-02  -6.7345784e-02  -1.0599349e-01  -7.5542462e-02  -5.9622315e-02  -5.4218067e-02  -5.2954727e-02  -7.4130364e-02  -5.4251622e-02  -6.0604692e-02  -3.6390945e-02  -5.3249751e-02  -7.5399742e-02  -5.9725682e-02  -6.0901323e-02  -6.7628370e-02  -4.5879486e-02  -6.0913448e-02  -9.0816743e-02  -9.0994002e-02  -4.4897042e-02  -9.7493048e-02  -5.1744008e-02  -7.6245294e-02  -6.6583328e-02  -5.2794044e-02  -8.1936151e-02  -5.4178073e-02  -3.7970436e-02  -5.3312745e-02  -5.2280822e-02  -2.2308196e-02  -3.8144080e-02  -9.0815272e-02  -7.6210980e-02  -8.3782701e-02  -3.0103638e-02  -6.9266085e-02  -5.2707500e-02  -3.7486967e-02  -7.5188535e-02  -7.5257825e-02  -5.2843846e-02  -3.7863026e-02  -5.9906900e-02  -6.8240925e-02  -8.3003677e-02  -6.7911059e-02  -6.0884269e-02  -7.4966930e-02  -6.8165328e-02  -5.2822955e-02  -8.2974216e-02  -4.4963001e-02  -5.3537067e-02  -6.7885496e-02  -5.3071609e-02  -5.2008163e-02  -4.6690516e-02  -6.7546973e-02  -6.6767279e-02  -8.4030272e-02  -5.3472279e-02  -8.3253743e-02  -4.6527199e-02  -6.0867704e-02  -5.1817848e-02  -3.8196751e-02  -4.5936410e-02  -5.4417022e-02  -5.3042849e-02  -5.3942270e-02  -2.9080561e-02  -6.6751749e-02  -4.6549968e-02  -6.9296146e-02  -6.1973007e-02  -6.7194256e-02  -6.6921627e-02  -6.8096018e-02  -3.7541173e-02  -3.0927015e-02  -5.2538507e-02  -6.0766124e-02  -6.1939145e-02  -7.5258506e-02  -6.8635186e-02  -4.4788954e-02  -5.3598977e-02  -4.5737673e-02  -6.1096936e-02  -5.8947089e-02  -4.6409218e-02  -5.3646399e-02  -5.1094331e-02  -6.7875669e-02  -6.0921341e-02  -6.8014951e-02  -5.3255772e-02  -7.6023747e-02
   3.1127986e-03   2.4510765e-02  -4.2327324e-02   3.5871969e-02   1.1449361e-01  -1.0391643e-01  -1.4264458e-01   2.3830627e-02   5.7429844e-02  -2.4217061e-02  -5.1531045e-02  -9.4399272e-02   5.3641423e-02  -4.3712978e-03   8.2112271e-02  -2.8904667e-02  -6.1050873e-03  -8.4128352e-02  -8.4691833e-02   9.0295074e-03   2.7751763e-02  -8.8047509e-02  -3.6921843e-02   1.1994245e-01  -5.9893824e-02  -9.7350563e-02  -3.6580370e-02  -4.1307865e-02   3.1258901e-02  -1.4562684e-02  -3.7144052e-02  -3.9589434e-02   1.0463599e-01  -4.7683563e-02   9.0921735e-02   5.0426812e-02   1.1991690e-02  -3.5930794e-02   1.1582255e-02  -1.2410519e-02   7.6646639e-02   5.9333017e-02   6.2864327e-02  -3.5824187e-02   6.0599308e-02   3.8371976e-02   4.7180136e-02   8.9021226e-02   1.0987548e-01   7.3355179e-02  -5.2132353e-02   6.9659622e-02  -4.4732689e-02  -5.7106941e-02  -1.0529437e-01   1.0284428e-01  -6.9536656e-03   9.9101314e-02   1.6861550e-02   6.4718987e-02   4.8254413e-02  -6.5722523e-02  -5.3056734e-02  -1.3280170e-03   6.2955981e-02  -3.4895429e-02   2.7242230e-02  -5.1700820e-02  -1.2912044e-01  -4.1235631e-02  -9.2897119e-02  -3.5032864e-02  -3.9685830e-02   1.2976283e-01   6.5570487e-02  -1.1183838e-01  -1.3725135e-03   1.2000927e-01  -1.1434267e-01   1.5261803e-02   9.7135054e-02  -1.1048371e-01  -6.9215841e-02   1.3127294e-01   3.4207570e-02  -1.5963732e-02   4.0743310e-02   3.4629928e-02  -8.2860811e-02  -9.7304598e-03   8.0959151e-02  -4.5516988e-02   1.0732231e-02  -7.1938144e-02   4.7496568e-02  -5.9143897e-02  -1.0029984e-01   4.5808953e-03   8.3447738e-02   3.6352872e-03   4.8517502e-03  -6.7349019e-02   5.9506508e-04  -9.9919003e-02   3.2041206e-02  -4.5645675e-02  -5.3855542e-02  -4.6684733e-02   8.1123398e-02   2.3872210e-03  -5.0294257e-02   1.4583563e-01   7.9467017e-02   4.6995560e-02   1.8970919e-03  -1.5647710e-02   2.3968360e-02  -1.1267357e-02   3.5663591e-02  -4.1513064e-02   2.0970270e-03  -4.4551673e-02  -3.8116281e-02   4.5504815e-03  -1.3757575e-01   1.4099070e-01   7.0207981e-02   1.4085085e-02  -2.1740138e-03   1.2607267e-02  -1.1062012e-01   8.5313117e-03  -4.4536777e-04   3.2508594e-02   2.6287710e-02  -5.0520652e-02   3.0171521e-02  -1.2103398e-01  -6.7027825e-02  -6.7973023e-02  -8.4452133e-03   7.5605830e-03   1.0066135e-01  -3.5461939e-02   2.0023781e-02   7.1423664e-02   4.6338529e-02   7.6744713e-02   1.0591374e-01   2.0896199e-02   2.1557991e-02  -1.6575136e-02  -7.6959679e-02  -2.7887061e-03  -3.7786563e-02   2.9992558e-02   5.0315213e-02   4.1216550e-02  -7.4777814e-03   3.1275752e-02   3.3048852e-02  -1.1592870e-01  -2.3781888e-03  -2.6328779e-02   2.1168756e-02   7.5888649e-02  -3.2312700e-03  -7.2597478e-02   1.2753774e-02   1.4315557e-01   7.3560392e-03   4.4393796e-02  -1.5203393e-02   3.3344181e-02  -5.6167817e-03  -1.1853396e-02  -1.6129755e-02   1.5939465e-02   5.3060679e-02  -1.0911607e-01   4.2958392e-02  -4.8511094e-02  -6.3603562e-02  -4.1338733e-02   3.3339277e-02   8.1210667e-02  -5.7508097e-02  -4.2126952e-02  -4.8418121e-02  -2.9580212e-02  -9.2046427e-02  -2.1211458e-03   6.1325891e-02  -6.9329019e-02  -5.5311056e-02  -7.2545801e-02   4.7651070e-02  -5.6601960e-02   3.8279883e-02  -3.3241433e-02  -3.1186693e-02  -2.9677619e-02  -4.1247958e-03  -1.4180101e-02   4.8411254e-02  -3.2243514e-03  -1.5998361e-02   9.9154381e-02  -9.9268991e-02   9.4636786e-02  -1.0538271e-01   8.6824185e-02   2.7678499e-02  -1.0776944e-01   4.3257102e-02   2.7144649e-02  -1.0055176e-02  -1.0340411e-01   9.9043155e-02   1.0129835e-01  -1.6552975e-02   4.9697891e-02  -2.9060415e-02  -3.3248793e-02   1.5604552e-03  -2.3213164e-02  -6.2872025e-02  -1.6372126e-02   2.2396258e-02  -7.8924226e-03  -7.5184958e-02  -1.2214582e-01   4.7582551e-02  -8.1211939e-02  -4.3825929e-02   5.2443617e-02  -1.3463611e-01  -1.4928441e-02  -6.8819486e-02  -8.3981852e-02   4.3509330e-02   7.7184833e-02   6.7380884e-02  -5.3878652e-02   3.8015404e-02   1.8668905e-02   7.6004469e-02   4.1073930e-02  -1.9894616e-02   8.4488487e-03   2.8612016e-02   4.7343587e-02   8.1978666e-02   5.4861677e-02   2.4716388e-02  -4.9143754e-02
  -4.0709903e-02  -4.1584031e-02  -6.9781604e-02   1.4208380e-02  -9.7874971e-02  -7.6933842e-02   9.8704074e-02   6.3848075e-02  -2.6796057e-02  -1.1712629e-01  -3.5651764e-02   5.4262547e-02   5.0946789e-02   4.4624654e-02   1.1733195e-01   2.5732393e-02  -1.0456119e-02   8.8247148e-03   4.9341214e-02  -3.4868561e-02   7.4925309e-02  -2.3424323e-02  -1.1083874e-01  -3.3740047e-02  -4.3033724e-02   3.1063391e-02   6.7237788e-02   3.6088461e-02  -5.6718747e-02  -2.2165881e-02  -2.5385605e-02   2.7655749e-02  -5.7001427e-02   3.3363284e-02   6.5582377e-02   1.2882528e-02  -1.6563795e-03  -1.7711931e-02  -3.3742322e-03  -2.1820345e-02  -2.3115917e-02   8.6877670e-02   1.1872436e-01   5.9995064e-02   1.6839120e-02  -4.1639960e-02   8.4433730e-02  -3.1838981e-02   7.7039768e-02   4.7481683e-02   7.6957359e-02  -7.8135591e-02   1.4404245e-02  -8.5906698e-03   7.4974569e-02   1.0034306e-01  -7.4769308e-02   4.0750181e-03   9.7258301e-02   5.1536445e-02  -4.3559021e-02   1.8838682e-02   5.3484858e-02   1.0628755e-01   2.8220515e-02   5.8967003e-02   1.1700587e-02   4.1059779e-02   8.6259247e-02  -1.0691277e-01   8.5342898e-02  -3.4886405e-02   3.5062384e-03   2.6197718e-02   1.3760907e-02  -8.5673677e-02  -4.1314547e-02   2.5609200e-02  -1.0259564e-01   6.0092471e-02   9.3498711e-03   1.8159984e-02  -3.8926831e-02  -5.1767544e-02   5.1578637e-02   2.6693003e-02  -9.1418293e-02   7.4820408e-02  -4.3909492e-02  -2.7104463e-02   5.1306138e-02  -2.7082075e-02  -9.2837104e-02  -1.7970072e-02  -1.1378780e-01  -1.5077722e-02  -4.5347628e-02  -6.7556023e-02   4.4002165e-02   8.9273255e-02   8.2208374e-03   5.4932141e-02   9.0200712e-03   7.7578435e-02   8.0679891e-02   8.2305713e-02  -1.8448628e-02   4.4162573e-02   4.9376004e-02   4.6569917e-02  -6.5098780e-02  -2.9601664e-02  -1.1304581e-01  -4.6909070e-02  -4.6349560e-03  -4.4609577e-02   7.7957267e-02   4.8361437e-02   4.2990498e-02  -1.0244655e-01   2.9951491e-02  -2.5719129e-02   2.2814896e-02  -8.7880745e-02   3.1477864e-02  -1.9847340e-02  -4.6608237e-02  -5.0500926e-02   3.9380553e-02   9.4380819e-02   2.6290140e-02   1.3189593e-03  -2.2618954e-02   9.4468648e-03  -3.6158801e-02   6.6788833e-02   1.9440254e-02  -2.6440603e-02  -8.1914060e-02  -5.2003735e-02  -4.1979111e-02   2.4888413e-02   4.8896448e-03   8.5329958e-05   9.5895720e-03   5.7687475e-02  -1.3164579e-01  -9.2089049e-02  -8.3419294e-02   5.7309757e-02  -5.4496381e-02   2.7655783e-02  -3.0841703e-02  -7.8880972e-02   1.6072151e-02  -7.1612015e-02  -4.9030531e-02   1.1051193e-01   6.2974474e-03  -2.2576176e-02   1.0808752e-01  -5.2737523e-03   3.4179122e-02  -8.3525607e-02   1.0803238e-01   1.0553079e-01  -2.8723463e-02  -1.2977308e-02  -2.0664106e-02  -2.4317546e-02   2.5142798e-02  -2.0492341e-02  -2.5758831e-03   4.7907290e-02   2.6166093e-02   4.0594300e-02  -7.4397229e-02  -3.8591448e-02   5.3534259e-02  -1.0663044e-01  -1.3032732e-01   1.4080969e-01  -4.8464446e-02   1.3015858e-01   7.7391936e-02   5.2678350e-02   1.2164708e-01  -8.0103536e-02   4.4395575e-02   6.4698500e-02  -8.8525746e-02  -3.9230075e-02  -4.4709699e-02  -2.5255158e-02   1.3279963e-01  -1.0293539e-02  -8.9905389e-02  -7.3385548e-02  -4.9957679e-02  -8.3459081e-02  -3.7408086e-04  -1.0564356e-01   9.2197457e-02  -6.5860606e-02  -1.2431275e-01   1.3058184e-02  -3.6326793e-02   5.7952477e-02   4.6843620e-02   6.7109976e-02  -3.3443465e-02  -4.2991535e-02   5.9283063e-02   2.4533240e-02  -2.0638172e-02  -8.0742173e-02  -4.9080577e-02   7.2578882e-02   6.5906636e-02   1.5227572e-02  -2.2231939e-02  -2.9864948e-02   9.3020984e-02  -1.0259072e-01  -3.9673858e-02   7.9257200e-02  -1.0360718e-01  -9.3562269e-03   5.8550239e-02   4.0631256e-02   4.4592882e-02  -1.7451458e-02   7.9788731e-02   9.6760816e-02  -1.2223531e-01  -1.2118967e-01  -3.7224924e-02  -2.4702668e-02   3.7969565e-02   5.7714722e-02  -1.0318849e-01  -9.5243978e-03   3.6379741e-02  -6.8611307e-02  -2.7422945e-02  -6.2899984e-02   3.1110631e-02   2.2697749e-02   6.3514211e-02   7.8311782e-02   1.0434724e-01   2.7337862e-02  -7.6992205e-02  -1.1128611e-01  -1.3712406e-02  -3.6835132e-02
   4.6105803e-02  -5.8542341e-02   7.1360192e-02  -9.6795055e-02  -6.3841151e-03  -2.9336233e-04   6.5577525e-03  -3.1213711e-02  -5.0321325e-02  -4.9037719e-02   7.8732822e-02  -4.5908459e-02  -6.5055050e-02  -1.0361063e-03  -1.0318711e-01  -6.2734694e-02   3.7738280e-02  -1.1114167e-01  -1.0271334e-01  -1.4572227e-01   1.4213428e-01  -8.9182834e-02  -4.0058343e-02   3.1296520e-02  -7.1825933e-02   4.7098868e-02   9.6002651e-02  -2.9427143e-02   2.9139772e-02   1.2785994e-02  -1.1736269e-01   1.3492375e-01   1.3087276e-02   6.7206482e-03   5.0052971e-02  -7.0837662e-03   1.0664275e-01   1.4038802e-02   9.9530074e-02  -1.6105339e-02  -3.6775798e-02   7.6380177e-02   1.8384434e-02  -4.9889816e-02  -6.7563844e-02   2.6334979e-02  -3.9004830e-03  -5.7420765e-02   5.1614585e-02  -6.9239562e-04   7.7894913e-03  -1.2573378e-01  -1.1585616e-01  -5.6729955e-02  -2.1213653e-02   2.9817751e-03  -3.7269539e-02  -3.9125801e-02  -5.6245554e-03  -1.3219088e-01  -7.2335500e-02   1.3307030e-02  -8.3118997e-02   4.1756625e-02   3.1993666e-02   1.6290007e-02   1.6885622e-02  -4.7197239e-02   5.3489194e-02   3.9303847e-03   1.8483023e-02   2.6291472e-02   5.1282270e-02  -2.6991816e-02  -3.6196248e-03  -3.4773515e-02  -6.9912163e-03   6.7024167e-03   3.3508324e-02   2.3907737e-02   1.0671177e-01   3.2523123e-02  -9.4143680e-02   5.0849147e-02  -3.6097967e-02   6.3300032e-02  -6.5128361e-02   1.0804958e-01  -1.4780725e-02  -7.1790801e-03  -4.1070441e-02  -4.9755296e-02  -6.5741823e-02  -1.0425740e-01   1.0927372e-01  -2.4690015e-02   1.7916334e-02   3.3264465e-02   7.3847387e-02   5.1557347e-02   7.3299184e-02  -5.3908404e-02   3.9314517e-02   1.2955335e-01   5.5438675e-03   6.4324390e-03  -5.4388663e-03   1.1380882e-01   6.2892896e-02  -9.9064720e-03  -7.2441738e-02   3.8063153e-02  -3.4314366e-02  -2.4898250e-03  -6.6400852e-02   9.7988870e-03  -7.9620523e-03   3.1872873e-02  -9.5979835e-03   8.2040714e-02   1.5044530e-01   7.3749908e-02  -1.0517750e-01  -2.9029538e-02  -1.0076562e-02  -3.1116164e-02   1.2320026e-01   1.4094868e-01  -2.8042884e-02  -4.3192358e-02  -5.4130009e-04   1.4520475e-02   5.0166595e-02  -1.0855578e-02  -3.1501633e-02   6.6819475e-02  -5.3352617e-02   1.2344740e-01  -7.7372951e-02   1.0759528e-01   1.5518054e-01  -7.5189228e-02   4.5168319e-02  -1.2984769e-01   2.0369133e-02  -2.1421412e-02   5.0875031e-02  -4.4428082e-02   4.9134471e-02   4.9036227e-02   1.0165051e-01  -1.5244107e-02  -8.9038335e-02  -4.3501458e-02  -1.1515694e-01  -2.7326983e-02  -1.1821505e-02  -5.0135266e-02   2.5808597e-02   1.9685197e-02   3.7257848e-02  -1.0138878e-01  -4.1209281e-03  -5.4718372e-03  -6.2710124e-02  -6.5534871e-03   1.2027279e-01   3.5411941e-02   6.0808391e-02   2.9136894e-02   5.0173454e-03  -5.0954243e-03  -9.2364010e-02  -1.7171444e-02   4.6592525e-02   3.9397140e-02   8.3892987e-02   3.8413349e-02   3.2187861e-02  -2.4659799e-02   7.8535760e-02  -1.2910011e-02   2.0991016e-02  -6.6826282e-02   6.2976529e-02  -7.2329069e-02  -1.0092054e-03   6.8281062e-02  -5.4579347e-02   5.2308905e-03  -3.0087988e-03  -1.3412833e-02  -2.0992271e-02  -5.3726476e-02   4.2453865e-02   3.1491322e-02  -7.4765230e-02   4.5176005e-02  -5.8575385e-02   8.6672853e-02   7.6930069e-02  -1.0514436e-01  -7.4556427e-02   5.9393907e-04  -8.0137502e-02   3.7539102e-02   7.4695718e-02  -6.6369525e-02   3.6270534e-02  -2.3581038e-02  -9.0117896e-04  -1.0088384e-01  -7.1247462e-02   1.2882588e-01  -2.1948507e-02  -9.3940635e-03   4.8364870e-02   5.4420774e-03   1.3704208e-02   4.3372698e-03   1.3127402e-02  -3.8675077e-02   1.0458738e-01   3.8747532e-02   2.6312275e-02  -5.6459311e-03   7.4170981e-02  -8.3801434e-02   6.9886909e-04   2.3173535e-02  -1.0969978e-01  -1.1705831e-01  -5.6133345e-02  -8.1787385e-04   9.3523451e-02   1.3136751e-02   4.0402662e-02   3.8326459e-02   7.1522177e-02  -8.0982569e-02  -2.8320862e-02   4.6764247e-02  -1.7165462e-02   4.5849020e-02  -3.1367503e-03  -3.2093395e-02  -4.5990266e-02   1.3211803e-01  -6.3247248e-02  -2.4557397e-02   1.2688897e-01   3.7921410e-03  -5.4670884e-02   2.4248542e-02  -3.6602835e-02   3.5620484e-02
  -4.8363593e-02   5.5196734e-02  -9.4942284e-02  -4.9681592e-03   6.2609586e-03   2.5743216e-03  -6.3927144e-02  -6.8851283e-02   7.0659611e-02   3.9425898e-02   4.6908359e-02  -8.8757607e-03  -4.0361078e-03  -4.7470128e-03  -1.2513684e-02  -1.2181672e-01  -3.2712277e-02  -1.8635374e-02   5.1145811e-02  -4.8113974e-02   6.9296345e-02   9.2255410e-02   5.4103347e-02  -2.3848635e-02   7.3226220e-02   4.1316380e-02   2.6094496e-02   8.3191667e-03  -1.1139714e-02   3.1325533e-02   4.0067447e-02   5.1316386e-03   2.8849975e-03   6.4683639e-02  -6.3359605e-02  -8.6983140e-02  -1.1646725e-01  -4.1057707e-02   8.3416013e-03  -1.1180909e-02   3.1838750e-02   1.0964942e-01   4.1747084e-02  -4.2086190e-02  -1.5338295e-01  -1.4434521e-01  -8.6251165e-02  -1.1701422e-01   8.2452682e-02  -5.1341787e-02   1.3601522e-02   5.0662655e-02   3.6655284e-02  -4.4004712e-02  -6.1540245e-02   9.3859796e-02   2.1039315e-02   1.5650197e-02   1.1538545e-03   8.1470145e-02  -4.4624725e-02   2.9803779e-02  -8.1955380e-02  -7.8279427e-02   2.2584828e-02   2.0673831e-02   8.5897118e-02   1.8459460e-02  -8.5610425e-02  -3.2252715e-02  -3.4162114e-02  -9.8321780e-02  -5.7276691e-02   6.4850896e-02  -5.5175616e-02  -5.4621266e-03   3.2075582e-02  -2.5483221e-02   3.2321145e-02   5.1254415e-02   5.0486982e-02   1.3093327e-01   1.9727617e-02   3.5887822e-03   9.6736778e-02  -3.4426919e-02   3.3912426e-02   1.2428530e-03  -3.9027378e-02  -5.3053756e-02  -1.1218407e-01  -6.2675094e-02  -1.9693722e-02   7.4137071e-02  -9.3381570e-02  -6.9465378e-03   6.1519467e-03  -8.4082679e-02  -3.0892575e-02   2.0762889e-03   7.5926811e-02  -2.1307550e-02   7.0501647e-02   2.6269760e-02   1.0569647e-01   9.0720328e-02   7.2917228e-02  -9.6652616e-02   4.8853902e-02  -8.6595595e-03  -7.1858123e-03  -2.7736751e-02   8.3345769e-02  -5.7037717e-02  -8.0419830e-02  -3.5724366e-02  -2.0998091e-02   7.3901619e-02  -5.3102886e-02   4.8875600e-02  -1.9085001e-02  -3.8738549e-02   1.1396073e-02   2.3780295e-02  -5.0895492e-02   8.3364828e-02   5.9752802e-02  -5.4096503e-02   7.5445521e-02  -2.8531401e-02   8.8865211e-02   1.9803167e-02   2.3063964e-02   1.2099853e-01  -6.8155700e-02   1.6402880e-02   1.1763066e-01  -1.7166584e-02  -7.0094126e-02   1.0231884e-02  -1.2909080e-02   5.1400836e-02  -7.4367747e-02  -5.6764166e-02   1.2422430e-01  -6.2993686e-02   4.5068057e-02   1.3775522e-01  -2.6473894e-02   5.3910718e-02   2.2845450e-02   1.0302997e-02   4.1365450e-02   9.9397965e-02  -1.7647424e-02  -9.3056273e-02  -1.2423294e-02  -1.4019950e-02  -5.6192910e-02   1.0262149e-01   4.5603927e-02   5.9460205e-02   1.6757273e-01  -8.2883474e-03   5.1376553e-02  -4.5900907e-02  -9.1981057e-03  -2.0783745e-02   2.3871133e-03   1.4136096e-02   3.8143540e-02  -2.2850962e-02   6.6531328e-03   7.6873378e-03   7.4902929e-02  -7.1850761e-02  -2.3698138e-03   1.9974065e-02   6.1745975e-02  -5.9871581e-02   6.4825739e-02  -2.1144457e-02   6.9245077e-02  -6.4117255e-02   7.7842080e-02  -8.1211465e-02   9.4120301e-02  -3.1313547e-02  -6.7996536e-02  -4.4147662e-02  -8.2435494e-02   6.5956260e-02   1.5976050e-02  -1.0886485e-01  -1.3107068e-02  -1.2706315e-02   4.9226027e-02  -2.5529130e-02  -2.9520675e-02  -6.6955671e-02   7.2842228e-02  -6.7707228e-02   1.3189050e-02  -1.3333121e-01  -4.2994064e-03  -1.3910421e-02   2.6661706e-02  -4.7657558e-02   9.0496713e-03  -2.5008955e-02   1.0596629e-01  -9.7868468e-03  -2.9169535e-02  -7.7751959e-02  -1.5364165e-01   6.9770270e-02   3.0217633e-02   1.6413511e-02   8.4103293e-03  -9.1577172e-02   7.7896601e-02  -9.9015164e-02  -1.4300739e-02   8.1859492e-02  -4.6664019e-02  -7.3598942e-02  -1.4735101e-02   5.4917774e-03   1.2632573e-04  -8.7208937e-03  -1.6761648e-02   4.3524454e-02   6.3379551e-02   1.3971803e-02  -7.0517936e-03   7.7780335e-02  -5.3866245e-02   5.7856043e-02  -1.2546562e-01   4.6251708e-02   3.4075608e-02  -5.3343736e-02   1.2440798e-02   1.2912445e-01  -9.7304485e-02   1.0622795e-01   9.9748286e-02  -1.7993868e-02   3.2435671e-02  -5.4074664e-02   4.7423728e-02  -1.3331215e-01  -1.0325267e-01  -3.9790606e-02  -3.0607284e-02   1.2230034e-01
   1.1177052e-01   1.0405852e-01   5.2602626e-02  -2.3970603e-02   7.6670240e-02  -5.7368693e-02   4.5799094e-02  -2.8756325e-02   6.3215937e-02   8.7154133e-02  -4.7486318e-02  -4.5088026e-02  -7.6525759e-02   1.1665522e-02  -1.2817721e-02   1.7229824e-02   1.2083136e-02   6.8894409e-02   3.0193658e-02   5.6080293e-03  -5.9462726e-02   8.0649568e-02  -4.3500264e-03  -3.2325637e-02  -7.9615010e-02   6.8067856e-02  -5.2234501e-02   5.9978084e-02   4.1044466e-02   7.3565250e-02   2.7879782e-04   7.1626757e-03   2.0850439e-02  -4.1921522e-02  -1.2557670e-02   2.5773740e-02   6.1381031e-02   1.3107201e-01   1.0495888e-01  -1.7373290e-02   1.7348700e-02   2.8775910e-02   1.8744501e-03   7.4234124e-02   3.0644208e-02   3.3159748e-02   6.4612192e-02   4.8546602e-02  -3.7752684e-02  -5.6134119e-02  -1.5941538e-01  -6.5509707e-02   4.0045073e-02  -3.9620416e-02  -9.2726706e-03   5.0736544e-03  -8.4753464e-02  -4.8655469e-02   6.4745055e-02   6.9245953e-02   7.1799133e-04  -6.3117605e-02  -3.2968695e-02   7.5123417e-02  -7.2695083e-02   5.4700708e-02  -3.5421435e-02  -1.0978612e-02   6.0359196e-03  -7.4649754e-02   5.7815896e-02  -7.0541151e-02  -1.1974575e-01  -6.9037132e-02   4.2118344e-03  -9.0950032e-02   8.9609349e-02   1.9035456e-02  -5.1009945e-02   7.5091543e-03  -4.4178806e-02  -1.0183140e-03  -1.8159214e-02   1.2210418e-01   3.5499944e-02   6.3826658e-02   7.1346398e-02  -7.5736602e-02  -1.2787078e-01   2.9083152e-02  -6.2582281e-02  -2.9729570e-02   9.1169926e-02  -6.1554151e-02  -3.5932211e-02  -8.5362614e-02   2.0482368e-02  -1.2537516e-02  -8.1855303e-02   6.6736572e-02  -1.6960258e-02   1.1432835e-01   3.6439041e-02   7.5129356e-02   6.3558938e-02   7.5067790e-02   8.3912886e-02   5.8592537e-02  -1.0167139e-02   1.3966638e-01  -1.4740040e-01   4.8538933e-02   9.9569589e-02   1.1214465e-01   1.1871677e-02  -9.8984678e-03  -9.9409505e-03  -1.2725657e-01   7.5000142e-03  -8.8824694e-02  -1.6731557e-02  -1.3348031e-02   5.3002436e-02   1.2969584e-02   1.5180808e-02  -3.8252382e-02  -9.4103589e-02   3.5115411e-02   8.3767582e-03   3.2830989e-03   1.0643983e-01  -1.5152955e-02  -9.0777927e-02   7.9533843e-02   1.0239309e-02  -1.7904516e-02   1.6801866e-02   5.1647892e-02   2.3732524e-02   7.6187336e-02   6.8460007e-02  -3.0823184e-02  -4.8332957e-02   3.3726393e-02   1.2311027e-02   2.0184145e-02  -1.8775177e-02   5.6174652e-02  -5.0807679e-02   6.9180624e-03   6.6682007e-02   3.7330413e-02   7.9424216e-02  -6.4849096e-02   8.6442177e-02   4.1436151e-02   9.7621905e-02  -4.6244659e-02  -3.7060847e-02  -9.3674559e-02   5.6760684e-02  -2.8416299e-02   7.6666019e-02   3.2392254e-02  -2.6420745e-02  -8.6185366e-02  -2.6526926e-02   1.1692251e-01  -7.3367678e-02   2.0824912e-03  -5.6900345e-02  -5.0041533e-02  -4.1263686e-02   7.6491073e-02  -5.2001953e-02  -7.5608448e-02   4.5543631e-03   4.4338420e-02  -3.3609050e-02  -4.7555095e-02   4.7912683e-02  -8.4933598e-02  -6.6871424e-02  -5.0215947e-02   2.1174475e-02  -9.7133847e-02  -8.8627822e-02  -1.9369946e-02  -8.5750229e-02   3.3265279e-02   1.1804334e-03  -4.6808395e-02  -4.8393333e-02   3.6056692e-02  -6.6841601e-04  -1.5944616e-01  -4.6430765e-02  -8.1944753e-03  -7.1175444e-02  -6.3515862e-03  -2.4081299e-02  -3.1339240e-02  -2.6310699e-02   4.3018423e-02  -2.5368546e-02  -7.8324437e-02  -1.0632843e-01   7.7218899e-02  -1.1871311e-01   5.4592273e-02   1.5987933e-02  -3.9412804e-02  -2.4216688e-02   9.8512646e-03  -3.6047636e-04  -4.5644919e-02  -5.8169465e-02   7.4766913e-02   5.2002264e-02   3.9303937e-02  -5.1508847e-02  -4.5043242e-02  -3.6132708e-02   5.8223754e-02   3.0229446e-02   6.3889119e-02   9.3193583e-02  -8.3296255e-02   6.9194336e-02  -1.5298218e-01   2.1373394e-02   4.1541022e-02   6.9979175e-02  -1.3271366e-03   2.4663953e-02  -3.0858313e-02   6.3670703e-02  -4.8317860e-02   1.2015401e-02  -1.6535245e-02   6.6248317e-02  -4.6438353e-02   8.8966680e-03  -1.5941225e-02  -2.9268470e-02  -1.1787164e-01   8.7881570e-02   3.1161439e-02  -1.1747829e-01   1.4153549e-01   2.3541789e-02  -9.4803548e-02  -4.9458378e-03   2.9146366e-02  -1.1833577e-01   1.1007761e-01
   3.1823514e-02   3.3257046e-02  -6.1635507e-02   2.6481946e-02  -8.4535085e-02  -9.7220340e-02  -3.4356745e-02  -9.8290079e-02  -1.3421526e-02   8.9747577e-02  -1.5941848e-03  -2.5935525e-02  -1.2833986e-01   1.8562668e-02  -2.8642643e-02   5.1886576e-02  -8.3498294e-02  -1.6081181e-02   7.3627591e-02  -8.2553158e-02  -4.1094315e-02  -1.6195769e-02  -1.4834082e-02   7.0241710e-03   1.5632991e-02   2.7488964e-02   5.3664540e-02   1.3238125e-01   1.0312021e-02   2.5974948e-02  -2.9181965e-02   1.3535421e-01   2.4897265e-02   6.8221585e-02   1.0315513e-01   8.1753734e-03   5.4250534e-02  -8.4233673e-04   2.3779275e-02   1.2455112e-01   7.7097389e-02  -2.7574512e-02  -1.5409880e-02  -3.0433084e-02  -5.5615238e-02   1.0768187e-01   1.1096575e-01  -1.2237522e-01   3.9291643e-02   1.3120671e-01   6.7725344e-03  -8.6228461e-02   5.6815837e-04   1.0770327e-02   3.7888061e-02   6.3412987e-02   1.6135671e-02   2.7741984e-02   7.5673002e-02  -1.5841230e-02  -2.9649389e-02  -8.3205201e-02  -1.7289900e-02   7.2168278e-02   1.0952281e-01   3.8095487e-02  -8.4996338e-02  -3.0751038e-02   1.2970162e-02   5.0252826e-02   2.9534171e-02  -3.0801602e-02  -9.4796167e-02   2.1274723e-02   1.0885288e-01  -1.0423033e-02  -1.0480942e-01   2.4250253e-02  -1.0187659e-01   7.0348033e-02   5.1407630e-02   9.3059292e-02  -6.8988022e-04  -6.8243643e-02  -5.3877567e-03   5.7689913e-02   7.3363172e-02   6.4967545e-02  -5.1747037e-02  -1.3477766e-02  -1.3204174e-03   9.7921222e-02  -1.9774453e-02   2.7381219e-02   7.4787741e-02   4.5755954e-02   9.9523597e-02  -1.0493885e-02  -7.3370094e-02   6.6293671e-03  -3.3317550e-02   2.1026130e-04   2.0972181e-02  -5.7300909e-02  -4.5951232e-02  -1.2058215e-01  -2.4432011e-02   4.0280397e-02   5.4466651e-03  -8.0522475e-02   3.7527835e-02  -9.4218591e-02  -6.3981374e-03   1.0264063e-01   5.8922574e-02  -2.0239632e-02   1.2101360e-02   1.3608777e-01  -1.3165570e-01  -1.1761950e-02   2.7815240e-02  -6.3069963e-02  -5.8700237e-02  -1.9870881e-03  -4.5892191e-02   6.6252612e-02   2.1790982e-02   4.5477753e-02  -3.6941343e-02   9.3878879e-03   1.4825331e-03  -1.6855641e-01  -2.5187981e-02  -2.2509481e-02  -7.6552032e-02   6.7791511e-02   4.0175226e-02   4.9856568e-02  -3.0691598e-02   2.8183191e-02   4.0523132e-02  -1.3506889e-01   7.1813002e-02   3.7705867e-02   2.6850021e-02  -6.8652629e-02  -4.8239911e-02   2.1672962e-02  -6.1457648e-02  -9.4631699e-02  -9.6346274e-02  -6.0455746e-02   8.2019089e-02  -3.2285134e-02  -1.7847186e-02   2.2462264e-03   3.1409668e-02  -9.7336354e-02   7.9024773e-02   3.8149981e-02  -3.9228985e-02  -1.6034728e-02  -3.9486858e-02  -3.4386181e-02   8.7873758e-03   1.6038263e-02  -1.2093436e-01   8.8314051e-04  -6.2299728e-02   4.3810293e-02   5.8136005e-02   7.3521380e-02   6.6783711e-02  -1.2644532e-01  -1.2161227e-02  -4.6138048e-02  -1.2982994e-01   1.7136558e-02  -4.9583223e-02  -3.8494132e-02   1.6338905e-02  -7.3937500e-02  -1.7084047e-02  -1.9431107e-02   1.0144352e-01  -4.7948365e-02  -5.4665549e-03   4.0946689e-02   2.7512906e-02  -1.0211402e-02   5.2816797e-03  -6.3725035e-02  -1.2496821e-02   4.2745328e-02  -9.2518361e-02   1.2074081e-02   6.4542865e-02   7.3676776e-02   4.1051185e-02   4.3470789e-02  -1.1749498e-01   4.1553208e-02  -9.4850700e-02  -1.1555965e-01   3.7227489e-02  -1.0380571e-01  -1.0503860e-01  -3.6484983e-02  -1.4194435e-02  -3.1866507e-02   1.6914361e-02  -3.5323410e-02   1.2274541e-01   9.0775774e-03  -3.8532764e-02  -3.1605995e-02   9.0058672e-02   3.5251440e-02   2.2679887e-02  -5.9309821e-02  -1.7589349e-02  -2.0104288e-03   4.5823867e-02   5.7225928e-02   9.4086703e-04  -3.0036840e-02  -4.7961740e-02   1.2752877e-01  -4.2587327e-02  -6.6858543e-02   2.1981875e-02   3.1545897e-02   9.3082517e-02   8.4589168e-02   2.3824964e-02   3.5258383e-02  -9.5815176e-02   4.2117705e-02   8.6647352e-02  -9.2231571e-02   6.3328272e-02  -5.7245890e-02   3.1363777e-02  -2.3621895e-02  -9.7349253e-04  -6.5768465e-02   2.6322540e-02  -1.0439725e-01   1.1129027e-01  -2.6890555e-02  -4.4984027e-02  -4.2908904e-02   7.1300280e-02  -3.9635119e-02   5.4770046e-02  -4.3342975e-02
   4.6201739e-02  -1.1441016e-01   1.2931836e-02  -2.3230562e-02  -4.8823434e-02   4.7117575e-02  -3.3230748e-02   1.2839464e-01  -1.1399776e-01   3.4889467e-02  -8.3718287e-02   9.1679254e-03   6.7424175e-03  -6.2485852e-02  -2.2926150e-02  -7.1096129e-02   1.8873235e-02   9.4588793e-02  -5.2960569e-02   3.8834801e-02  -2.7318800e-02  -1.3851265e-03   2.3401018e-02   9.1561713e-02   2.8935151e-02   6.2703120e-02  -5.7515311e-02   3.8793114e-02   3.4579455e-02   1.6942647e-02   2.8066787e-03  -4.0717331e-02   3.9788753e-02   4.3166534e-02   3.9888322e-02   4.0006936e-02  -1.0193870e-02  -7.4236063e-02  -3.1754142e-02   4.3295337e-02   2.3280932e-02   7.2688281e-03   2.0846782e-02  -3.9231056e-02  -6.1381489e-02   4.1496173e-02   9.8900092e-02  -2.6289828e-02  -2.0093354e-02   6.6522673e-02   3.8107493e-02   2.6771242e-02   2.3172297e-02   1.1083312e-01  -1.4094662e-01   9.8862221e-03   1.2972945e-01  -1.5590006e-03   1.1875302e-02  -2.4607792e-02  -1.4267321e-01  -1.2651639e-01  -2.8526325e-02   3.3437150e-02  -4.4095041e-02  -1.3304410e-01  -1.1447270e-01   1.1410010e-02   3.1240614e-04  -1.6640808e-02   9.1297544e-02   4.2602054e-03  -5.9411977e-03  -3.1926043e-02  -1.9335674e-02  -8.8182431e-02  -6.3247685e-02  -2.8195072e-02  -5.9630154e-02  -5.8050711e-02  -4.0704973e-02   4.6336562e-03   1.7636907e-03  -2.7492541e-03  -5.0669054e-02  -1.0500561e-01  -4.6257851e-02  -6.6151644e-02   9.3697660e-02  -5.6224907e-02  -6.5324227e-02   1.5972797e-02  -3.9470258e-04  -3.5115951e-02   1.1593185e-02  -6.8017912e-02  -6.6295724e-02  -9.5390283e-02   2.2757580e-02   1.0349144e-01   8.0294858e-02   1.4066297e-01  -9.4841435e-02   1.6168886e-02  -1.6122215e-01  -8.0756925e-02   5.0883878e-02  -5.6916361e-02   7.5355907e-02   7.8882132e-02   4.5797258e-02  -1.9691901e-02   5.6943167e-02  -4.1365287e-03  -1.0319512e-01   1.0503739e-01  -3.5326345e-02  -3.3924284e-03  -3.7574869e-04   9.7835042e-02  -2.5767437e-02   3.3883583e-03   1.2714597e-02  -5.4640282e-02   2.5519366e-02   5.2562659e-02  -7.0316890e-02  -1.0117281e-02   3.3962485e-02  -4.1589782e-02   5.2831865e-02  -8.4616298e-02  -4.1508946e-03   8.1818230e-02   1.4078106e-01   2.5401873e-02  -5.7416987e-02   6.1676296e-02   1.0602283e-01   7.5546470e-03   3.1253972e-02   8.5790371e-03   4.4517897e-02  -1.5564942e-02  -4.0954724e-02  -6.7923739e-03  -4.8366679e-03   2.0063525e-02  -6.6464417e-02   6.7814173e-02   1.3399302e-02  -2.1855645e-02   9.5336108e-02  -7.2251103e-02   4.9498635e-02  -2.0615911e-02  -4.4593610e-02   4.4497146e-02   3.1054374e-02   6.8711216e-02   1.4304875e-01   3.1020415e-03   2.8820123e-02   1.6906564e-01  -1.7235562e-03  -1.7426277e-02   4.5994672e-03  -1.0847755e-01   1.7688584e-03   7.9828343e-02   5.1742581e-02   1.2973588e-01   1.8847401e-02  -2.6423655e-02  -4.2807153e-02   4.3031219e-05   3.8480020e-02   8.2482432e-02   8.3932637e-02  -5.1302789e-02  -3.1790496e-02   6.4377303e-02   6.9363783e-02   4.3071229e-02  -8.7774099e-03   6.0757550e-02   1.0692082e-02  -6.4038909e-02  -5.8601507e-02   3.4978977e-03   2.2532939e-02  -8.0906532e-02   3.8459263e-02  -8.3409223e-02   1.3912407e-02   1.5930624e-02   1.6327320e-02  -6.2033809e-02   1.2852342e-01  -4.2057340e-04  -9.0212272e-02  -1.6930405e-03   3.3582903e-02  -2.7062233e-03  -5.2511225e-02  -2.6328339e-02  -3.9731211e-02   8.5155191e-02  -3.9608043e-02  -1.8525744e-02   3.9338412e-02  -2.9510153e-02   1.5946270e-02   4.1534529e-02  -4.0757678e-02   1.1712926e-01   8.5251502e-02  -3.1440445e-02  -9.9359573e-02   1.6613248e-03  -8.1580532e-02  -7.8465500e-02   4.8137650e-02  -8.5999711e-02  -1.0905135e-01  -1.2174318e-01   4.2259403e-02  -5.2649656e-02   7.1807373e-02  -3.3574541e-02  -5.1173938e-02   1.1215066e-02  -3.6213946e-02   1.1068205e-01   6.8448374e-02  -2.3709903e-02  -2.0315956e-02  -1.2487076e-01   3.7446729e-03   1.3422361e-02  -7.2651894e-02  -6.9913926e-02   4.4510417e-02   1.0736698e-01  -4.6129843e-02   3.9760260e-03  -1.1222841e-03   9.6867293e-02  -6.5392255e-02  -7.1165296e-02   5.5358076e-02  -7.0867305e-03   1.1397003e-01   2.2989493e-02  -9.3322481e-02  -5.1436049e-03
  -5.3863564e-02  -8.4750349e-02   1.1997299e-01  -5.7315141e-03  -5.3020311e-02  -3.8927103e-02   6.0413809e-03  -2.1476434e-02   1.2068880e-02  -1.1936336e-02  -7.4934971e-02   7.0295718e-02   8.4172235e-02  -1.1884818e-01  -6.1920091e-02  -9.9050591e-02  -5.2740779e-02  -1.0627432e-01  -6.9689707e-02   7.7121561e-02   3.2013566e-02  -1.6386398e-02   6.2040327e-02  -7.2909677e-02  -6.1824068e-03   7.0354871e-02   6.5521477e-02   7.9254994e-02  -8.8825202e-02   1.6503280e-02   5.8150578e-02  -5.7293806e-02  -1.1099743e-01  -3.8868655e-02   6.8036082e-02   5.8075324e-02   7.8003904e-02   3.6972310e-02  -2.7638461e-03   2.6975013e-03   1.3537839e-01  -4.4442355e-02  -9.8271840e-02   7.8707041e-02  -7.8583690e-03  -1.8491110e-02   6.0812555e-02  -1.7661394e-02   6.6502305e-02  -5.8262925e-02  -4.3081642e-02   1.8003057e-02  -8.6074114e-03  -1.0652816e-01   2.6699854e-03   8.3136944e-02  -2.4238558e-02   9.9218731e-02   6.3150032e-02  -1.4959616e-02   1.0081839e-01   3.6955337e-03  -2.9531425e-02  -1.0784904e-01  -7.4763887e-02  -1.9792333e-02   9.2825455e-04   2.6085015e-02   6.0890843e-03   4.8016304e-02   1.0708857e-01  -8.2110480e-02   1.7586058e-02  -4.6675052e-02  -5.6252253e-02   1.5533600e-02  -8.7564445e-02  -7.2702009e-02  -4.0836614e-02   7.1056939e-02  -9.2684484e-02   2.1722772e-02   1.0620661e-01   1.4126655e-02  -7.5106785e-02   9.6582098e-02  -5.4122894e-02   6.8791297e-02  -3.8748040e-02   4.9070842e-02  -5.8659660e-02  -4.4040542e-03   1.9652651e-02   6.3688625e-02  -1.6928548e-02   2.1083534e-02  -2.5919643e-02   1.0827059e-01   5.7657849e-02   7.0065214e-02   1.3255823e-01  -3.9127353e-02  -1.0082676e-01  -1.8250691e-02  -1.8089306e-02  -2.2206803e-02  -1.2401354e-01   4.4262201e-02  -7.6106751e-02  -6.1849742e-02  -1.2329036e-02  -2.3766254e-03  -1.7665897e-02   2.1822634e-02  -8.1328910e-03  -4.8614373e-02   9.4281904e-02  -3.0060789e-02  -1.5786021e-02   5.1927269e-02  -1.6342114e-02  -3.7366047e-02  -1.1662072e-02  -6.4172624e-02   3.0104455e-02  -7.8753238e-03  -3.2708981e-02   9.6201105e-02  -5.3340472e-02  -7.4111128e-02   2.2982217e-02   4.9942190e-02   7.8125932e-02  -2.6116996e-02   8.4806343e-02  -7.7146804e-02  -4.8539595e-02  -4.7164648e-02   2.2102980e-02   5.1352977e-02  -2.4578845e-02  -3.6013296e-02   8.1981194e-02  -6.0378520e-02   7.8582874e-02  -9.8395235e-02   3.9365642e-02  -6.0183884e-02  -2.3445497e-02   4.8122030e-02   1.2795375e-01   2.1963184e-02   2.3215876e-03  -5.8324093e-02   1.1940475e-01  -6.6193436e-03  -5.0515667e-02  -3.5816187e-03   1.1544451e-02   1.0595177e-01  -6.6391011e-02  -3.6003925e-02   5.0569053e-02   6.2732755e-03   1.1870732e-01   9.0259182e-02   8.3672118e-02   8.3002701e-02  -2.0764187e-02  -4.8749966e-02   1.8892844e-01   5.9429514e-02  -1.1005829e-01   6.6194993e-02  -1.0167753e-02   7.6363743e-04  -4.7169072e-02   9.9136982e-03  -7.1082007e-02   5.8051587e-02   1.8894801e-05  -5.6068852e-02  -6.6442627e-02  -4.2408211e-03   7.0945908e-02   5.3908221e-02   4.8559167e-02  -3.7322014e-02   4.2382776e-02   2.9203603e-03   3.1322134e-03   7.9564040e-02  -8.1381504e-03  -3.8773545e-02  -7.4347638e-02  -1.3549215e-02  -1.1837756e-02  -8.8584673e-02  -4.8928290e-02  -1.0918851e-01   1.0225031e-01   1.8731585e-02  -2.8982388e-03   6.5722623e-02   6.1905735e-02  -2.2691625e-02  -4.5046454e-02  -5.2664800e-03  -6.8849320e-02  -7.4235524e-02  -3.6246316e-02   1.0524541e-01  -4.8852398e-02   3.5900694e-03   4.4135373e-02  -8.0756958e-02   3.9859614e-02   6.6581254e-02   1.8022834e-02  -2.3688074e-02  -2.7564137e-02  -7.0705542e-02  -2.7995879e-02  -4.4333221e-02  -3.2835975e-02  -5.0611611e-02  -6.6161112e-03   2.7793923e-02  -1.0788335e-01  -1.8149441e-02  -4.6883344e-03   4.0132002e-02   1.1546993e-01   1.0940267e-02   1.1667774e-02   9.2106421e-02   2.5770783e-02  -7.5083157e-02  -7.6882333e-03  -8.9973458e-03   5.8283650e-02   2.3943859e-02   6.5353161e-02  -5.4332645e-02  -1.4990718e-01  -1.9088377e-02   1.0566690e-01  -4.0299153e-02  -6.2287117e-02  -8.8469729e-02  -9.6762252e-02   7.5513197e-02  -2.6150973e-02  -9.1822572e-03  -1.2082345e-01  -5.8667161e-02
  -9.1073960e-02  -3.9120720e-02   6.1433911e-02   2.1303333e-02  -8.1199860e-02   2.9475565e-02  -8.6094564e-02   3.6520384e-02  -4.4601512e-02   2.6015198e-02  -8.8301531e-04  -1.3459360e-01  -1.0132976e-02  -1.8774127e-01  -1.3145520e-02  -3.4312212e-02  -8.5584854e-02  -6.2530303e-02   1.5146386e-02   6.6454875e-02   5.5121883e-02   6.8797311e-02  -1.1066402e-01   9.8768634e-02  -5.0551912e-02  -5.5943804e-02   4.0556242e-02   6.9180124e-02   2.4660651e-02   8.3982679e-04   4.9922981e-03  -7.6414537e-02  -7.9777418e-02   1.5462261e-01   1.6860459e-02  -3.9852790e-03   1.0897785e-01  -1.8435372e-02  -5.9667625e-03   1.2495046e-01   3.1407367e-02  -1.7276811e-02  -4.2650750e-02  -7.0869896e-02   1.6754497e-02   1.2366654e-02  -1.7484961e-02   3.1658061e-02   1.2754011e-01  -2.5708022e-02  -6.6686461e-02  -2.1416995e-02  -7.0480447e-02  -1.4722570e-03   3.2091785e-02   2.5308136e-02   4.6122674e-02  -1.3761502e-02  -4.9226910e-02  -3.0050316e-02   3.1639882e-02   1.4542248e-02   6.0070927e-02  -2.2357265e-02  -3.2310667e-02  -9.6364739e-02   2.0917805e-02   1.7077355e-01  -4.2314133e-03   9.7574065e-02  -4.4993128e-02  -6.9531682e-03  -6.4923365e-02   5.1297732e-02   7.1591217e-02  -7.2457540e-02   2.0432319e-02  -4.5510296e-02   3.5503366e-02   8.5289510e-02   2.0394135e-02  -5.8548237e-02  -3.5883783e-02  -4.1509006e-02  -2.1565371e-02   1.0942822e-01  -6.6358678e-02  -2.0842691e-03   8.2669181e-03   3.0914444e-02  -2.9340792e-02   4.0364755e-02   4.8527260e-02  -9.9877184e-02  -4.6667165e-02  -2.4305404e-02  -4.0117544e-02   1.1565522e-01   2.4642539e-04   7.6272710e-02   6.1779538e-02  -2.2839449e-02   1.3421213e-01  -2.7282271e-02   5.4153458e-03   5.0525209e-02  -3.6796966e-02   5.3758881e-02  -3.0781950e-02  -2.4743612e-02  -6.4854300e-02  -4.2348833e-02   6.3965726e-02  -1.3654322e-01  -5.9209131e-03   3.3741351e-02  -1.2085834e-01   7.1126130e-03  -7.5520926e-02   9.4502913e-02   2.2567156e-02  -1.9928818e-02   1.1632392e-01   1.0217220e-01   5.6330021e-02  -3.9065438e-02   5.0076516e-02  -5.2287942e-02  -1.2176966e-01   1.6087533e-03   8.5103278e-02   1.0288813e-01   9.4839102e-03   3.4122210e-02   1.2999880e-02  -9.7421900e-02  -6.6708522e-02  -1.7368706e-02  -1.1416867e-01  -1.0704652e-01   2.4824280e-03   9.6486413e-02   9.9913208e-03   8.3308003e-02   2.6647130e-03  -2.3611856e-02  -3.0705029e-02  -2.7674416e-05   3.6374983e-02  -1.8833102e-02  -6.8610255e-02   1.9528876e-02  -2.8999109e-02   5.7526232e-02  -3.0677281e-02   1.0619655e-03   4.2770791e-02  -6.3200244e-02   7.9384491e-03  -6.6166687e-02   4.4581939e-02  -1.4499439e-02   4.1569212e-02  -9.4463137e-02  -1.7174087e-02  -3.4651206e-03  -9.2834969e-02   1.8116147e-02  -6.1989490e-02   5.1687188e-02  -4.6181368e-02  -1.3597025e-01  -1.0376160e-02  -7.8709732e-02  -2.2835903e-02  -5.5648217e-03  -5.0252538e-03  -4.0283199e-02  -9.0273504e-02  -8.4641398e-03  -9.4438442e-02   6.3029087e-02   3.0010466e-02   8.5446377e-02   4.0062408e-02  -2.9753981e-02  -7.6574308e-02  -8.8085646e-02  -4.8691705e-02   2.8484448e-02   5.2673866e-03  -1.2905938e-01  -6.2985227e-02   1.6175274e-02  -2.6352774e-02  -3.5416439e-02  -1.6885301e-02   2.5562907e-02  -1.4139842e-02   1.0254014e-01  -9.2384598e-02   4.0176765e-03   3.6970756e-02   6.1444535e-03  -1.3772289e-03   4.7251795e-02   7.6448441e-02   1.9556747e-02   7.2278902e-03  -7.0693302e-02   4.3345257e-02  -1.8563473e-02  -1.2116922e-01   6.6709422e-02   8.5140094e-02   1.2610551e-01  -4.0336162e-03  -1.1687289e-02  -1.8098810e-02   3.6460033e-02  -2.8252882e-02  -9.5469857e-02   1.0277439e-01  -1.4085289e-02   9.9352428e-04   1.0317506e-01  -5.1530244e-03   2.4727932e-02   3.9171767e-02  -8.3126401e-02   1.1316048e-01  -1.1185528e-02   6.4424268e-03  -2.7468936e-02  -3.2398064e-02   5.4879826e-02  -3.9920977e-02  -2.8861082e-02   5.0379352e-02   9.1351392e-02  -3.3700309e-02   6.6135332e-02   1.7025587e-01   7.6146932e-02   5.6699600e-02   7.6032543e-02   2.1345991e-02  -1.5821885e-02   2.8283159e-02   3.4983307e-03  -7.2946148e-02  -9.6886710e-02   7.2630245e-02  -2.3080994e-02  -4.1394146e-02   6.2246198e-02
  -7.3364264e-02   2.6482853e-02   1.7634435e-02   4.4130605e-02   7.3115090e-04   9.5315819e-03  -6.8313010e-03  -7.3614312e-02  -1.4751824e-01   1.2717889e-01   6.3668697e-02   3.0633063e-02  -4.5420998e-02  -5.6865708e-03   2.1899108e-03   4.5402401e-02   3.8167577e-02  -3.7768142e-02  -2.7792690e-02   2.2613386e-02  -5.1055260e-02   3.5688920e-03   9.0213463e-02   6.7136591e-02  -7.4281964e-02  -1.1754850e-03   4.9976689e-02  -2.2983832e-02  -1.1840252e-01  -1.0392477e-02   4.5002063e-03   7.2935036e-03  -7.3579489e-02   2.8887194e-02   1.0477827e-01   1.7935943e-01  -1.7932362e-02   7.3591681e-02   5.9532745e-03  -1.2754201e-01  -6.7105761e-02   5.4019236e-02   5.9794246e-02   7.4035508e-02   3.8684821e-02  -4.4903098e-02   6.1962755e-02  -4.1437579e-02  -9.3190323e-03  -4.4738475e-02  -6.0672161e-02  -4.0242984e-02  -1.0112015e-01   2.4425108e-02   1.7228991e-03  -7.0004464e-02   1.6087751e-02   6.2761813e-02  -7.3695283e-02  -2.6346772e-02  -7.9858552e-02   4.2148943e-02  -2.2748950e-03  -5.3806566e-03  -1.1379190e-03   1.2611901e-01  -3.3470582e-02   8.9016117e-03  -3.1425489e-02   3.2496871e-02  -1.4491313e-02   1.4158268e-01  -8.6908269e-02   4.8989852e-02  -1.6185051e-02  -5.9542918e-02   5.3341384e-02  -7.1438975e-02   3.0042331e-03   3.6800219e-03  -6.5885903e-03   5.0650334e-02   4.7142409e-02   5.1152165e-03  -4.6439123e-04   5.8185776e-02  -2.6679707e-02  -7.7234161e-02  -6.5355561e-02  -7.4513555e-02   3.1783883e-02   2.2893367e-02   4.5773620e-03   4.4999360e-02   2.2262444e-02  -7.9207010e-02   8.5989862e-03   4.6024936e-02  -8.8546472e-02   2.5448707e-02   9.1445820e-02  -3.3384076e-02  -1.3716011e-02   2.2695567e-02   1.2542691e-02   2.9104457e-02  -8.4897877e-02   2.4285049e-02   7.6760940e-02  -6.4842464e-02   2.1609365e-02   1.5507694e-02   4.3357797e-02  -4.8571305e-02   4.6365405e-02   7.8827495e-02   5.1407703e-02  -5.7824503e-02  -1.0994356e-01  -9.4136669e-03  -6.2738288e-02   1.2753624e-02   7.6352449e-02  -1.0639858e-01   2.2400975e-02   5.2711142e-03  -3.7164480e-02  -1.1452252e-02   1.0356261e-01   8.0560332e-02  -9.2578979e-03   3.6050826e-02  -6.8157906e-02   6.4602964e-02   7.9633291e-03  -1.0678611e-01   1.2156063e-01  -3.0815107e-02   2.1264253e-02  -5.9654005e-02  -7.0685847e-02   1.3768787e-01   1.3689533e-01  -9.1385908e-02   9.5368810e-02   3.3645602e-02   3.4160887e-02   4.1214748e-02  -7.6163510e-02  -7.4604101e-02  -1.6243681e-02   1.1169922e-01   2.3624424e-02  -3.2982515e-02   4.2582352e-02  -9.3527002e-02   2.3868015e-02  -3.2055964e-02   2.5149001e-02  -1.6087783e-02   7.8416503e-02   3.0162190e-03  -3.5368982e-02  -1.9338134e-02  -3.0710228e-02  -3.8345592e-02  -2.3062059e-02   1.0898731e-02  -1.2053387e-01  -3.7520764e-02   2.8898669e-02   5.5367316e-02   6.2259431e-02  -1.4598183e-01  -1.3596106e-01  -6.4535477e-02  -6.7368775e-02  -4.5529575e-02   2.3224796e-02  -5.7399868e-02   2.7702006e-02  -6.5910015e-02   1.2843442e-01  -2.3247138e-02   8.3659570e-03   3.7966086e-02  -1.5004035e-02  -1.0944915e-04   2.2497390e-02  -1.0411738e-02  -5.6302382e-02  -1.9396751e-02  -1.3084258e-01  -7.1960926e-02  -7.9683414e-02   6.7026176e-02   4.2838723e-03   1.3197737e-01  -3.5662220e-02  -4.9475923e-02   5.3056079e-02   2.9818453e-02   2.5038262e-03   9.5477750e-02   9.9288646e-02   1.5235496e-01  -5.4523481e-03  -4.5651483e-02  -4.9329592e-02  -7.1011753e-02   5.7995109e-02   2.3241800e-02   5.5435640e-02  -2.0724500e-02  -8.3436395e-02   4.3574803e-02   2.8744327e-02   1.1919062e-02   8.0202906e-02  -1.9175664e-03   4.4511303e-02  -1.5930383e-02   3.3019228e-02  -3.6454257e-02  -9.5281515e-02   2.9730935e-02  -5.2309231e-02  -5.4681638e-02   2.2993785e-02   4.7144931e-02  -7.2372460e-02  -2.3918160e-02  -3.9794555e-02   7.5860489e-02   6.4957906e-02  -4.0066902e-03   4.0744636e-02   2.8608598e-02  -8.9545604e-02  -9.9132633e-02  -1.0509952e-01   1.3793624e-01  -1.1624875e-01  -2.6885178e-02   1.0024863e-01  -2.1837698e-02  -1.1991695e-01   5.4378618e-02  -5.9864319e-02   1.0186771e-01   2.0118508e-02   5.7391067e-02  -3.2211020e-02   2.8083379e-04   1.1728470e-02  -6.0250716e-02
  -5.1032520e-02   4.7452585e-02  -2.4463543e-02  -3.3542367e-02  -1.2713222e-02  -6.9668733e-02   1.1232065e-02  -1.7741461e-02   3.6781774e-02   1.5667997e-02   8.1053836e-02  -5.3868877e-02  -7.8352278e-02  -3.8707830e-02  -7.3002369e-02   8.9228928e-03   5.2931912e-02  -2.0299004e-02  -3.0798191e-02  -9.9707781e-03  -3.9183578e-02   6.1029860e-02  -5.2513462e-02  -3.7188778e-02   6.5665967e-02  -7.4565554e-02   7.1167822e-02   1.1909127e-01   1.1424973e-01  -1.1250188e-01   2.4664649e-02   8.4216194e-03   8.4625200e-02   4.9056917e-02  -4.5446282e-02   5.0659550e-02   4.1418062e-02  -1.2207875e-02  -1.5509683e-02  -3.0259514e-02   4.9713183e-02   9.5467209e-02  -2.4897758e-02   6.9749348e-02  -3.9729545e-02   5.5402486e-02   4.0296417e-02  -2.2659529e-02  -3.1302740e-02  -1.0569007e-01  -1.2267188e-02  -3.3830785e-02   2.6164335e-02  -1.1914173e-01  -3.0095376e-02   2.9907133e-02   8.6186972e-02  -9.4579810e-02  -1.4180173e-01   1.8744573e-02  -1.3364637e-02  -6.5857121e-02  -1.0968061e-01   2.5909054e-02   6.1029711e-02  -2.9047951e-02  -2.3644290e-02   9.4618879e-02  -6.3873617e-02  -6.4809146e-03  -8.2865262e-02   9.4446549e-02   3.7632772e-02  -3.4225075e-03   4.7384305e-02  -1.3161152e-02  -4.3932508e-03  -8.9221642e-02  -7.0316382e-03  -1.7740995e-01  -6.1456291e-02  -6.5361094e-02   3.8080115e-02  -4.5685162e-02  -3.3431528e-02  -3.6521763e-02   3.0024101e-02  -3.1487334e-02   2.8937333e-02   7.4541757e-02   4.6971860e-02  -5.5718281e-02  -1.6989773e-02   4.1444410e-02  -5.3836430e-02   1.3961309e-01  -1.3044727e-02   9.2651808e-02   1.2855505e-02   3.7691881e-02   7.0041972e-02  -5.3270944e-02  -2.1367288e-02  -3.6336014e-02   2.5398393e-02   7.0919399e-02   1.0038971e-02  -1.2802788e-01  -5.7595199e-02   4.6534598e-02   2.8048810e-02   6.6816713e-02  -2.8778946e-02  -6.5265339e-03   6.6274272e-03  -1.6230781e-01   1.2855363e-01  -3.6818478e-02  -8.8575957e-02  -1.7791855e-02  -2.4256455e-02   3.8262128e-02   6.1900616e-03   1.0573364e-02  -6.6808877e-02   2.5089924e-02  -5.9897259e-02  -6.6109813e-03  -4.1195893e-03  -1.5104143e-01  -3.7846538e-02  -6.4513138e-03   9.9974119e-02  -2.4462461e-02  -5.4456088e-02   3.1263290e-02   4.9388622e-04   7.4146996e-02  -3.8313334e-02  -6.1620061e-02   2.2127340e-02  -2.0681340e-02  -4.8978958e-02  -1.6231935e-02  -3.0919022e-02   1.1431125e-01  -2.7813602e-02  -2.5414651e-02   2.9774679e-02  -6.5106205e-03  -6.1898086e-03  -2.8230858e-03   5.5457809e-02  -1.0300355e-01   5.2918280e-02   1.1865173e-01   1.2742540e-01  -1.4581577e-01   8.1787951e-02   6.4585278e-02   5.7362940e-02  -1.3342687e-02   3.9073793e-04  -7.0612455e-02   8.3194434e-02   9.4479342e-04   4.0407610e-02  -7.1161675e-03  -1.3257889e-01  -3.7984558e-02   6.3912458e-02   3.7026270e-02   4.3914535e-02   2.8361124e-02  -1.0344456e-01   8.7308414e-02   5.5332144e-02   1.4479888e-01  -2.7999524e-02  -1.6525447e-02  -6.8765323e-02  -4.9570026e-03  -9.8527922e-02   6.4081810e-02  -4.8131927e-02   3.0274790e-03   5.5468209e-02   5.4258080e-02  -1.2079797e-01  -8.4676257e-02   2.2509710e-02   4.7448374e-02  -1.1955344e-02   3.4218971e-02   7.8019353e-02  -2.7934466e-02  -4.2671143e-02  -7.9346307e-02   2.5771380e-02  -9.7302414e-03  -3.7532215e-02  -7.9640775e-02  -9.5681285e-02  -3.9048501e-04  -5.3538101e-02   1.1310668e-01   1.4788513e-02   7.3115732e-02   7.4902733e-02   1.1351547e-01  -5.7776410e-02  -4.5210673e-02   7.6632652e-02   2.4398906e-02   6.8903643e-02   5.7502549e-02  -4.0749359e-02   7.3573411e-02   7.8881028e-02  -7.2028666e-02   1.3313254e-01  -1.2635965e-01  -5.6963439e-02  -4.6057606e-02  -1.1279986e-01  -1.8476997e-02  -5.4035376e-02   8.1589471e-02   1.9839439e-02   3.7938349e-02  -6.0341911e-02   8.9714283e-02  -5.0295622e-02   4.8878916e-02   6.3227147e-02  -8.0745514e-02   1.2634802e-02   4.6239899e-02   1.8679683e-02  -4.2488086e-02   7.2186874e-03   6.4221374e-02   2.8703414e-02   4.2630715e-02   6.0042903e-02   6.7226196e-02  -3.3225606e-02  -2.9358748e-03  -1.7934824e-02   2.2372211e-02   3.9610960e-03   5.3478385e-02   1.4189044e-03  -6.3696369e-02   1.0476233e-02   6.5766178e-02
  -5.5102983e-02  -9.7360840e-03  -2.7159099e-02  -4.7181504e-02  -6.5061322e-03  -1.0408496e-01   5.3533868e-03  -3.9361121e-03   2.9541701e-03  -5.9280353e-02   1.0482883e-03  -6.2447959e-03   1.2904199e-02  -7.8602208e-02  -1.0175949e-01  -5.7292382e-02   3.4583644e-02   3.0518042e-02   8.0866020e-02   5.1341991e-02   6.1407485e-02   2.9061920e-02   3.9586044e-02   3.3638686e-02   7.6536240e-02  -8.5232238e-02  -3.7063102e-02  -7.7868302e-02  -2.5901852e-02  -2.2103855e-02   1.6454702e-01  -4.4584833e-03  -5.0554983e-02   6.4152945e-02  -4.3568881e-02   2.9115587e-02  -5.6967974e-02  -1.9973290e-03  -2.5348168e-02   7.3932316e-02   5.5122953e-02  -4.8418050e-04  -3.2504926e-02   5.5329814e-02   6.8408056e-02  -3.4363268e-02   7.8611268e-03  -4.0492407e-02  -4.1588486e-03   8.0490123e-02  -7.0237133e-02   1.1306066e-03  -6.3578728e-03   6.7927033e-02  -3.1813016e-02   2.8871329e-02  -9.8157384e-02  -7.5398433e-02   7.3085876e-02  -1.0310761e-01   2.5050591e-02   6.4729995e-02   2.5272915e-02   5.5636366e-02  -9.9451508e-02  -2.9770691e-02   4.8813163e-02  -8.6618262e-03  -2.8783567e-02   2.4715168e-02   4.8505007e-02   5.0085689e-03  -1.1383232e-01   1.9552633e-02   1.0769392e-01  -2.8281867e-02  -2.9652032e-02  -6.2251482e-03  -7.0551600e-02   6.0243022e-02   5.3353921e-02   1.2043994e-02   9.4075410e-02  -3.6470916e-02  -4.3120083e-02  -3.2121074e-03   9.3048233e-03  -3.3387672e-02  -8.3087881e-02   1.1587234e-01   7.0661518e-03  -4.8511570e-02   6.2303164e-02   1.4903787e-02  -1.1053387e-02  -5.5329219e-02   3.9613995e-02  -1.2358830e-02   3.9805818e-02   1.0890959e-01   2.1270783e-02   5.5325825e-04  -2.5323847e-02  -5.9590312e-02  -3.5277370e-02   1.0613369e-02   2.2750640e-03   1.3299564e-03  -1.6631379e-02  -6.8332294e-02  -3.0051487e-02  -1.4367061e-02   1.4460847e-02  -4.0729999e-02   2.3666735e-02   1.2553147e-01   5.4759704e-02  -8.1814855e-02  -2.6819623e-02  -9.5702614e-03  -1.6891241e-01   1.9709748e-01  -3.2744847e-02  -5.3407065e-02  -9.2421089e-02   6.8456358e-02   7.9754906e-02  -6.2791468e-04  -9.2354084e-02  -2.2695260e-02   2.3826523e-02   6.1670028e-02  -1.2264852e-01   7.3202334e-02  -1.0109328e-01   9.6671395e-02  -9.9657669e-02  -9.9660059e-03   4.0965911e-02   1.4576239e-02  -3.4187323e-02  -1.8701104e-02  -2.3421197e-02  -4.5311770e-02  -1.0322147e-01  -2.1734030e-03  -6.3436462e-02  -6.4710776e-02  -1.2285929e-02   1.0612817e-02  -7.3198313e-02  -1.0073483e-01  -4.8769767e-02  -5.9316767e-02  -9.4144836e-03   9.6646280e-02   8.7265257e-02   1.1232601e-02   6.4713226e-02   3.1728961e-02  -1.5617711e-02   1.2850461e-01  -7.6804895e-02  -2.0810428e-02   1.1813858e-01  -8.7376283e-02  -2.6365070e-02   4.2559729e-03   7.2396134e-02  -5.6307088e-02   6.3540515e-02   6.2790537e-02   1.1259012e-01  -1.5432891e-02   7.2435774e-02  -2.4488605e-03   8.8197014e-02  -1.4324420e-02   8.1448424e-02   5.0889756e-02  -3.6335166e-02  -7.0563424e-03  -4.3026814e-02   2.5716472e-02   1.0793556e-01   8.1982818e-02  -4.5877639e-02  -3.1434924e-02  -6.3598523e-02   1.1639386e-01  -5.9072885e-02   3.1519416e-02   3.2127599e-02  -1.0243734e-01   3.6152512e-02   4.2453919e-03  -1.6187784e-01   3.3051523e-04  -8.7707267e-03   2.3299559e-02   2.7390796e-02   3.7995078e-03   4.9819754e-02  -2.9138265e-02  -4.2497070e-02  -5.7996956e-02   1.2991978e-01  -2.6293591e-02  -1.8303943e-02  -9.2119177e-02   1.2106312e-01  -1.2252256e-01  -4.1345712e-02  -6.5519470e-02   4.1092815e-02  -3.0853136e-02   3.1311254e-03  -3.4628138e-03   9.4573042e-02   6.6317176e-03   1.1338379e-01   1.0042826e-01  -1.1246036e-01   3.7120152e-02   3.1968258e-02  -9.4254794e-03   1.2359536e-01  -9.6166165e-02  -6.5503358e-02  -4.8500038e-02  -2.6085706e-02  -3.8242328e-02   6.8543812e-02   1.9496953e-02   8.4887493e-02  -9.8020106e-02  -2.9064551e-02   1.1062227e-01  -8.9843019e-02  -5.6096999e-02   7.6329919e-02  -2.4716072e-02  -3.3989920e-02   2.9992371e-02   4.7989268e-02  -3.8725527e-02  -4.0356651e-02   1.0337719e-01   5.0433091e-02   1.4184036e-02   4.0578834e-03   2.4857246e-02   4.2909987e-02   4.4350024e-02   7.7673510e-02  -1.9368382e-02
  -6.5474637e-02  -6.3217641e-02   7.6635671e-02  -6.7038473e-02   2.4043255e-03   5.9571733e-03   3.1417534e-02  -1.5054602e-01  -3.7337943e-02   3.1427311e-02   1.5466855e-04   8.9459162e-02   1.0679463e-01  -1.8404200e-02   3.6277887e-02   3.1655604e-02  -4.3384466e-02  -6.1971966e-02  -5.7216574e-03  -4.0799636e-02  -5.9413115e-02  -1.9102844e-02  -1.2408761e-01   5.7232775e-02  -2.2920629e-02   3.9139106e-04   3.2372928e-02   6.3448368e-03   1.3971515e-01   7.9690759e-02   7.4738347e-02   3.1191607e-02   8.9000795e-02   4.2001120e-02  -2.3689548e-02   3.3977069e-03  -1.8543532e-02  -1.8396967e-01   7.5870299e-02  -9.4334015e-02   4.0210501e-02   6.9145589e-03  -6.3864594e-02  -4.9921345e-02   6.4275740e-02  -4.5681992e-02   9.4561110e-03   1.1295456e-02  -6.0853932e-03  -4.6572561e-02  -1.5831324e-02  -4.0231059e-02   4.8021581e-02   9.4175773e-02  -2.6165136e-02   2.6600790e-02   1.1214763e-02   4.5916217e-02   4.3059764e-02  -5.0923164e-02   1.5595334e-02   3.1534190e-02   9.2707149e-02   1.5301319e-02   4.4220905e-03  -8.7016153e-02  -1.7585366e-02  -6.1890293e-02   7.0025848e-02  -1.1459112e-01   2.9455965e-02   4.5808021e-02   2.1314224e-03  -1.0451835e-01  -2.5352436e-02  -1.1851421e-02  -6.0102166e-02   4.9491300e-02  -3.3480317e-02  -3.5798899e-02  -1.0809842e-01   8.2272473e-03   6.0539644e-02   5.0582398e-02   7.8101115e-02   1.7395003e-02   7.3312948e-02  -5.2335825e-02  -2.4390885e-03  -6.2676250e-02   7.9118237e-02   1.9029467e-01   4.7060646e-02   1.0518982e-01  -6.2514935e-02  -4.6697057e-02   1.0193380e-01  -4.9362996e-02   1.3360502e-01   5.2633704e-02   5.6821663e-02  -1.3793894e-02   7.7731414e-02   5.9212239e-02   3.6958622e-02   3.7553525e-02  -5.2203331e-02   3.3693438e-03   5.1254575e-02   5.2462285e-02  -9.8648977e-02  -2.9108360e-02  -1.6059297e-04  -5.0590220e-03  -5.9626532e-02   2.7654696e-02  -8.0188503e-02  -1.2256155e-02  -1.1446282e-01  -6.5249569e-02  -3.4768443e-02   1.6228574e-02  -8.2337493e-02   1.1207559e-01  -6.0306972e-02   4.3287003e-02   7.3925529e-03  -2.6902922e-03   1.3782957e-02  -4.4654723e-02  -3.1122911e-02   4.6405199e-02   6.6040158e-02  -1.2957925e-02   4.0380267e-02   6.6937158e-02  -3.2524951e-02  -2.0516823e-02  -5.6044232e-02  -3.6278271e-02  -6.6438857e-02   3.4524981e-02   4.1546545e-02   3.7070867e-02   1.3114410e-01   9.0175525e-02  -1.9223116e-02   4.4489587e-02   1.1576764e-02  -1.1088727e-01   8.6774007e-02   1.2789298e-01  -1.2261933e-02  -2.6611508e-02  -1.0895967e-01   4.5399374e-02  -1.3767550e-01  -6.8894481e-02  -3.9415711e-02   7.9478611e-02   4.6811525e-02   5.9649863e-02   2.7938802e-02  -6.8381065e-03  -2.2469907e-02  -2.5832706e-03  -5.3114891e-02  -1.3371478e-01   1.0491956e-01  -6.0766126e-02   7.8450559e-02   7.6073159e-02  -2.0548131e-02   7.2649613e-03  -6.4890088e-03   6.4516258e-03  -3.6751710e-02  -8.1121232e-02  -1.0713382e-01  -5.6501601e-02  -6.8281921e-02  -2.8781491e-03   1.1716219e-02   5.7996941e-02  -5.4331819e-02   2.7409019e-02  -5.2434045e-02  -5.7587092e-03   7.8048971e-02  -5.7312469e-02   1.4486175e-01   6.6138208e-02  -2.2670182e-02   2.9607154e-02   1.5131603e-02   2.8670299e-02   4.0427543e-02   1.8992732e-02   7.1803421e-02   4.7507782e-02  -1.7176356e-02  -1.1362690e-01  -1.1460749e-01  -2.3502289e-02  -7.5299659e-02  -2.7464137e-03  -4.1895620e-02  -7.9208547e-02  -5.4809338e-02  -2.7823377e-02   8.8121518e-02  -5.6270192e-02   5.9282184e-03  -3.3496589e-02   3.2419608e-02   4.0020450e-03  -1.8052307e-01   9.5326270e-02  -8.7536649e-02   1.1348186e-01   7.4904413e-02   5.3231279e-03   1.1259376e-02   4.1958272e-02  -8.3372835e-02   7.2992766e-02   4.3615999e-02  -5.3567474e-02  -1.1570845e-01  -4.1992608e-02  -7.1004756e-02  -1.1890126e-02   5.7085424e-02  -5.1669426e-02  -9.6817749e-02   2.4161350e-02   2.2938873e-02   1.4570846e-02  -1.2220595e-02  -7.1546280e-02   7.8458176e-02  -4.7991497e-02  -3.6517830e-02   5.3335514e-03   5.9871295e-02   3.9143769e-03   4.1051397e-03   1.3474812e-02  -4.7263578e-02   3.4012645e-02  -7.1111005e-03   1.9945307e-02   2.7017814e-02   4.1825017e-02  -2.5547379e-02   3.6838271e-02
   1.1834495e-01  -1.1514534e-01  -8.3418830e-02   1.0009647e-01  -1.1836300e-02   2.5721777e-02   3.3699295e-02   2.2347664e-02   2.6383669e-02   1.9642332e-02   1.7799095e-01   2.3295447e-02  -1.6676155e-02   7.3395174e-02  -2.5227446e-02  -1.7738471e-02  -9.7834467e-02  -3.1510320e-02   9.6166394e-02  -3.6954103e-02  -5.4439353e-02  -8.5955236e-02  -3.0549902e-02   4.1699016e-02  -1.4202795e-02  -9.9235671e-02  -1.5440510e-01   5.6444649e-02   8.4714522e-02  -2.3024030e-02   4.2738649e-02  -2.2339498e-02   4.1650744e-03  -1.1286446e-01  -8.6113588e-02   7.9619741e-02  -4.7221680e-02   5.5842282e-02   7.1002642e-02   3.7534082e-02   2.1530917e-02  -8.9994341e-02   3.4113436e-02   1.1496961e-02   2.1507854e-02  -2.9268222e-02   6.8664133e-02   5.7908549e-02  -1.8583921e-02  -3.5912752e-02  -9.9680601e-04  -4.8512664e-02  -1.2735387e-01  -2.7800613e-02   7.2511004e-02   7.1205996e-02   1.9520818e-02   6.8892383e-02   2.7415423e-02   1.4772504e-02  -3.5020920e-02  -9.2584681e-02   7.8265114e-02   4.9214611e-02  -7.0340582e-03  -3.6232365e-03  -1.0402153e-01  -1.1537726e-01  -2.7919014e-02   7.8221350e-02   5.5318802e-02  -7.9606412e-02   5.6451231e-03  -2.8802069e-02  -1.3700894e-02  -5.5538720e-02   1.0716082e-01  -4.3693671e-02   2.9363224e-02  -4.3276306e-02  -1.2357165e-02  -6.3108937e-02   7.2470307e-02  -1.7179795e-02  -1.4422848e-02  -1.0430976e-02  -4.7846516e-02   8.4795745e-02   7.6917414e-02   1.3199512e-01  -5.5650183e-02   3.7891381e-02   2.1568392e-02  -1.3196011e-02  -5.1398772e-02  -1.3257505e-01   1.3505278e-01   2.5519470e-02  -3.8140361e-02  -5.5009321e-02   9.5549236e-02  -3.6853814e-02  -7.4119063e-03   3.9097688e-02  -1.6091483e-03  -3.4374283e-03   2.0216875e-02   1.6888229e-02   5.8724904e-02  -3.6126451e-02  -4.7135342e-02   5.8442346e-03   7.3190683e-02  -5.5661746e-02   2.2038230e-02  -4.9809453e-02  -4.4982561e-02   7.0401717e-02  -6.6605162e-02   5.9491014e-02  -2.3869111e-02   2.0422041e-02  -1.3944719e-01   4.8201865e-02  -6.6834681e-02   8.5599316e-02   4.2331695e-02   2.0437686e-02  -6.7068917e-02  -8.4098904e-02  -4.4881339e-02   9.2657406e-03  -3.6189830e-02  -6.5518173e-03   2.1765117e-02  -7.6199886e-02   1.8845354e-02  -5.0368578e-02   5.8027070e-02  -1.0318615e-01   9.9727516e-02  -1.1517677e-02  -4.6986372e-02  -4.2652546e-02   6.8190719e-02   1.1904168e-01  -9.1440848e-02  -1.2475636e-02  -3.4868937e-02  -2.2663290e-02  -3.8702577e-02   1.2859608e-01  -4.3613614e-02   1.6916586e-02   7.5290122e-04   5.7307288e-02  -2.0970739e-02  -2.4947623e-02  -5.0785319e-02   6.4076534e-02  -2.8647984e-02   6.8477526e-02  -9.3685039e-02   1.0611282e-01  -4.3695836e-02   4.9252653e-02   3.0738845e-02   7.1403926e-02  -9.4035037e-03  -8.8616803e-02   1.0647291e-02  -3.3184792e-02   1.2824025e-01  -5.0358349e-02  -2.9432533e-02   2.2795380e-02   5.6822737e-02   3.2717939e-02  -2.1196386e-02   3.0127598e-02   6.8895190e-02   4.3431592e-02   4.0943373e-02  -6.5587295e-02   1.2334538e-02  -8.6331012e-02   7.4376195e-02   5.1026658e-03   4.3008969e-02  -3.3435615e-02  -7.0582243e-02   5.4627259e-02   1.1679511e-01  -2.8377627e-02   7.5077414e-02  -6.7158440e-02   1.2840816e-02   2.9701221e-02  -1.5689833e-01  -2.1259498e-02   6.7529549e-02   9.6838779e-02   5.9138368e-02  -8.4464726e-02  -5.7253772e-02   1.1265523e-02   5.5019162e-02   8.9848917e-02   6.7632445e-02  -1.1274141e-02   1.1274424e-02   5.7207331e-02  -1.1658691e-02  -8.8298887e-02   1.9376979e-02  -5.2898195e-02  -1.2278715e-01  -8.1356580e-03  -5.0585490e-02   6.9593602e-02  -9.2563482e-02  -6.2348112e-03   8.2776232e-02  -2.8554836e-02  -9.8688538e-02  -6.5423588e-02  -2.8802788e-02  -5.0302222e-02   7.2900440e-02   3.5382466e-02   3.2035286e-02  -1.3536223e-02   9.6218097e-05   4.6685113e-02   1.2973696e-02   6.3936193e-03   3.9383564e-03   2.0669994e-02   2.1204552e-02   2.7820697e-02  -1.1606358e-02   9.8760122e-02   6.2890438e-02   5.6183402e-02  -4.2521986e-02  -8.7808608e-02   3.6496914e-02   6.2118399e-02  -7.4156892e-03  -3.3882670e-02  -6.2675136e-02  -7.2056094e-02  -4.4159241e-03  -2.0287219e-01   6.9314330e-04  -5.3326228e-02
  -1.9279984e-02   2.2979746e-03   3.0929581e-04  -9.4600971e-02  -7.2364468e-02  -1.0282871e-01  -9.4140403e-03   3.0738177e-03  -5.8280862e-02   2.3673112e-02  -4.0561085e-02   5.6734044e-03  -4.8843994e-02  -4.2294373e-02  -1.0411097e-02  -6.3058031e-02   9.7165042e-02  -2.4265776e-02  -4.1064737e-02   8.7608223e-02   5.5201792e-02  -8.9254323e-02  -1.5750840e-02  -7.9426777e-02   4.4168562e-02  -6.0313137e-03   5.1507248e-02   4.6883548e-02   5.3178568e-03   5.2457072e-02  -6.4460615e-02  -6.6466993e-02   6.6213716e-02  -4.5640976e-02  -4.9751716e-02  -8.2427468e-02  -5.0046520e-02   3.1310029e-02  -1.6823544e-01   4.9809729e-03   8.5022255e-02   1.0005243e-01  -2.9332544e-02   2.7820368e-02   3.4297748e-02  -2.7567600e-02  -2.8031633e-02   4.1158474e-02  -2.6926231e-02  -1.8090083e-02  -1.1081535e-01   1.3851248e-02  -9.6594787e-02   6.1159398e-02   5.5163536e-02   6.2690814e-03   7.2983879e-02   8.3837085e-02  -8.3745020e-03   6.3000538e-02   8.0319262e-02   9.8464535e-02   2.0429199e-02   1.1014103e-01   5.0902277e-02   6.1753525e-02  -1.0433282e-01  -7.0059303e-03   5.4599123e-02  -7.3634595e-02  -3.5525477e-02  -5.4451182e-02   6.3290648e-02  -1.0165579e-01   3.7817788e-02   6.8703722e-02   1.2417139e-01  -2.8813983e-02  -1.0620023e-03   2.0996470e-02   2.5386133e-02  -3.5557959e-02  -8.8680348e-02   5.1785718e-02  -1.8482990e-01  -9.8816766e-03   1.4231909e-01   6.6188665e-02  -5.8077309e-02   9.3673177e-02   8.7142685e-02  -5.5408561e-02  -1.5792085e-01  -3.6836223e-02   1.7353290e-02  -7.4917170e-03   7.0186482e-02   1.8745215e-03   4.4815129e-02  -8.8439134e-02  -2.1819844e-02   9.9884410e-02  -3.0525254e-02  -1.4246650e-02  -1.2370886e-02  -1.5302129e-02   1.1641892e-01  -3.8064351e-02   6.6937981e-02   9.0161321e-02   7.9924738e-02  -6.7135440e-04  -7.0159540e-03  -2.7648462e-02  -4.0860642e-02  -2.2960088e-02   4.0296410e-02  -3.3351671e-03   5.2748661e-02  -2.6172626e-02   2.1641313e-02  -9.6192643e-02   4.1413886e-02   7.7438608e-02  -6.0409149e-02   2.7810050e-02   1.8778145e-02   2.8069683e-02  -1.5108501e-01  -5.2381746e-03   6.9279474e-02  -2.3031044e-03   1.4493121e-01  -6.2685237e-02   3.9740188e-02   1.0047317e-02  -9.7062716e-02  -4.7997606e-02  -4.6041763e-02  -7.7892085e-02  -1.1145039e-01   4.8285995e-02  -6.9390750e-03  -1.0605872e-01   2.0479481e-02   5.0572273e-02   3.8539235e-02   4.4828171e-02  -1.1022901e-01  -8.9177452e-02  -1.3310657e-02  -1.0701992e-01   3.3155050e-02  -1.3111453e-02   1.0020572e-02  -7.3969020e-02  -4.8545338e-02  -7.8523946e-03   2.2142043e-02  -3.7286324e-02  -1.3189513e-02   1.0291891e-02   3.1831189e-02  -7.1237818e-03  -2.4104913e-02  -1.2341954e-01  -3.1384118e-02  -1.8110600e-02   7.5056259e-03  -8.9363559e-02   4.7945880e-02  -3.5892077e-02   5.2169345e-02  -4.1610858e-02   2.7259270e-02  -1.5784266e-01  -8.9331917e-02   1.8447490e-02  -1.3184975e-01   1.6859597e-02   5.3823580e-02  -2.7378546e-02   4.1215456e-02  -4.7222253e-02   1.1442004e-02   1.6117351e-02   1.1887958e-02  -5.5711608e-02   7.6846961e-03   1.5043687e-01   1.3736481e-02  -5.2544596e-02  -8.1850508e-02  -9.1078031e-02   1.2666012e-03  -9.7213397e-02   7.4914309e-02   8.6411798e-02   6.0652459e-02   2.1046058e-02   8.7807250e-03   1.8535814e-02   4.3238661e-02  -3.7279595e-03  -4.8123159e-02   6.4267501e-02  -3.7610982e-02  -5.0409059e-02  -2.0523869e-02   4.0635492e-02   1.9999184e-02   5.1779830e-02  -1.0033769e-01   3.3249974e-02   7.2785602e-03   5.3453020e-02   6.4504953e-03   7.2226518e-02   1.2221564e-02   7.3215729e-02  -1.6165844e-02   9.4642867e-03  -5.0434972e-02   8.3531481e-02  -1.0511895e-01  -6.1317219e-02  -2.2334941e-02  -5.5236130e-02  -1.9407144e-02   1.5387693e-01   6.1583472e-02  -6.9723464e-02   1.9808172e-02   1.1783115e-01   6.6433053e-02  -5.8625807e-02   1.1048638e-02   9.6737800e-03   6.8456578e-02   5.5587556e-02   5.2529567e-02   1.5354618e-02   2.6749760e-02   2.7860723e-02  -3.8775437e-02  -3.7950264e-02   2.6668898e-02   6.2838269e-02  -1.8033416e-02  -2.2451868e-02   7.1869753e-02   3.1098045e-02   2.6434717e-04   1.4732586e-02   1.1340028e-01  -1.1135916e-02
