  -6.4249462e-02  -5.2787991e-02  -6.2964440e-02  -6.0612820e-02  -4.7029115e-02  -5.6851802e-02  -5.0637086e-02  -7.0695376e-02  -5.8295314e-02  -8.3047841e-02  -6.7733962e-02  -4.9893289e-02  -5.4403857e-02  -6.4682705e-02  -6.3749290e-02  -6.9893535e-02  -6.4666431e-02  -6.3728679e-02  -6.5008800e-02  -7.3598450e-02  -6.7508185e-02  -5.3438808e-02  -7.1071129e-02  -7.0861855e-02  -5.1759232e-02  -6.5545229e-02  -6.3560558e-02  -6.7385105e-02  -5.6614739e-02  -6.0406090e-02  -6.5800905e-02  -5.6468154e-02  -6.1657670e-02  -5.7726337e-02  -6.8095821e-02  -5.7362593e-02  -6.6560579e-02  -5.6540361e-02  -6.7753501e-02  -6.4742728e-02  -4.8348450e-02  -5.7180835e-02  -7.4443927e-02  -7.8371225e-02  -5.9400945e-02  -6.4884737e-02  -5.9693161e-02  -5.8259604e-02  -7.5385526e-02  -7.0242568e-02  -6.8623245e-02  -5.2115910e-02  -6.1786911e-02  -5.6021795e-02  -7.9783475e-02  -5.7995244e-02  -7.4746095e-02  -5.6264502e-02  -6.4873744e-02  -6.0316490e-02  -5.0661288e-02  -6.4230660e-02  -6.7115491e-02  -5.1524875e-02  -6.8415151e-02  -7.0538674e-02  -5.1768414e-02  -7.6136037e-02  -7.9430220e-02  -7.7777728e-02  -6.4746329e-02  -7.1356679e-02  -5.8162191e-02  -5.9453423e-02  -6.4219324e-02  -5.3267348e-02  -5.5227441e-02  -6.1788116e-02  -5.2545096e-02  -5.2852069e-02  -5.7017908e-02  -6.0828634e-02  -6.4434666e-02  -5.6594893e-02  -6.3656021e-02  -4.7161040e-02  -5.2478439e-02  -6.7913985e-02  -6.2469286e-02  -6.4890491e-02  -6.0400537e-02  -6.2113260e-02  -7.1341522e-02  -5.2059322e-02  -7.1877532e-02  -4.7922441e-02  -6.8339143e-02  -7.0443942e-02  -5.9395938e-02  -7.2204250e-02  -4.8073539e-02  -6.8056722e-02  -6.2029676e-02  -5.0382757e-02  -5.8724760e-02  -6.3944608e-02  -5.8704646e-02  -5.7334789e-02  -6.2079391e-02  -6.1976783e-02  -5.8432360e-02  -6.8480432e-02  -6.5589409e-02  -6.2277926e-02  -6.3919331e-02  -5.6620669e-02  -4.8821499e-02  -6.3212848e-02  -5.7782598e-02  -6.0748859e-02  -6.6354581e-02  -6.0555908e-02  -6.7583615e-02  -5.6927334e-02  -6.7587565e-02  -7.4614203e-02  -6.2158003e-02  -5.7572309e-02  -6.0585887e-02  -7.9982428e-02  -6.8635856e-02  -5.2683553e-02  -7.1661481e-02  -6.8630635e-02  -5.8355585e-02  -6.0215240e-02  -7.2249188e-02  -5.8378979e-02  -6.1384164e-02  -6.8845017e-02  -7.6073389e-02  -5.0795441e-02  -5.3614626e-02  -5.6009576e-02  -6.6324068e-02  -8.1751815e-02  -7.2654807e-02  -6.3948019e-02  -5.8047297e-02  -5.2462585e-02  -6.6679335e-02  -6.5734864e-02  -6.8318482e-02  -7.5670439e-02  -5.6656177e-02  -6.7534409e-02  -6.6387297e-02  -5.1607369e-02  -6.9824972e-02  -7.0288975e-02  -5.6050406e-02  -6.6022212e-02  -5.6731886e-02  -6.6313569e-02  -6.3033708e-02  -4.8502277e-02  -6.9423678e-02  -4.8959314e-02  -5.7846953e-02  -7.2180004e-02  -5.3754441e-02  -7.2091988e-02  -6.0938664e-02  -5.2301125e-02  -6.2307062e-02  -5.9996821e-02  -6.2622661e-02  -5.6033516e-02  -6.5958803e-02  -5.9677942e-02  -5.6521987e-02  -6.2510265e-02  -6.1827453e-02  -4.2677111e-02  -6.4568912e-02  -5.6375796e-02  -6.2370705e-02  -8.0148413e-02  -5.8674311e-02  -6.3462195e-02  -5.6822134e-02  -5.9109171e-02  -7.8823464e-02  -6.1730603e-02  -6.0981661e-02  -5.6560507e-02  -5.6400418e-02  -4.4837055e-02  -5.8089273e-02  -6.6564869e-02  -5.7065760e-02  -6.6887340e-02  -7.1582666e-02  -5.8588437e-02  -5.6115026e-02  -6.4097768e-02  -4.9124680e-02  -6.2735708e-02  -5.6150406e-02  -5.8507545e-02  -4.5418356e-02  -6.4748009e-02  -5.0715463e-02  -6.0367245e-02  -7.0285341e-02  -7.3699312e-02  -6.0558419e-02  -6.0687465e-02  -8.1715210e-02  -5.6097193e-02  -5.4112183e-02  -5.8555495e-02  -5.0440003e-02  -6.4226285e-02  -6.4116969e-02  -8.1672280e-02  -5.8626597e-02  -5.4514403e-02  -5.8870901e-02  -5.9991443e-02  -6.2608076e-02  -7.2375818e-02  -4.9044778e-02  -4.9075882e-02  -5.6419710e-02  -6.8663928e-02  -6.2599046e-02  -4.8901621e-02  -5.7999359e-02  -6.2328076e-02  -8.2306542e-02  -6.1726433e-02  -6.8631991e-02  -5.0479794e-02  -5.8357484e-02  -6.4357535e-02  -6.8037920e-02  -6.4532196e-02  -5.4079958e-02  -6.5701623e-02  -5.8177588e-02  -5.5845077e-02  -5.3167001e-02  -5.5634358e-02  -7.2079802e-02  -5.4444048e-02
  -1.5242709e-02   2.7650100e-02   8.8584641e-03   2.6408658e-02  -3.9292272e-02  -3.2579187e-02  -8.5110939e-02   7.9494221e-02   3.9077718e-02  -2.3082240e-02   3.9547052e-02   4.6795200e-02   1.9577022e-02  -5.2470781e-02  -1.2730485e-02  -5.5824449e-02  -6.3294267e-02  -4.9013979e-02  -3.4235656e-02  -1.4661245e-02   1.0184855e-01  -1.3304848e-02   6.8613302e-03   1.2994529e-03  -1.0203352e-02  -4.2024657e-02   4.9862718e-02  -6.8623944e-02  -6.5340042e-02   3.2973771e-02  -1.2478441e-02   1.8847032e-02   2.1255278e-03   1.2893707e-02  -1.0124863e-02   6.7014167e-02   1.0917435e-01  -5.0247973e-02  -6.4532350e-02   1.5177666e-01  -3.6617233e-02   1.0034810e-01   1.0025483e-02   4.5680500e-02   6.4372485e-02   2.0328266e-02  -7.0174380e-02  -3.8430293e-02  -2.3950584e-02   6.2685142e-02   1.0278383e-01  -9.3189955e-02   5.4102454e-02  -8.8391943e-03  -7.8723524e-03  -3.1588770e-02   7.4352043e-03  -4.9566880e-02   5.7365208e-02  -1.0078029e-01   7.7811561e-02  -1.2703652e-02   9.8157349e-02  -2.6058364e-02  -8.8095583e-02  -3.0822673e-03  -2.2655134e-02  -6.0540987e-02   3.1453244e-02   1.8775451e-02  -3.7779909e-02  -3.0080337e-02  -6.1264146e-02  -5.6439761e-02  -5.0464074e-02  -5.3153246e-02  -4.5555301e-02   1.2854992e-02   7.2414298e-02   2.0964139e-02  -1.8772085e-02  -4.1808779e-02  -1.1651933e-01   9.1098820e-02  -3.1910227e-02  -3.8290361e-02   4.9863934e-02   3.2235709e-02  -3.1448521e-02  -1.3734316e-01   5.8278505e-02   8.1749949e-02   8.0136508e-02   1.4540474e-02   1.5113477e-02  -7.7794585e-02  -2.8474253e-02   4.4091114e-02   4.7915316e-02  -7.1733638e-02  -2.1757426e-02  -3.6215526e-02   1.1472008e-01   4.5547055e-02   2.5496058e-02  -4.9122284e-02   5.9301313e-02  -8.1513438e-02   3.1010032e-02   9.6118256e-02   6.4914317e-02   1.3413721e-01   8.9677150e-02  -8.2599382e-02  -1.1152493e-03   3.9679495e-02  -7.8519888e-02   5.1858160e-02  -8.2224570e-04   2.3154161e-02  -4.4627031e-02  -7.5300693e-02  -2.4092511e-02   5.1734483e-02  -3.6701121e-02  -7.5431849e-03  -6.7973853e-02   1.1132286e-01  -1.2206167e-02   1.2732952e-02   9.5710814e-03  -1.2153461e-01   4.4851239e-02   1.2401849e-01  -8.1630329e-02  -6.5168393e-02  -6.1393359e-02   1.2156687e-01  -7.4916232e-02  -2.4228189e-02   1.6927682e-03   1.0556853e-01   1.8229997e-02  -2.6806079e-02  -2.8174575e-02   3.7869733e-02  -5.0915792e-03   9.6979493e-02  -5.1555834e-02  -4.9136149e-03   4.4397937e-02   8.8254666e-03  -1.3659542e-02  -8.3055259e-02   1.1086228e-01  -1.2048914e-01  -2.1742726e-02   5.4611014e-02  -1.0919514e-01   6.4034892e-02  -3.0965496e-02   1.0809987e-01   3.0994275e-02  -1.6748312e-02   4.8838777e-02   1.0319661e-01   6.5375042e-02   5.8670930e-03  -2.7422433e-02   5.8510176e-02  -5.1653497e-02  -6.0083083e-02   8.2541999e-02   1.6726408e-02   6.8139030e-02   1.6527750e-02  -2.8363427e-02   1.3927249e-02   4.8927565e-02  -9.5427791e-02   7.9978514e-02  -4.3515028e-02   2.6994775e-02  -2.4611061e-02   4.1337178e-02   8.5469708e-03   1.9981593e-02  -2.0069760e-02   2.9694622e-02  -1.7767015e-01   1.1512801e-01   8.6983561e-02  -5.1680357e-02  -2.2791592e-03   1.6439842e-01   2.0814515e-02  -1.4109839e-01   9.0262306e-02  -3.0488707e-02   1.0888504e-01  -3.9179903e-02  -3.9676051e-02  -7.4252262e-02   7.3712596e-02   3.8419967e-02   6.7474044e-03   4.5715038e-02   2.5926056e-02   1.3514950e-02   7.0519336e-02  -7.6583085e-03   5.0486817e-03  -9.5636448e-02  -1.2159266e-01  -2.0229898e-02  -2.0801199e-02  -5.1375245e-02  -8.1670191e-02  -2.9596859e-02  -7.7825112e-02   1.1098635e-01  -8.3812997e-03  -1.1235312e-01   4.0195714e-02  -5.6244074e-02  -1.8183313e-02   1.5001948e-03  -2.1685283e-02  -8.5266038e-02   3.1840884e-02   1.1393627e-01  -1.0549714e-02  -7.6309311e-02   2.0248033e-02  -3.2620304e-03   2.9216720e-02  -5.6134392e-04   2.8741775e-02  -3.7483357e-02  -1.1035345e-01   7.8186705e-02  -8.6316963e-02   3.3597559e-02   5.1586808e-02  -6.4247307e-02  -9.0497468e-03  -1.5901482e-02  -1.4938488e-01  -9.5478890e-02   1.3115582e-01  -3.9046456e-02  -6.0427436e-02   1.2820051e-02   2.1995089e-03  -3.6617498e-02   2.2138757e-02
   9.7321964e-02  -7.1216362e-02   1.9059655e-02   7.0722496e-02   4.8529189e-02  -7.7439773e-02   4.3475619e-02  -5.8138451e-02  -9.6913135e-03   5.7778771e-02  -9.9288982e-03  -6.1812634e-02   4.3246085e-02  -5.0854103e-02  -6.1656526e-02   3.6553035e-02  -5.3767812e-02   7.2754092e-02  -2.2506492e-03  -1.4264459e-01  -4.8490291e-02  -3.0634395e-02   5.7987422e-03   2.7712256e-02   7.6540693e-02   5.3528451e-02  -4.5714776e-02  -2.9530177e-02  -2.6961216e-02   2.9440973e-02  -6.1415348e-03  -8.7905298e-02   9.9922571e-02   5.5185336e-02  -1.2118780e-01   7.2425734e-02   5.5091378e-02  -4.3617511e-02  -6.2849530e-02   3.1173326e-02  -6.6176435e-02   3.8941751e-02   1.7916569e-02  -1.4042258e-02  -4.1496678e-03  -2.3844699e-02   3.2231838e-02  -2.5122688e-03  -5.9442017e-02  -9.6697458e-03   6.4588539e-02  -6.8881655e-02  -8.5884153e-02  -9.4715170e-02  -1.2482247e-01   1.7363825e-02  -6.4672133e-02   1.5190503e-01  -9.6066127e-03   3.3225813e-02  -2.7049404e-03  -7.8110802e-03   8.8615821e-02  -5.9122078e-02   3.0388026e-02   4.4720241e-02  -1.0820211e-01   7.5779106e-02   1.7538748e-02  -4.2908699e-02  -6.6784948e-02  -2.5364980e-02  -4.5013403e-02  -1.0567252e-01  -1.3892916e-02   1.1228269e-02   1.5367340e-02  -4.2106529e-02  -2.8446492e-02  -2.7437965e-02   9.1662847e-03   9.3602355e-02   3.2794036e-02   3.5682208e-02  -8.2476756e-02   6.4324018e-02  -3.9642053e-02  -4.9654892e-02  -2.9302637e-02   3.6536308e-02   2.0488062e-02  -3.1634839e-03  -4.6428225e-02   7.3878598e-02   3.6741193e-03  -1.1013101e-01  -2.5420979e-02  -2.3416663e-02  -4.0949042e-02   9.1754216e-03  -1.8342023e-02  -5.1695475e-02  -8.4290159e-02  -4.1334200e-02   7.3613481e-02  -3.2611498e-02   3.3929630e-02  -9.3074899e-02  -8.1998909e-02  -5.2940896e-02   1.9002927e-02   1.8516440e-02   9.0314903e-02   1.6021270e-02   5.9597304e-02   4.8409969e-02  -7.2865998e-03   3.5678091e-02  -1.1228372e-01   7.5549093e-02   6.2121579e-02   8.2171933e-02  -3.5266566e-02   5.1353144e-02  -5.4921490e-02   2.4419138e-02  -6.2392675e-02  -5.3336697e-02   2.3045917e-02  -1.2884936e-01   2.7812408e-02   7.5219914e-02  -6.2154425e-02  -2.1119418e-02   1.1916723e-01   7.9087133e-02   3.7521736e-02  -1.2370084e-01  -3.2285403e-02  -5.8337938e-03   4.0511497e-02   4.5706330e-02  -1.6384245e-02   2.0861164e-02  -3.8935212e-02  -1.1561520e-02   7.0184388e-02   6.3335319e-03   1.3191328e-02  -9.4240686e-03   7.3923048e-02   6.9333342e-02   3.9319031e-02  -2.2165310e-02  -7.5413349e-02  -1.2299068e-01   1.4623047e-01   1.2099622e-01   1.9292615e-02  -6.9212353e-03  -2.0883974e-02  -1.0514622e-01  -1.4899527e-02  -1.4041094e-02   1.1150848e-02   1.1890304e-01  -1.8831125e-02  -6.9715165e-02   1.4893526e-01  -5.6826043e-02   9.4166926e-02   1.6745468e-01   9.6177204e-03   8.5595500e-02   3.5696530e-02  -2.6989916e-02   3.0630005e-03  -1.1015424e-01   3.7799973e-02  -2.2542891e-02   3.8448521e-02   1.0934695e-01  -7.2702902e-02   1.1507516e-01   4.7887424e-02  -1.9662270e-02  -5.3132730e-02   1.1718370e-01   7.5841447e-03  -7.2739114e-02   1.7375529e-02   8.3982650e-02  -1.3098714e-01  -8.8723828e-02   4.3932266e-02   2.4916278e-02  -1.2053776e-01  -3.0828217e-02  -8.9323359e-02   7.6130774e-02  -1.0231319e-01   1.6790200e-02   8.3721994e-02  -4.5029927e-02  -3.2138597e-02  -3.1781514e-02  -6.1543144e-02   8.3384384e-02   8.4006406e-03   1.0798950e-01   6.9740105e-02  -5.9002785e-03   9.2336033e-02  -2.1024688e-02  -8.8272583e-02   4.5939414e-02   1.1100279e-02   3.5360886e-02   3.0497252e-02   7.0272258e-02  -1.1951117e-01   6.5249249e-02  -3.5483702e-02   6.7165078e-02   4.2789963e-02  -3.8101738e-02   4.9105733e-02  -3.4204006e-02  -3.8282659e-02   1.6687810e-02   2.8279367e-02   4.2210090e-02   7.0392417e-03  -3.6236110e-02   1.1613727e-02   2.4916165e-03   5.4629902e-02   1.0775645e-02   8.3210413e-02  -1.9837445e-02  -8.8633438e-04   1.0648296e-01  -1.1180625e-01   1.1554144e-02   5.0652847e-02  -7.2943898e-02  -4.8045526e-02  -5.2989158e-02  -3.5853662e-02  -3.5203629e-02   2.0033768e-02   1.0413422e-01  -2.3622095e-02  -1.5227170e-02  -4.5900370e-02   7.5275915e-02
  -6.8680781e-02   5.1310029e-02   1.1554669e-01  -2.4906844e-02  -3.7187588e-02  -1.0400638e-02   5.3940114e-02   7.4153861e-02   1.7326226e-02   6.2092362e-03   1.0656718e-01  -4.3316724e-02   6.5799461e-02  -4.7080989e-02   1.3455973e-01   2.0652827e-02  -2.7926577e-02   8.6761724e-02  -6.1667628e-03  -6.3432783e-02  -1.4972126e-02   1.1825884e-01  -2.9853636e-02   6.3537991e-02   2.5104492e-02  -4.4479015e-02  -1.1466770e-01   3.1061648e-02  -1.2675244e-02   1.3324086e-02  -8.9015369e-02   4.1918038e-02  -8.7877195e-03   3.5174703e-02  -1.7040776e-02   3.1242887e-02   3.8051747e-02   6.8122668e-02   8.4871377e-03  -1.2600139e-01  -3.8519812e-02  -3.4166063e-02   9.0413953e-02  -8.1698137e-02   7.0155214e-02  -5.6848562e-02  -1.0114198e-01  -7.7811637e-02  -4.0785206e-02  -1.9420638e-02   1.1575376e-01  -6.8133801e-02   4.6827912e-02   6.0267733e-02  -1.6761150e-02   1.3298206e-01   2.1938216e-02  -6.6691952e-02  -4.6351403e-03   5.0551129e-02   5.4246099e-03   7.1739995e-02   6.6061590e-02  -3.6380590e-03   7.0897072e-02  -2.4577439e-03   4.9089034e-03   1.1187212e-02   1.0883226e-01  -1.7266053e-02   4.3087279e-02  -7.9095300e-02   3.4008118e-02  -5.4466323e-02   1.2157285e-01  -1.8250984e-03  -5.2069601e-02   8.4433216e-02  -2.7983640e-02  -1.6930420e-02   2.2514492e-02   1.3111108e-02  -3.6992295e-02   5.5405493e-02  -8.4133677e-02  -2.8913261e-03  -8.4510631e-02  -1.7616739e-02   8.8876277e-02  -3.7660029e-02   5.7390176e-02   2.7556564e-02  -7.5992552e-02   2.2753637e-02  -6.3804222e-02  -1.0694783e-02   1.4950057e-02   3.6934539e-02   8.1841856e-02  -1.9069215e-02   9.8887722e-02  -7.6769024e-03  -4.2234263e-02  -3.9826536e-02   1.7944042e-03  -3.7231083e-02  -8.7025835e-02   6.4186222e-03   5.4434997e-02   6.6727103e-02  -4.2545917e-02  -7.7266299e-02  -1.7300146e-02   7.9409806e-02   2.7783416e-02   3.1389139e-02   1.8886230e-02  -3.6945379e-02   1.2763600e-01   2.5845060e-02   2.4539992e-02   6.0620288e-02   1.2319320e-01   2.9107190e-02   7.9044715e-02  -1.3929513e-01   4.9735449e-02   3.9197969e-02   7.3009455e-02   6.0934519e-02   9.7963242e-02  -2.9091506e-02  -3.3366170e-02  -1.0976388e-02   1.9149026e-02  -4.5540896e-02   2.5173127e-02  -4.2505787e-02  -5.9693480e-02   3.1780587e-03  -4.1065750e-02  -1.0649899e-02  -3.7320653e-02   1.1044075e-01   8.3542705e-03   7.3932222e-03  -1.7035725e-03   8.3370314e-02  -3.4435821e-02  -1.3766173e-02  -3.5773801e-02  -3.7920688e-02  -1.5551952e-03  -5.3304348e-02  -4.0449832e-02  -2.1194582e-02   6.0554830e-02  -4.7479020e-02   3.7243524e-02  -9.9913851e-02   1.5337855e-01  -7.2288276e-02  -7.2312735e-02  -3.9918101e-02  -1.2558062e-02   4.8866904e-02   2.4459372e-02  -7.1172518e-02  -2.6946905e-02  -6.7830869e-02   1.2441394e-02   3.5006168e-02   2.4088787e-02   1.4163600e-01   1.8835131e-02   1.5599856e-01  -2.5905336e-02   1.8115285e-02   6.1214269e-02   4.7296622e-03   1.3085815e-02  -8.1194910e-02   1.2484781e-01  -3.2570391e-03  -6.1262480e-02   2.8668290e-02  -3.7128032e-02   6.3703019e-02   3.1550448e-02  -1.8155248e-03  -5.3860642e-02  -4.0074019e-02   6.5468050e-02  -9.5163243e-03   1.5369529e-02   3.9752423e-02  -2.2290770e-02  -5.0021454e-02  -1.5223529e-02  -5.3645366e-02   3.3609415e-02   5.3455254e-02  -1.4378540e-01  -1.6245245e-01  -2.6715308e-02  -5.6054493e-02  -4.8523210e-02   5.7258637e-02   3.5359907e-03  -4.6103361e-02  -6.8760079e-04   2.6729647e-02  -8.7125777e-02  -4.9438665e-02   3.8941302e-02  -1.0732518e-01   1.4246428e-01  -2.7781679e-03  -1.0962547e-01  -1.0395482e-01  -1.7821384e-02  -8.5190583e-02  -6.7340091e-02  -5.3899407e-03   3.5141387e-02  -2.9060952e-02   7.0385148e-02   1.2112638e-01  -3.9097585e-02  -1.3515319e-01  -6.7310310e-02   3.3855045e-03  -4.9792062e-02   8.9350423e-03  -7.3386319e-02   7.5397357e-02   2.7695098e-02  -3.3467308e-02  -9.5479798e-03   4.1289060e-02   4.0836978e-02  -3.3844703e-02  -7.3761852e-02   3.2510204e-02   5.8568499e-03   4.7101426e-02  -1.3748385e-02  -1.6396455e-01  -3.7739553e-02  -6.2671753e-02  -1.4267927e-01  -3.8738016e-02  -5.6576922e-02  -1.2177384e-01   5.6247182e-02   4.1480625e-02
  -4.0414539e-02  -6.1096154e-02  -2.9611226e-02   2.4247213e-02   8.2738446e-02   1.0728451e-01   1.9558571e-03   7.5172223e-02   2.8861714e-02   4.6419499e-03  -6.8307132e-02   9.5028554e-02   3.0144418e-02  -4.2689213e-02   1.9917595e-02   6.7815662e-02   3.1467442e-02   7.0674551e-02  -2.3350540e-02  -4.6818629e-03   2.9849105e-03   2.4359250e-03   1.6287303e-02   5.6454232e-03   6.3518819e-02   3.7145487e-03  -7.0002528e-02  -5.2682605e-02  -8.9649133e-02   6.6357324e-02  -1.1238900e-02   1.1711951e-01   4.0147950e-03   4.6073910e-02  -3.4733928e-02   2.3018841e-02   5.9969693e-02  -1.5171706e-01  -1.0952315e-01  -7.3976968e-02  -2.3015701e-02   9.1871518e-02  -8.2900387e-03   1.1219424e-01  -1.3515485e-01   1.1030927e-01   3.8583908e-02   1.2420101e-02   8.0795382e-04   1.1860788e-01  -1.4189796e-02   3.0123341e-02  -6.8843988e-02   8.3999111e-02  -1.4405629e-01  -1.1029772e-02  -4.5304710e-02   6.4146874e-02   5.2463548e-02   5.6025785e-03   3.6776037e-02  -4.3710501e-02  -1.4963633e-02  -6.9808429e-02  -1.0782331e-01  -6.5547830e-02   2.6218954e-02  -7.6893432e-02   6.0082316e-02  -1.4322315e-02  -1.0516424e-01  -2.8709987e-02   7.5431308e-04   1.0163850e-01   9.9472959e-02  -5.0970957e-02   3.1149130e-02  -1.9006658e-03  -1.3944185e-02  -6.4834802e-02  -1.0635230e-02   1.0602563e-01  -8.0196197e-02  -1.0653339e-01   2.9333545e-02  -7.6296098e-02  -2.3276611e-02   5.8524941e-02   6.4266835e-02  -1.1958136e-03   1.4544688e-02  -9.6203445e-02  -2.4609108e-02   1.6591901e-02   3.2287578e-02  -4.5315168e-02   4.6313999e-03   1.4829874e-02  -3.8375754e-02   1.0873044e-02  -4.0976170e-02   9.0058573e-03  -5.0429714e-02  -5.4058737e-02  -5.5451369e-02  -8.5611343e-03  -4.4788394e-02   2.0607275e-03   5.3600477e-02   4.2367906e-02   9.8167299e-02  -1.1900385e-01   2.7197712e-02   5.7467203e-02   2.3793369e-02  -9.7272155e-02  -3.1015287e-02   2.9534405e-02   6.2107158e-02   2.1098490e-02  -1.1966029e-01  -1.1150515e-01   1.5365738e-02   6.3792444e-02   7.3062078e-02   1.0805543e-01  -1.4823735e-02  -1.1052871e-01   3.2155690e-02   7.7156655e-02   1.0395229e-02   5.3851226e-03   8.2325003e-02  -5.0047496e-02   3.9647829e-02  -4.5226987e-02   4.7959792e-02   5.2251370e-02   1.2034237e-03  -7.4240590e-02  -7.2559738e-02  -1.1736478e-02   8.2381976e-02   1.8818283e-02  -1.1330425e-01  -2.3274352e-02   8.9331003e-02   5.7912329e-02  -7.9013462e-02   2.2687200e-02   1.5247786e-02  -9.0688987e-02   3.7977494e-03  -4.5697822e-02  -7.0266169e-02   7.3742985e-03  -2.3831744e-03  -1.4360185e-03   1.9878497e-02  -5.6317736e-02  -2.5462214e-02  -1.3289914e-02  -7.8413680e-02   1.1229423e-02   1.9416139e-02  -1.4210865e-02  -1.1314451e-01   9.1931938e-02  -2.5970403e-02   9.6238450e-02  -7.5502438e-02  -7.7622411e-04  -6.9304387e-03  -2.4292134e-03  -1.0515577e-01  -4.4278124e-02  -8.3642237e-02  -2.3913202e-03  -1.6000592e-03  -9.3282401e-02   3.2225636e-02   7.3691052e-03   2.5324254e-02   3.4861253e-04  -4.1748230e-02  -4.0123715e-02   2.8965595e-02   1.7891759e-03   1.3121716e-01  -5.6953816e-02  -1.0178881e-01   6.4521663e-03   8.5887405e-03   1.3700485e-01   3.4560079e-02   5.0203781e-02  -2.8589375e-03  -1.0058320e-01  -2.3979328e-02   2.6164943e-02   7.5806728e-02  -4.4220022e-02  -2.3565684e-02  -7.9506727e-02  -3.5506038e-03  -1.0572018e-01   2.7959589e-02   5.2072122e-02   9.3481181e-02   5.3717021e-02   8.5946419e-02   9.6210385e-02  -1.0575964e-03   5.3694118e-02  -5.3561247e-04   1.0217937e-01  -7.0297554e-02  -2.2192419e-02   5.2560977e-02   6.2665470e-02  -3.9186667e-02  -5.0729943e-02   2.8502990e-02  -3.2976004e-02   5.3663173e-02  -1.1676317e-01  -1.2811100e-02   1.9936245e-02  -7.3804026e-02  -8.5643036e-02  -7.3904265e-02   8.2341076e-02   4.4657852e-02   1.2224346e-01  -4.3938097e-02   3.5865966e-02  -2.6370010e-02   1.6143212e-01   6.4684889e-02   1.9463032e-02  -3.1894029e-03   4.3082158e-03   4.6566360e-02  -4.5002166e-02  -1.3666612e-01  -7.2535557e-03   1.2227579e-01   1.7179899e-02   4.3464199e-02   4.6368071e-03   4.6409486e-02  -6.4024950e-02  -3.6587201e-02   8.3591514e-02  -2.8204699e-02   1.1036153e-01
  -8.3073761e-02   5.5616934e-02   2.4312971e-02  -1.3573656e-02   1.0016750e-01  -1.3537551e-02   1.4766314e-01   1.0149668e-01   3.2138161e-02  -9.7890676e-02  -3.2561787e-02   4.6857310e-02   4.6943213e-03  -8.3944471e-02  -1.0722738e-02   1.4846915e-02  -1.2080320e-01   1.7028442e-02   4.6613931e-02   2.4630984e-02  -7.9245243e-02   7.5926886e-02   9.3841609e-02   1.2754860e-01   9.9901036e-02   7.4171716e-02   3.0312873e-02   3.5329912e-02  -1.0599083e-02  -8.4582249e-02  -8.8063216e-02  -1.9595587e-02  -1.1268422e-01  -7.7575029e-03  -6.7056479e-02   7.0746555e-02  -2.2744324e-02  -3.0240075e-02   4.6268211e-02  -1.5067313e-02   1.6465975e-01  -1.2898017e-02  -4.7462941e-02   1.7505369e-02  -8.1804693e-02   5.6762609e-02   6.5304625e-02  -8.3366049e-02   8.6445332e-02  -8.6147790e-02   3.0833914e-02  -7.0733682e-02  -1.4576282e-01   7.2584420e-02   5.3348240e-02  -5.5768331e-02  -8.3031151e-03  -1.0008238e-02   4.9441760e-03  -4.2697149e-02  -1.2091636e-01   7.9073329e-02  -3.9371875e-04   3.1180261e-02   4.9691913e-02   4.3424717e-04   2.4655969e-02  -3.5400243e-02  -3.9632760e-02   2.6457148e-02  -9.8227025e-03   1.2979734e-01  -1.8014102e-02   4.6553938e-02  -1.0186889e-01  -1.7659479e-03  -3.3926802e-02  -1.0401897e-01   1.4115473e-02  -1.5081313e-02   3.0669852e-02   9.5103683e-02   1.2546645e-02  -4.6987506e-02   2.8708975e-02  -1.3163492e-01   8.5354212e-02   1.9627488e-01   5.2390816e-02  -6.6482732e-02  -4.8562016e-02  -8.5828022e-03   9.0577845e-02  -5.1396628e-02   1.0982089e-01  -7.7836683e-02   1.8988912e-02   2.9034931e-02   7.7148132e-02  -4.9777143e-03   1.7255800e-02   3.9953788e-02   9.6106506e-02   9.7628476e-03  -4.7825987e-02   3.6950700e-02   5.3550641e-02  -1.8695782e-02   1.0522065e-02   2.5739485e-02   4.1044608e-02  -4.1200354e-02   2.7704120e-02  -6.3114214e-02  -1.9944666e-03   4.3497108e-04   7.0793526e-02   1.5224884e-02  -6.4664826e-02  -1.0437624e-02   4.4701081e-02  -1.9948925e-02   1.1835023e-02   1.2381004e-02   4.8210944e-02  -1.8196914e-02  -1.5427170e-01   5.5901130e-02   2.0478053e-03  -4.1418089e-02   2.0700671e-03  -8.1907773e-02   5.1057107e-02   7.1804959e-03   3.0763141e-02  -8.8434677e-02  -9.0573255e-02  -7.3077964e-03   3.3043931e-02  -8.8372312e-03   3.2858740e-02   1.0311944e-01   9.2409138e-02   6.2742744e-03  -5.3418944e-02   8.1822034e-02  -1.5171230e-02   3.7876826e-02   8.7503957e-02  -2.2007747e-02  -1.8025272e-01  -4.8333625e-03  -2.1324616e-02  -6.1629059e-02   8.9973064e-02  -1.6440084e-02  -4.0004268e-03  -2.0071167e-03   5.1057891e-02  -4.9925034e-02   7.3793447e-02  -5.9111627e-02   1.2701448e-01  -8.3017482e-02   8.3769113e-02   3.3375268e-02  -5.4504047e-02  -9.7400960e-02  -5.7346395e-03  -3.9467760e-02   5.0615047e-02   1.3378600e-02   1.0789102e-01  -1.1621849e-01  -4.8163896e-02   5.5031616e-02  -2.2381759e-02  -1.3539439e-02   1.8762686e-03   4.3923201e-02  -4.7590146e-03  -2.6862389e-02  -7.0723233e-02  -6.1574611e-02  -8.6269469e-03  -2.5705198e-02   6.5144735e-02   3.0391658e-02  -1.6083230e-02  -5.9134805e-02   2.2473180e-02  -1.3366287e-02  -1.4949138e-02  -3.2891652e-02  -3.1755888e-02   1.7645645e-02   3.0507887e-03   3.7719425e-02   6.6222136e-02  -2.8029597e-02  -5.9802183e-02   9.9153343e-02  -2.0165341e-02   5.0144148e-03   1.0980467e-01  -4.1734366e-02  -7.3025205e-02   2.6220571e-02  -7.0298800e-02  -1.2987304e-01   3.1342701e-02  -4.2906575e-02   1.6641675e-02   4.0461832e-03  -1.4055181e-02  -8.7873447e-02  -6.7162296e-02  -3.8954643e-03  -4.6687931e-02   8.0327721e-02  -8.2915110e-02  -6.4480376e-02  -3.8931624e-03   5.9489882e-02   4.9995729e-02  -5.9002533e-02  -8.7066589e-03  -1.6491004e-02  -2.0866457e-02  -7.9605872e-05  -5.6017056e-04   1.0580532e-01  -7.8995963e-02  -8.2936299e-04  -4.7159973e-02   2.3651551e-02   5.7071150e-02   1.7715001e-03   3.5356543e-02   5.4997627e-02  -6.8445883e-02   9.4619547e-02  -1.0174791e-01  -1.2015257e-01   6.4984191e-02   2.3805948e-02  -1.2469159e-01  -6.2570333e-03   5.5532326e-02  -7.1318433e-02   8.1019325e-02  -1.4048096e-02  -1.0660330e-02  -3.7905686e-02   1.1905101e-02   3.7749697e-02
   1.3034244e-02   2.0667646e-03   3.9247531e-02   9.1457898e-02  -4.0052406e-03  -1.1967517e-01   7.0242187e-02  -3.2550783e-02  -1.2062386e-01   2.5961637e-02   4.8638132e-02   6.6883844e-02   2.2494172e-02   2.6340304e-02  -5.1647608e-02  -1.8874685e-02  -1.4149976e-01   1.2820126e-01  -8.1686461e-02  -3.1779078e-02  -2.8521670e-02  -1.5121456e-02   4.7490966e-02  -3.0720985e-02   2.6120405e-02  -4.9379443e-02  -8.9238994e-02   1.0883686e-01  -3.7537578e-02  -3.0955168e-02  -4.9288791e-02  -9.4631168e-03   1.1168718e-01   1.4881987e-02   7.6300993e-02  -5.4306797e-02   1.3564077e-02   2.9427212e-02   1.0803203e-02   1.8460506e-02  -3.3447030e-02  -5.3352515e-02  -9.1046735e-02  -7.3989067e-02   1.2629719e-01  -4.7374677e-02   2.8960287e-02  -2.5916210e-02   7.1775885e-03  -4.5375604e-03  -2.9918446e-02   2.1103873e-02   3.9159315e-03   7.2654607e-03  -1.0079578e-02   7.3773971e-02   1.0440945e-02   4.5342539e-02   8.7768647e-02  -9.1669445e-02   8.8624432e-02  -4.4261425e-02  -1.2267891e-01   1.1535596e-01   2.9793732e-03   4.5587977e-02   1.3209859e-02  -3.2841474e-02  -4.6192185e-02   4.7399538e-02  -7.3124137e-02   6.2638672e-02  -3.7828890e-02   1.2746091e-01   5.9735615e-02  -8.2918360e-02  -3.9838508e-02   8.8657348e-02  -1.2727005e-02   5.3222705e-02   5.3074143e-02   3.0713364e-02   1.0413589e-02   1.9224734e-02   1.4058032e-01   2.5722567e-02  -2.7960558e-02  -8.5303991e-03  -1.0864822e-01   3.7117157e-02  -1.2393627e-02   7.9678309e-02   2.9421527e-02   1.7322667e-02  -1.4667705e-02   9.8186471e-02   2.5264600e-02   3.9435020e-02  -1.3107726e-02   6.2787427e-02  -1.4863021e-02   1.3067361e-01  -6.0385346e-02  -2.0640046e-02   5.6573436e-02   4.0338548e-02   6.1331791e-02  -6.5554267e-02   1.8745842e-02  -2.6480408e-03  -2.2678830e-02   4.7579144e-02  -3.7466390e-02  -4.1523529e-03  -9.7859752e-02   8.1647105e-02   2.9956143e-02   4.1680430e-03   3.4480804e-02   1.6452685e-02  -6.2713935e-02  -9.5094380e-02   4.1109924e-02   1.4542385e-02   4.6558912e-02  -9.7735828e-03   7.1579025e-02   5.4888209e-02   8.3056237e-02  -6.0580571e-03  -1.7239374e-02   1.0270643e-02   6.3939131e-02  -3.4803337e-02   2.7920858e-02  -9.0368573e-03  -1.9927503e-02  -4.9560670e-02  -7.2357515e-02  -7.4878236e-03  -6.5244235e-03   2.4349432e-02   2.7680344e-02  -5.8789836e-02  -7.1323601e-02   2.8170867e-02  -5.6534764e-02   9.1472341e-02  -1.0730628e-02  -3.7632419e-02   2.0675216e-02  -9.2487366e-02   3.7495768e-02  -6.5688105e-02  -3.9167883e-02   9.6953469e-02   4.7279243e-02   1.4171575e-01   1.7202022e-02   8.4045865e-03   4.8657055e-02   4.6552651e-02   2.1115549e-02  -9.8765488e-02  -2.6035484e-02  -4.2860711e-02  -1.6935364e-02  -6.0110158e-02   9.4759197e-02   8.5569215e-02  -5.7556092e-02  -9.4343680e-03  -2.2707110e-02  -5.8025459e-02   9.2302429e-02   7.5789923e-02   4.5677733e-02  -9.6566062e-02  -1.2364340e-01  -1.6294806e-01  -1.0029081e-01  -7.5849168e-02  -1.1201211e-01   6.2405886e-02  -9.0468463e-03   1.3401769e-01   5.5905730e-04  -1.0620132e-01   1.6497098e-01  -7.1786854e-03   9.3554308e-03   7.7125311e-02   1.8992348e-02   5.7958592e-02  -9.1133364e-02  -6.2388373e-03  -8.4428875e-02   1.3931855e-02   6.7389819e-02   5.8285825e-02   5.8265433e-02   1.3254226e-03   2.3013269e-02  -1.1914560e-02  -6.3702945e-02   3.7281746e-02  -3.8032784e-02   1.7389376e-02   9.7050183e-02  -3.9974898e-02  -8.2314257e-02   5.9429237e-02  -8.2294424e-02  -2.9342067e-02   1.3474535e-03   2.1753197e-03  -3.2056148e-02  -8.3001518e-02  -4.9064963e-02  -1.7985504e-02  -1.0224681e-01  -1.3158347e-01   1.0755012e-01  -2.7161592e-02   7.8107447e-02  -1.1235127e-01  -3.6494599e-03  -1.1016147e-01  -5.2092732e-02   1.2156733e-02   7.4602355e-02  -3.3563059e-02   6.5745809e-02   8.5923833e-02  -1.2442618e-02  -7.3352326e-02   6.5665403e-03  -1.0941014e-01   4.7811882e-02  -8.3749786e-02  -3.8111045e-02  -7.3887290e-03  -7.2703964e-02  -1.7441486e-02   1.0051267e-01   4.6405029e-02  -5.3550358e-03  -2.1869849e-02   1.8444473e-02  -4.0964430e-02  -8.4837258e-03   7.1730666e-02   9.3144129e-02   7.0048226e-03  -6.0117783e-02  -5.3106707e-02
  -6.7027795e-02   1.0675802e-01  -7.3311374e-02   7.7772452e-02   1.0702272e-01  -3.9999921e-02   7.1298326e-02   5.0171235e-02   1.6184158e-01  -6.1823831e-02  -9.2456652e-02  -3.9209366e-02   4.8874135e-02  -1.0739384e-02  -8.8753884e-02  -9.7323127e-04   5.1494424e-02  -6.4848728e-02  -1.4973544e-01  -1.0273170e-01   3.9257413e-02   6.0578639e-02  -1.1736877e-02   5.6195581e-02  -3.1297537e-02  -1.1415325e-01  -2.9843763e-02   4.5192877e-02   4.0724532e-02  -5.5537880e-03  -4.9879910e-03   1.1557129e-02   5.7706269e-02   4.8809330e-02   8.3451856e-02   6.3221579e-02  -1.7984158e-02  -7.1583948e-03   6.0855683e-03  -7.0966448e-02   9.0740480e-03  -8.8092112e-02  -3.6221499e-03   9.5389366e-02  -3.2599771e-03   5.9004517e-02  -6.8542632e-02   5.1487934e-02   8.4365499e-02  -2.2834713e-02  -3.1100501e-02   4.2104924e-02  -1.0240082e-01  -4.4487485e-02   1.4742181e-02   2.6747704e-02  -6.9308653e-02   5.6060268e-02   3.0714361e-02  -1.7978386e-02   1.0342958e-01   7.4214215e-02   4.6448324e-02   1.1712181e-02   8.6288243e-03  -4.4479753e-02   2.7771793e-02  -7.6330848e-02   4.1226809e-02  -5.7360955e-02   8.0998747e-02   3.0511702e-02  -5.4699399e-02  -3.5689322e-02   2.4943794e-03  -6.1003521e-02  -2.2814734e-03  -1.2915181e-01   1.6756070e-02   1.4701867e-01  -4.9975985e-02   6.0291130e-02   4.5189427e-02  -7.4114802e-02   3.3408640e-03  -4.5051339e-02  -6.5606978e-02   2.1073047e-02   5.1021435e-02   3.6818805e-03  -1.0415495e-01   4.7843601e-02  -2.5176925e-02  -2.3548224e-02   1.6814040e-04   1.2089615e-02   2.2341277e-02  -1.2687608e-01  -1.6993825e-02   3.0738078e-02  -8.2855314e-02   2.7139705e-02  -2.3640385e-02  -8.6240768e-02   5.7115022e-02  -1.2426031e-01  -3.8285570e-02  -2.5795131e-02  -6.6081011e-02   8.0191662e-02   5.8098303e-03   5.9596372e-02   2.5590068e-02   5.7800473e-03   1.2339732e-01  -2.6854463e-02   3.9152780e-02  -1.3188052e-01   9.1741081e-02   2.2878503e-02  -4.0206980e-04   4.3705761e-02   2.4898622e-02   8.2543975e-02   9.4134435e-02  -3.6779402e-02  -5.3864075e-02  -8.5086827e-02   2.7146963e-02   2.0479513e-02   3.9739552e-02  -1.7358877e-04  -2.0283241e-02   2.3507804e-02   4.1936529e-03  -3.3131389e-03   2.5511002e-02  -6.0283192e-02   3.6904908e-03   1.0722835e-01  -2.2844053e-02   5.4839363e-02  -5.8305296e-02  -6.0615561e-02  -2.4887335e-02  -2.2633616e-02  -3.5723741e-02  -1.3063820e-01  -5.3533303e-02   4.1646254e-04  -1.0936509e-02   3.3541663e-02   8.0154196e-02   2.1154467e-01   1.3164243e-02  -1.5696515e-02  -7.1971661e-02  -1.5069711e-02   5.5778320e-02  -5.4487505e-02  -8.5516912e-02   8.6966809e-03  -4.1526459e-02  -4.8457571e-02   6.7654505e-02   6.9997544e-03   9.2472406e-02  -8.1303690e-02  -4.5176612e-02  -3.2791759e-02  -8.4383975e-02   3.9238060e-02   1.7144499e-02  -5.5209365e-02   6.1271193e-02  -4.1822076e-02  -7.5005225e-02  -2.2796121e-02   6.2609755e-02  -3.4166642e-02  -3.1547734e-02  -3.2033038e-04  -5.4983949e-03   1.8797831e-02  -3.4111911e-02   1.0426301e-01  -4.0718777e-02  -1.1721434e-01   7.3809102e-02  -1.8647921e-02   1.1907094e-01  -8.5668079e-02  -4.2172745e-02  -1.5225916e-01  -5.1503224e-02  -4.9976832e-03   2.8558522e-02   7.0431381e-02  -8.0520101e-02   8.4071817e-02   1.3336941e-02  -6.9067731e-02  -5.8025928e-02   7.2694229e-03   5.6431464e-02  -6.6398292e-02  -1.5959876e-02   2.4798194e-02  -2.9581657e-04   1.7994261e-04   8.6651837e-03   2.3467913e-02  -3.6768404e-02   3.0600247e-02  -7.8082213e-03   6.7367850e-02   4.2510753e-02  -1.5260409e-01  -1.1479876e-02  -2.9518172e-02  -3.4524920e-02   2.9120624e-02   4.4342399e-02   2.3698887e-02   5.7029646e-02  -5.9231295e-03   1.6818368e-02  -7.6815032e-03   5.7607652e-02   1.2805447e-01   5.4693585e-02  -3.4168423e-02  -3.2520688e-02   1.2841544e-01   1.8845323e-01   6.4177466e-03   1.4781416e-02   1.3239236e-02  -1.5623251e-01   3.3100388e-02  -7.2127181e-03  -5.7433949e-02  -7.5635598e-03   9.6314993e-02  -1.1287955e-02   5.6272062e-02   3.5537118e-02   2.0872235e-02   7.5220052e-02  -2.1745623e-03  -5.6007882e-02   2.1958005e-02  -7.8742818e-02  -4.4790293e-02   7.1218551e-02   1.3126248e-02
   7.3626121e-02   5.1117366e-03  -1.4213729e-02  -1.0108531e-01   1.1105603e-02  -2.4231616e-02  -5.9986748e-02  -2.9743678e-02   1.8345267e-02   7.1805794e-03   8.8887667e-02   6.4102585e-02   3.2644198e-02  -5.7235286e-02   1.5609983e-02   1.1328662e-01  -4.1559508e-02   2.0520847e-02   1.9175043e-02   7.2046261e-02  -2.2695561e-02  -7.2156881e-03   1.3013079e-01  -8.5391627e-02  -1.6732675e-04   1.4250797e-02   1.2788275e-01  -3.2931564e-02   2.0144357e-02   3.5537134e-03   5.4283569e-02  -1.0728456e-02  -9.9749907e-02   4.8079829e-02   2.5291416e-02  -1.1473874e-01   4.9785298e-02  -3.2003163e-02  -4.4200307e-02   5.9013091e-02   8.5668877e-03   6.2843226e-02  -8.6923083e-02   5.7468469e-03  -9.4579831e-02  -4.1123927e-02   5.5872546e-03  -4.7096560e-02   9.4192126e-03   5.5820718e-02  -2.6804290e-02  -6.7296995e-02  -1.2846697e-02   2.7056039e-02  -7.3804388e-02   5.2621534e-02  -1.2725717e-01   7.3450583e-02  -2.0829430e-02  -4.7954695e-02  -6.0781570e-02   1.3109587e-01   7.5894842e-03  -4.0076631e-02  -7.7714447e-02  -2.3462874e-02  -2.1938466e-02  -6.0403992e-02  -1.0880994e-03  -1.2326036e-02  -3.6564635e-02   3.7450707e-02  -1.7321671e-02  -4.7344257e-02   3.2623431e-02   2.2200139e-02  -4.6762920e-02   9.1782842e-02   1.8891547e-02  -4.6223301e-02  -5.3212442e-02  -5.6996249e-02  -1.1985436e-01   1.5171646e-02   4.7595996e-02   3.3211132e-02  -7.6619512e-02   2.2296665e-03  -5.7009925e-02   1.4642151e-01  -1.9951167e-03   1.3282641e-02   9.0582198e-02  -3.1266022e-02   3.1032568e-03  -1.8035912e-02   4.8882788e-02  -5.3047161e-02   1.0150158e-01   1.4055593e-01   9.3616884e-02   4.9907393e-02   5.5554737e-02  -6.7831242e-02   7.4969283e-02   8.5121460e-03   7.7690256e-02   2.3092824e-02  -9.5677914e-02   4.4461242e-02  -8.7773130e-03  -3.9844340e-02   3.2405027e-02   2.7973765e-02  -3.0840036e-02   4.7867471e-02   4.4306368e-02  -5.1314734e-02   5.4271835e-02  -3.5354106e-02   4.7034986e-03   6.0091005e-02   2.1716363e-02  -5.0120975e-02  -4.2179517e-02  -3.8534417e-02   2.6699482e-02  -2.6828931e-02   4.3958538e-02  -4.2252315e-02  -7.7437208e-02  -1.1330884e-01  -1.0824834e-01   7.7789653e-03  -1.4742158e-02   3.1975877e-02  -6.4154293e-02   4.2953084e-02   2.0741490e-01  -2.6574768e-02  -8.9254995e-04   9.0970550e-03   1.1237440e-01   1.5680390e-02  -1.6754130e-02  -2.1456930e-02  -5.0480864e-03   1.7753844e-02   1.0780990e-03  -1.4794958e-02   7.9198944e-03   9.8371702e-02  -2.7490053e-02   1.0249798e-03  -7.1079952e-02  -2.1022324e-02  -1.4825669e-01   1.1612268e-01   5.6812374e-03  -1.4655341e-02  -3.2604031e-02  -5.2580834e-03  -8.8869895e-02  -9.7907588e-02  -5.4042686e-02   1.0963592e-01  -3.8437872e-02  -3.8540919e-02  -2.0035394e-02  -3.1737379e-02   3.3183014e-02   1.5399372e-02  -1.1568206e-02   1.8317830e-02  -7.1725300e-03  -1.3730618e-02   5.4458744e-02   1.1403288e-01   5.3239602e-02   3.6240837e-02   1.1428164e-01  -1.8883285e-02   6.5521050e-02  -4.2996312e-02  -1.6127053e-01   3.5843672e-03  -1.0222666e-01  -1.9269674e-02   3.2001335e-02   6.3240292e-02   5.1932338e-02  -1.0887835e-01   8.6025932e-02  -1.2046800e-02  -5.0858822e-02   9.4593708e-02  -8.3549924e-02   3.0713590e-02   2.4286577e-02  -6.8551205e-02   1.0232927e-01  -9.3969622e-03   6.0322258e-03  -4.3288865e-02  -8.5444932e-02   1.2147895e-01  -1.1543492e-01  -2.0388707e-02  -4.6450004e-02   3.6947587e-03   8.9614690e-02  -1.2444610e-01  -3.4186324e-02  -6.2842937e-02  -3.1716777e-02  -1.9608066e-03  -4.6086309e-03  -6.4200610e-02   7.4717388e-02  -1.9483502e-03  -5.0943121e-02   1.1699888e-02   7.5196708e-02  -9.9723941e-02   8.1324738e-02   4.5874601e-02  -5.9690255e-02   5.3281883e-02  -1.2332734e-01   4.1732790e-02   1.9984746e-02  -3.8517805e-02  -3.2993921e-02   7.9969709e-02   1.0684777e-01  -1.4381023e-02   7.6693929e-02   1.3524014e-02   6.7515254e-03   1.3133918e-02   4.1344373e-02  -3.9361786e-02  -4.1248488e-02   1.7627460e-01   4.4139253e-02   2.8516201e-02  -1.6679621e-02  -1.3631639e-02  -6.2704182e-02  -8.8098865e-02   7.4910580e-02   2.0319642e-02  -8.5923858e-02   1.3661144e-01  -3.2573759e-02  -2.9780200e-02
   3.2783809e-02   4.8103836e-02  -7.6697085e-02   1.2664622e-01  -8.5307880e-03   1.2138560e-01   2.7665834e-02  -8.2896880e-02  -6.0546231e-02   2.7216198e-02  -4.9764625e-02  -9.0037052e-02   6.7669896e-02  -8.9418912e-02  -4.9724375e-02  -1.5177884e-02   5.5628762e-02  -7.2925892e-02   4.9160341e-02   3.0924126e-02  -2.9018078e-02  -1.2851060e-01  -6.4380241e-03  -1.3144197e-02   9.9314195e-02  -4.3409784e-02  -6.3943319e-03   2.8990503e-03  -3.2627082e-02   1.3957715e-02  -1.1602074e-03  -2.2329619e-02   1.3639093e-01  -6.9624285e-02  -8.8317057e-03   7.2541875e-02  -3.3396228e-02  -2.8098738e-02   3.5682661e-02  -2.9175323e-02   5.3515516e-04  -2.4890469e-02   2.2631449e-02   8.3706652e-02   6.3410337e-02   2.3794987e-02   4.8376560e-02   4.6941533e-02  -4.7097118e-02   4.8800144e-02  -7.1456556e-02  -3.5953227e-02   7.5821003e-02   2.6390291e-02  -5.0896579e-02   5.4090938e-02  -9.4379246e-02   4.7039725e-02  -1.0539289e-01   8.9728332e-03   3.8195805e-02  -8.9685292e-03   1.3457914e-03  -1.2512252e-01   7.8872551e-02   3.6500679e-02  -9.2297032e-02  -9.1713954e-03   8.9290816e-02   1.2836889e-01  -1.6119079e-01  -7.9139736e-02   6.8661906e-02  -6.9571961e-03   7.2956133e-02   2.0281001e-02  -3.5003378e-02   7.1434315e-02  -5.0399358e-02   1.7137402e-03  -1.0445752e-02  -4.0350086e-02   3.7510902e-02   1.0154250e-01   6.1335310e-04  -2.7676686e-02  -7.0713596e-02  -3.7065946e-02   8.0686253e-02  -8.4427658e-02   2.4594601e-02   2.8067723e-02   4.7880921e-02  -4.0155670e-02   8.9348022e-02  -1.2408759e-01   4.0605508e-02   2.8515629e-03  -6.5236230e-02   3.8850299e-02  -6.2857275e-02  -3.4491632e-02   1.8527221e-02  -1.4967671e-03  -6.0557142e-02  -1.5711845e-02   5.4616447e-02   2.1822976e-02   1.1960575e-02   4.7262117e-02   6.4128289e-02   4.9252513e-02   9.9594919e-02   1.7406889e-02  -1.2194063e-01   3.5484791e-02   2.8281524e-02  -4.8219748e-02  -3.4876831e-02  -3.1905210e-02   7.6211783e-02   2.3493443e-02   8.2758465e-02  -1.4798621e-01   5.2150786e-02   6.4037749e-02  -1.2712721e-02   5.4096840e-02  -5.8633197e-03   6.5372739e-02  -1.1161551e-01  -6.0783763e-02   4.6715285e-03   1.2947159e-02   5.1081654e-02  -7.8500711e-03   4.9734718e-02   1.3716533e-01   5.7508927e-02   5.7841045e-02  -5.2268243e-02  -2.4639546e-03  -9.0086131e-02  -9.1790147e-02   1.1128355e-01   1.0731091e-01   2.7194472e-02  -2.5324167e-02   4.0140505e-02  -3.1231063e-02  -1.0173288e-02   1.3399541e-01   7.4981931e-03  -9.5261951e-02   2.7976617e-02   3.2458421e-02   5.3663603e-03   2.3394401e-02  -5.0801241e-03   9.0642780e-04   1.0935916e-03  -2.4714494e-02   2.1994024e-02   2.8200339e-02   9.9332008e-02  -7.0077181e-02  -3.6338197e-02  -4.9817742e-02   9.8948083e-02  -5.9465573e-02   7.2874488e-02  -1.2710545e-01   1.0515548e-01  -2.3484005e-02  -8.6753210e-02  -2.9879919e-02  -3.5958673e-02   2.7067559e-02  -4.6211339e-02  -3.7289370e-02  -1.3092185e-01  -7.4882808e-02   8.4653053e-02  -3.8254909e-02  -3.4319232e-02   5.2528234e-02   5.1433640e-03  -1.4001205e-02   1.2841488e-02   4.4236261e-02  -1.9647637e-02  -9.0641814e-02   8.0872685e-02  -8.4886510e-02  -1.0535856e-01  -1.0081537e-02  -6.8463887e-03   1.0728161e-02  -9.5677728e-03   1.0643531e-02  -4.1202208e-02  -1.0608504e-01   5.6243468e-02  -6.1306148e-02   3.2112834e-02  -1.0750885e-01  -8.0692677e-02   3.2965052e-02   7.3140713e-03   2.7483627e-02   6.9266352e-02   1.5520174e-02  -6.8227844e-02  -4.5221413e-02  -5.4798101e-02  -9.3074213e-02   5.4392965e-02   4.8915745e-02   2.2354327e-02  -9.1157711e-02  -3.0466032e-02  -2.2318040e-03   1.0978665e-01  -1.2272018e-01  -1.2681251e-02  -8.7402639e-02  -6.4199402e-02   1.1838571e-02   1.2464761e-02   6.7092623e-02   6.2807276e-02  -1.2288444e-01   2.6817261e-02  -1.7623455e-02  -4.8028979e-02   4.8884713e-02   1.1034952e-02   2.6069520e-03   5.2546484e-02   5.1185843e-02  -3.1414508e-02  -6.0966710e-02   2.9965270e-02  -4.2958781e-02  -1.3739313e-02   5.5977424e-02  -1.3142406e-01  -7.2726502e-04   9.3715665e-02   1.1214414e-01   1.6731909e-02  -1.0221757e-02   1.6489840e-02  -6.3635419e-02   3.7737856e-02   1.2642569e-01
  -3.5080602e-02  -3.4932247e-02   2.8905655e-02  -8.1063495e-02  -9.8326466e-03   4.2434517e-02   5.0807097e-02  -8.6293607e-02   1.4466970e-02  -7.6825479e-02  -3.0410498e-02   1.0697175e-01   1.1037152e-02  -5.2942005e-02   1.0437894e-02  -4.6104033e-02   4.8190179e-02   1.5022173e-02   9.0348177e-02  -1.0448418e-01   1.1471414e-01   3.2631049e-02  -1.0341663e-02   1.0615230e-01   8.1980606e-02   5.6448094e-02  -9.0177989e-02  -9.1993992e-02   5.7517305e-02  -2.4593085e-02   3.9156737e-02   1.2039396e-01   2.2347344e-02   4.3070752e-02   5.2840106e-02   1.3556657e-02   2.8672050e-02  -6.0176876e-02  -1.9791545e-02   3.0238922e-02   2.9384262e-02  -4.6788924e-02  -8.7896098e-02  -5.0176038e-02  -8.0109034e-02   7.1036176e-02  -1.3034506e-01  -3.2117832e-02   3.3532629e-02   3.1552959e-02   4.1554157e-02   9.2952419e-02  -5.6645869e-03   3.8568524e-02   2.5385182e-02  -5.3750258e-02  -8.0594255e-02  -2.0411361e-02   5.1384900e-02   8.0778296e-02  -9.6128470e-03  -6.9872900e-02  -9.7695660e-02  -4.7162335e-02   1.3103603e-01   8.5058308e-02  -4.6144016e-02  -3.6517054e-02   5.4525268e-02   7.1336826e-02   9.9186468e-03   6.1229840e-03   3.2878297e-02  -3.9572277e-02  -1.3369609e-02  -1.1976425e-02   3.7108784e-02  -3.1189527e-02  -5.9664065e-02  -7.3235116e-02  -3.1483463e-02  -1.9417908e-02  -9.8908368e-02  -5.1245476e-02  -5.5431174e-02   8.3315998e-03   6.8089648e-02   3.5441229e-02  -6.3956367e-02   4.3716681e-02   3.4854929e-03   1.2023829e-01  -8.6957762e-03  -1.9711585e-02   9.6400086e-03   3.1183430e-02   5.5362194e-03  -5.7688479e-02  -1.2018176e-02   1.1738837e-01   8.8864370e-02  -4.8352570e-02  -9.1144476e-03   6.1820453e-02   3.8684968e-02   7.1790736e-02   4.6228150e-02   2.2351764e-02  -4.8855083e-02   4.1525769e-02   3.8246475e-02   8.1958036e-02   9.8776205e-02  -5.4332235e-02  -4.3293673e-02   2.1152884e-02   3.3957807e-02  -1.3746963e-01   8.8487090e-02  -1.1046332e-01   6.0527438e-02  -1.6156699e-01  -5.5282306e-02   1.0104683e-01  -3.3093204e-02   5.6545480e-02   8.6075614e-02   1.7915142e-02   4.6798918e-03   5.0574998e-02   8.3871312e-02  -5.4344546e-02   1.6510764e-03  -5.0760716e-02   2.2034091e-02   4.3068285e-03   1.5183537e-01   1.7316426e-02  -8.3046676e-02  -1.0144887e-01   3.3217544e-03   5.9057479e-02  -1.0423810e-04   8.0690985e-02  -1.9337915e-02   5.0181041e-02  -9.1658511e-02   2.8057118e-02   8.8415913e-02   3.3032352e-02  -1.3826031e-01   2.7079259e-03   2.9833946e-02  -4.1502839e-02  -3.1319305e-02  -6.4765608e-02   6.2410347e-02   1.3309133e-03  -3.9165945e-02  -2.8514623e-02   2.9176977e-02  -4.8252712e-03  -6.4009661e-02   6.8046080e-02  -1.5130067e-01   3.1530913e-02   5.2921750e-02  -8.0921805e-03  -4.1824219e-02  -6.4231804e-02   1.4077873e-01   1.0542038e-02  -6.1624435e-02  -1.7965033e-02   4.3066225e-02   1.0326955e-01  -3.7386358e-05  -2.3091949e-03   3.1586857e-03   7.2314287e-03  -4.3809604e-03  -2.5452060e-02   2.9698243e-02   2.1958509e-02  -1.7452537e-02   6.3325061e-02  -5.8210495e-02  -6.1898403e-02  -1.0834050e-01  -3.4835085e-02  -2.6895596e-02  -1.9311034e-02   8.9630752e-02   5.9238254e-02   2.2333046e-02  -4.7603610e-02  -5.8414770e-02  -2.5209136e-04  -7.6734544e-02   7.1873335e-02  -6.6995061e-02  -1.2484738e-01   2.3767724e-02   4.8290195e-02   7.7618849e-03  -7.3285562e-03  -8.4904633e-02  -1.3801385e-03  -2.1857004e-02  -2.0645039e-02   2.9221349e-02  -1.2065625e-02  -1.0063905e-02   1.3697746e-01  -2.7026778e-02  -2.3737018e-02   4.9857068e-02   5.4092267e-02  -2.0494996e-02  -6.5046749e-02   3.2070894e-02   5.3028126e-02   6.6498684e-02  -4.4539690e-02  -2.0657860e-02  -3.7610344e-02   1.1087410e-01  -9.8250797e-02  -2.8850286e-04  -5.8018838e-02   1.0775740e-01  -3.7373548e-02   4.2861555e-02  -6.4307985e-02   5.8194519e-02  -1.0012039e-01  -1.2547662e-01  -3.8102711e-02  -1.5896064e-01   1.2041564e-02  -1.0877954e-01   1.0794163e-01   2.5587630e-02   2.3015644e-02   3.8040371e-02  -1.1883459e-01   1.1271928e-02   3.3995446e-03   5.7722782e-02   3.8660614e-02   3.0907817e-02  -1.1212516e-03  -5.1542423e-02   1.2301945e-01  -5.0135061e-02   3.8838169e-02
  -3.5758084e-02   2.2977411e-02  -8.6227908e-02  -6.1088428e-02  -1.2087129e-02  -7.5067055e-03   2.3233806e-02  -5.1465535e-02  -2.0514814e-02   9.5609123e-02   1.4472398e-03   5.7258699e-02  -3.2186549e-03   5.7028106e-03   2.5460986e-02  -6.4017322e-02  -3.6949522e-03   1.1820229e-01   4.9209732e-02  -7.4383083e-02  -1.3415995e-01   2.2791734e-03   2.1720434e-02  -4.9686490e-02  -6.8997667e-03   9.6337216e-02   9.7348053e-03  -8.6728835e-02  -3.1613647e-02  -4.8493461e-03  -1.3313702e-01   5.8138728e-02  -5.2137340e-04   1.0811593e-01  -1.5684605e-02   7.5128284e-02   9.0032211e-02   8.1190140e-03   3.5465691e-02   7.9948779e-02  -6.7136823e-02   5.8713446e-02  -8.9161191e-02  -1.6648241e-02  -1.3222520e-02   8.9530213e-02   1.7419228e-02   5.1384634e-02  -3.2328168e-03   3.0125091e-02  -3.8307453e-02   3.3705114e-02   1.0933167e-01   1.1880165e-02   5.7653699e-02   2.2994923e-02  -2.4444591e-03   2.2982413e-02   3.0542900e-02   2.0354766e-02  -3.5735916e-02  -1.1600608e-02   2.5697310e-02  -7.1005214e-04  -3.5010676e-02  -2.4355290e-02  -8.1177474e-02  -8.3913703e-02  -3.7515221e-02   5.0694468e-02   4.3749630e-02  -4.2741792e-03   4.9317617e-02  -3.5478530e-02   4.9426273e-02  -7.7887584e-02   4.6767523e-02  -3.1089781e-02   8.0427250e-02   5.6449196e-02   2.0743003e-01   2.7699443e-02  -1.1178019e-02   2.6287798e-02  -5.3009648e-02   8.5590435e-03   5.8876581e-02   3.0872028e-02  -1.1862624e-02   1.1992766e-01   9.4559322e-02   1.3640315e-01  -5.7646749e-02  -5.6073947e-02   3.8738365e-02   4.1090874e-02   1.1482202e-01   3.3818987e-02  -4.7478353e-02  -6.2019615e-02   4.4312072e-02   2.4168569e-02  -9.4028240e-02   4.3793526e-02  -5.0313742e-02  -1.0856548e-01   5.1590826e-03  -1.6206305e-01  -1.0096269e-01   4.5665568e-02  -9.0169292e-02   1.0999008e-01  -3.1544571e-02  -1.4143411e-01  -1.3249058e-01  -4.3877298e-02  -6.0911694e-02  -1.0158685e-01   3.0842220e-02  -4.8090158e-02  -4.5304606e-02   4.7482477e-02   7.3334190e-02  -7.3631441e-02   1.4525096e-02   9.8755488e-03  -3.5517892e-02   2.4552664e-02  -7.6228365e-02  -4.4770455e-02   2.4418565e-02  -6.4407899e-02  -6.0264075e-02  -4.0591830e-02  -2.3734843e-02  -7.6893330e-02  -1.9425287e-02   6.7629964e-02   3.5626437e-02   6.3447380e-02   6.4562190e-02  -3.3251858e-02  -5.8114475e-02   1.8683320e-02   1.6633751e-01  -9.8645583e-02   1.7947542e-02  -4.4500584e-02  -9.4064732e-02  -2.6997630e-02  -2.8503902e-02  -5.1573600e-02  -4.3988520e-02  -4.0496217e-02   6.0610692e-02  -3.1871432e-02  -5.9224864e-02   1.0886391e-02  -4.7087655e-02  -6.2263462e-02  -1.2770420e-02   4.0192936e-02   2.3768599e-02   6.9973073e-02  -6.1263652e-02   4.5119088e-02   1.2435683e-02   1.0341686e-01  -6.0835341e-02   7.5399928e-02  -5.4432671e-02   1.0746968e-01   6.5428949e-02  -1.5006576e-02  -3.9607633e-03  -3.6015910e-02  -1.4731831e-01  -1.1327939e-02  -1.2150826e-01  -2.8603906e-02   1.2257064e-01   4.0866587e-02  -1.8914480e-03   8.0735360e-02  -4.4450299e-02  -6.4449688e-02   4.0301127e-02   1.8598017e-03  -3.6871329e-02   1.0060928e-01  -2.2953403e-02  -3.3834939e-02  -4.3840693e-02  -9.3487132e-02  -1.1883172e-01   1.3950835e-02  -3.8359709e-02  -6.0362622e-02   3.0656576e-02   1.1160115e-01   6.1181690e-02   2.3275440e-02  -5.3335202e-02  -3.8220397e-02  -1.2461990e-02   1.9435454e-02  -1.7571791e-02   2.6465132e-02   2.5324072e-02  -2.5442471e-02  -7.5821000e-02   3.5603188e-02  -3.1996889e-02   1.1613668e-01  -5.5883494e-02  -9.0548584e-02   1.1521551e-02   1.3112171e-02  -1.0187900e-01   6.9235633e-02   1.2153040e-02   5.1754163e-02  -1.5552017e-02  -9.4882500e-03   4.0796770e-02   1.5827578e-02  -5.8132439e-02  -1.6224439e-02  -1.4884946e-02  -6.3951838e-03  -7.0085956e-02   1.0870263e-02  -3.7386202e-02   4.2453999e-02   8.3848869e-02   2.8146712e-03   1.0268302e-01   3.9027124e-02   2.6672350e-02   1.5033083e-01   5.0975469e-02   1.1038585e-01   4.4609438e-02  -4.5105865e-02  -1.4902620e-02  -4.8201256e-02   1.9862592e-02  -1.1094468e-02   1.7519737e-02   1.6646465e-02   5.2222083e-02   7.2022571e-02   6.5677705e-02  -1.1917681e-01   8.1661498e-02   1.2087562e-02
   1.2430278e-02   1.1366190e-02   6.1277250e-02   2.9193816e-02  -1.0557912e-01  -6.2135352e-02   3.3021504e-02  -1.0813932e-01   8.7991357e-02   4.8111526e-03   9.5194257e-02   6.5456935e-02  -6.4404050e-02  -5.2552128e-02   1.2069375e-01   6.9743336e-02  -1.3947092e-01  -8.3384329e-02   2.6934212e-02  -1.4664187e-02  -5.8155944e-03  -2.2608305e-02   2.6168021e-02   2.9475491e-02  -8.9308114e-02   1.6682444e-02   7.3284970e-02   2.0856991e-02   1.9115682e-02   9.9431192e-02  -2.7716050e-02  -2.0019096e-02  -1.0640873e-02   5.5712304e-02  -5.9601677e-02  -7.3149597e-03   3.7176213e-02  -8.1338271e-02  -1.0899531e-02   4.3651148e-02   7.0003023e-02   1.1053317e-03  -2.7144573e-02   8.7666168e-02   9.1858665e-03   4.3065354e-03   2.2997615e-03   1.4591603e-01  -4.7047169e-02  -9.5309547e-02   3.0340011e-02  -9.1393582e-02  -2.4250480e-02  -5.2998709e-02   1.3432462e-02   3.9011052e-02   2.3730517e-02  -1.5620209e-02   1.7734632e-01   3.5196484e-03  -1.9175391e-03  -5.9817397e-02   3.6715931e-02   1.6398014e-02  -1.2229853e-01  -6.3495393e-02   6.1199093e-05  -6.3460954e-02  -4.4061577e-03   5.1445900e-02   3.0770393e-03  -4.9050210e-03   9.3887108e-02  -4.0483269e-03   5.2794958e-02   1.9495241e-02  -5.2330386e-02   9.1387369e-02  -9.7009839e-03  -5.5563205e-02  -4.4770028e-02   4.1790101e-02   6.8136698e-02   6.6035280e-02   3.5614673e-03   1.5337492e-03   1.0948855e-02   5.8860187e-02  -1.2662851e-01  -1.2993449e-02  -1.1420459e-01  -7.4780987e-02  -2.9589391e-02  -1.6189609e-02   8.7861749e-03  -6.4916865e-02  -6.3065774e-02  -1.0576012e-01  -4.7510163e-02  -1.4693302e-02   9.8725998e-02   8.7266616e-02   8.4335459e-03   6.9686389e-02  -1.8307899e-02   1.7942015e-02   1.1540033e-02  -4.9379619e-02  -9.9961596e-02  -1.0141224e-01   3.6722655e-02  -5.6533563e-02   3.1426687e-02   8.1521782e-03   6.6418472e-02  -6.0468095e-03   1.5505019e-01   1.3523838e-02   1.8692728e-02   4.6671857e-04  -1.8320382e-02  -2.6274271e-02  -4.9226983e-02   2.9124597e-02  -5.4902390e-02  -6.0821839e-02   1.6118030e-02   1.2744712e-01   2.3073664e-02   5.9883894e-02  -1.6309547e-02   2.4770560e-02   8.6047714e-02   1.4921917e-02  -4.7310250e-02  -2.0783549e-02   4.5080342e-03  -4.6793451e-02  -2.8335406e-03   1.2740082e-01   3.6968827e-02   1.1266427e-01  -3.2093487e-02  -5.3160435e-02   3.5778044e-04   5.4105324e-02   6.4967537e-02  -6.6188721e-02  -6.0467548e-02   9.9709827e-02  -6.9379714e-02  -9.2623676e-02   9.4202327e-02  -1.2022667e-02  -2.3018537e-01  -7.1208727e-02  -7.4157442e-02   1.4080356e-02  -6.7365171e-04  -1.6074538e-01  -5.6098454e-02   1.2451841e-02   9.4393326e-02   7.2621384e-02  -3.9573340e-02   6.2019892e-02   4.4695020e-02  -9.5199430e-03   7.1454515e-02  -2.0096393e-03  -9.1389975e-02  -1.6735264e-02   9.7431240e-02   3.1277210e-02   4.1388687e-02  -5.7587666e-02   1.4020058e-02  -2.6032174e-02  -7.3393151e-02  -6.0673982e-02  -8.8260474e-03   2.4914769e-03   4.3636065e-02   4.3538142e-02   7.3304200e-03  -2.6935376e-02  -8.6611620e-02  -1.1260468e-01  -4.6697073e-02  -2.9169490e-02   1.6670907e-02   5.3984276e-02   1.0088563e-02  -7.1453696e-02  -2.2705874e-02  -3.7292620e-02   4.5511130e-02  -4.8886335e-02  -4.5345188e-03  -5.7455293e-02  -5.3424462e-02  -1.6751678e-02   3.7982231e-02  -2.9690135e-02  -4.1017625e-03   3.4188903e-02   2.2040391e-02   6.3775925e-02  -1.6013626e-01  -1.6600691e-02   3.0001586e-02   4.8131295e-03  -2.8413239e-02  -1.2095376e-02  -4.6187532e-03  -4.4266827e-02   6.5988891e-02   8.1550730e-02  -3.6085135e-02   2.9656663e-03  -3.4405642e-02   3.4313067e-02   1.4122687e-02  -1.1826056e-01   1.3353533e-02   2.5907574e-02  -1.4356667e-02   6.8590017e-02   5.5063259e-02  -7.5210401e-02   2.9967016e-03   1.1988949e-01   1.7856802e-01  -6.4120497e-02   1.0063755e-02   2.9734043e-02  -6.2556112e-02  -7.7352731e-02   1.7791272e-02   2.0843141e-02  -3.9000883e-02  -3.5278176e-02   8.3429020e-02  -1.4918902e-02  -7.0073336e-02   9.0200937e-02   6.1695937e-02   4.0546167e-02   5.4288710e-02   4.6126082e-02  -1.3745412e-02  -1.1253034e-01   7.9543464e-02   1.1090988e-02   1.1856421e-01   6.2869104e-02
   2.9846598e-02   3.3204438e-02   1.1695757e-01  -1.1352715e-01   4.4046413e-02   6.8906003e-02  -1.0938867e-01  -6.0644941e-02   7.0516681e-02   5.7107732e-02  -9.8755318e-02   4.3887489e-03   1.8295337e-02   2.1325442e-02   1.0354271e-02   6.3079397e-03  -2.9687381e-02   4.5562909e-02  -4.8141316e-03   2.8192488e-02   7.3207378e-02  -1.7049599e-01   5.6449515e-02   2.9366289e-02  -1.4933626e-01   1.1108507e-01  -2.5278449e-02  -3.2607382e-02   6.3809544e-02   8.8586711e-03  -1.8824876e-01  -2.2245768e-02  -5.8307008e-03   1.1676949e-01  -2.2800771e-02   1.4219613e-04  -8.4975293e-02  -1.1436016e-02  -9.9584640e-03  -4.4041757e-02   1.1866330e-02   9.8284084e-02   3.4495637e-02   8.7166570e-03  -2.7305185e-02  -3.0481346e-02  -2.4237342e-02  -4.9345790e-02   6.9783816e-02  -6.3403563e-02   5.0241749e-02   9.1606213e-03   1.4160561e-02   2.7918007e-02   6.5334534e-02  -6.2869048e-02  -7.8782919e-02  -2.8363004e-03   6.0929769e-02   8.1584625e-02   2.6636582e-02   3.6336664e-02   1.0323859e-02   9.4105405e-03   3.4219864e-02  -7.3160047e-02  -6.2357343e-02   5.0246655e-02  -7.5042151e-02   1.5707893e-03   8.6725966e-02  -5.2777934e-02  -7.3726083e-02   2.1263815e-03  -5.7978509e-02  -1.2571491e-01   9.8520825e-03  -5.4681670e-03   1.8955614e-02   5.9567258e-02  -1.2029208e-01   9.6504238e-03   6.9303986e-02   6.7054862e-02   1.4771859e-01   5.0895558e-02  -2.6927691e-02  -2.2678001e-02   3.4371247e-02   4.0573297e-02   4.8585420e-02  -4.9686431e-02  -1.0434809e-02   1.5327483e-02  -5.2635873e-03  -2.7758172e-02   2.1172680e-02  -5.0553325e-02   1.0730104e-01   3.0531371e-02  -9.5201862e-02   1.8717999e-02   1.8117414e-02  -8.1130961e-02  -5.6314296e-02  -2.7743813e-02  -5.6597981e-02   1.3410598e-02  -7.6194723e-02  -1.1357057e-01   8.2791686e-02   2.2940193e-02   3.4386967e-02  -9.3003801e-02   8.8016959e-03   7.3484684e-02  -9.4695721e-02   3.3890805e-02   9.5350886e-02  -3.1198610e-04  -2.1598970e-02  -2.7205927e-02  -1.7444844e-02  -7.7551649e-03  -3.3497489e-02  -6.1574181e-02   2.2814963e-02  -5.3052072e-02   5.0702823e-02   2.2255183e-03   1.4551900e-02  -3.2652015e-02   5.0316780e-02   4.4965111e-02  -1.6290415e-02   6.6607086e-02  -1.0072802e-01  -4.8121942e-02   3.9082333e-02  -8.3627600e-03   1.3714086e-01  -8.8249724e-02  -6.5079039e-02   9.2944822e-02  -3.8133577e-02   1.9809191e-01   2.5442601e-02   5.5746607e-02  -4.4911010e-02  -3.6886234e-02   1.7484766e-02   3.0425158e-03  -5.5249696e-02   3.1971894e-02  -1.2505952e-02   3.7700996e-02   1.8131841e-02  -2.1719293e-02   8.0634090e-02   1.6023073e-01  -6.2868529e-02   7.6331922e-03  -1.0112686e-01  -4.2267629e-02   4.6474398e-02   5.8613034e-02  -1.3871799e-02  -6.7546934e-03   6.4242619e-03   1.6197297e-02   2.6419979e-02   4.4034129e-03   4.2681924e-02   2.3134818e-05   5.1212153e-03  -2.2351582e-02  -1.3516377e-02  -4.8434938e-02  -8.1912118e-02  -1.9968889e-02   3.2628892e-02  -6.2560465e-02  -2.9794390e-02  -8.5393700e-02  -1.1616810e-01  -1.8559397e-02  -6.3991142e-02  -6.6558029e-02  -2.3968405e-03   4.8093204e-03   2.8382023e-02   2.5318777e-02   6.6085297e-02  -1.2212358e-02   6.4306255e-03  -9.4563488e-02   4.3410952e-02  -5.0250853e-02   4.5823899e-02  -2.3434123e-02  -3.5082616e-03  -3.2292099e-02  -4.2675421e-02   1.4617771e-02   1.4172161e-02  -7.0550275e-02  -1.7495767e-02   1.4064406e-02   1.4404831e-01   1.4248305e-01  -3.6869199e-02  -2.6613154e-02   8.7243568e-02   7.8562542e-02  -1.2293644e-01  -5.5461086e-02   5.2306112e-03   8.4749926e-02  -3.8398578e-02  -3.7462337e-02  -6.5316461e-02  -4.9389129e-02   2.5133320e-02   9.0109579e-02   6.1630311e-03   9.0788330e-03   4.3884302e-02  -1.9735437e-02  -2.5096776e-02  -1.6386988e-01   4.7696348e-02  -4.6632183e-02  -3.8690267e-02   1.3435597e-02  -4.8917623e-02   1.5261601e-01  -6.6003526e-02  -4.1418289e-02  -7.9440530e-02   1.1569635e-01  -7.1131380e-02  -8.0329173e-02   1.9414606e-02  -2.1585858e-02  -1.6575216e-02   7.2124537e-02  -8.1126629e-02  -1.2224023e-02   3.4113450e-02   6.2750936e-02   5.6196465e-02   5.7052099e-02   1.5556314e-01  -4.4048939e-03  -4.0165235e-02   5.1390948e-02
  -3.0316470e-03  -1.1155733e-02  -8.6608633e-02  -2.7963619e-02   6.8263274e-02   2.9645122e-02   9.9143645e-02   2.5014791e-02  -3.8057432e-02   2.8554513e-02  -1.1938274e-02  -3.4707706e-02  -1.3670354e-02   1.9040740e-02  -3.1288735e-02   6.3337255e-03  -1.1686607e-02  -1.7352887e-02   2.0522072e-02  -4.3611444e-02  -1.2220941e-01  -4.1903392e-02  -1.6389048e-01   2.2627866e-02  -7.6582968e-02   2.9697458e-02  -3.6812917e-02   1.4189914e-03   5.1382231e-02  -6.4672327e-04   3.6317476e-02   2.9657622e-02   2.2702351e-02   2.8621468e-02   8.0980882e-02   1.1751564e-02  -4.9249527e-02   1.7007249e-03  -6.9466018e-02   1.0526803e-02  -9.2772180e-02   4.0246635e-02  -2.8685465e-02   1.7462741e-02   1.6311039e-02   1.2494242e-02   8.8730128e-02  -1.1823313e-01  -3.0836099e-02   7.1261957e-02  -3.8030846e-02  -6.1743729e-02  -2.6705436e-02   7.5475311e-02  -2.5982617e-02   3.3646977e-02   9.3345437e-02  -9.3165381e-02   2.7141918e-02   1.1970882e-01   3.2333503e-03   5.0935474e-02   2.7024470e-02   1.1318823e-02   3.3004242e-02   8.4047336e-02  -1.4674534e-01   3.9997314e-03  -5.7678805e-02   6.8638406e-02   2.4550429e-02  -7.1429708e-02  -9.4420182e-02  -1.5260956e-01  -1.2153255e-01  -1.0804420e-01  -1.1103118e-01  -6.5837405e-02   1.8609542e-01  -1.3588749e-02   7.8036071e-03   1.7548919e-02   4.9754868e-03  -9.4650553e-02   9.2339915e-02   6.1281461e-02  -4.7407739e-04  -4.9647773e-02  -2.9911247e-02  -2.8021648e-02   4.3847631e-03  -1.9136632e-02   1.6358519e-02   1.5931539e-01   6.5274616e-02   3.9971392e-03  -1.5692069e-02   9.5702673e-02  -1.2199141e-01   4.3574993e-02   5.5030808e-02   5.3015323e-03   1.3966184e-01   9.8920530e-03   2.3534465e-02   9.7289962e-02  -1.0579434e-01  -8.8288563e-02  -6.8901482e-03   1.4200404e-02   3.5756134e-02  -4.9481253e-04  -1.2068560e-01   2.6469136e-02  -5.5460526e-02   5.7041067e-02   2.0181823e-02   6.6726491e-02   4.9451796e-02  -9.2359343e-02   9.1289434e-04  -1.3200155e-02  -1.8795291e-03  -6.5317286e-02   3.5885211e-04   8.5904919e-02   1.5409463e-01  -2.8261390e-02   8.5420820e-02   5.5802875e-02  -1.0025143e-01  -6.2469708e-02   4.4480563e-02   1.1415813e-02   4.9184710e-02  -9.5784524e-03   1.9401589e-02  -3.1653215e-02  -1.5125463e-02   1.3855993e-02  -6.3233665e-02  -6.3752740e-03   4.6251661e-02   2.8203757e-02  -4.8672182e-02  -5.4511814e-02  -3.3293537e-02  -1.0876033e-01   2.5091248e-02   1.1263040e-01  -3.9968574e-02   6.8096497e-02   6.3672956e-02  -1.3834097e-02   1.5626256e-02  -6.6518750e-02  -3.6932416e-02  -5.5603094e-02  -1.1655970e-03  -1.3788452e-01  -2.0725087e-02  -3.1001448e-02  -8.5896182e-03   4.0280868e-03   1.2818950e-01   1.0068272e-01   5.3232699e-02   3.0232588e-02  -4.5514945e-03  -4.4865688e-03  -1.2782664e-01  -3.2944790e-02   9.5955921e-02   4.8249101e-02   1.2822634e-01  -4.5489508e-02  -3.7030441e-02   2.4998954e-02   2.2972099e-02  -3.3046977e-02   1.1888371e-01  -5.7995658e-02  -5.3869674e-02   8.9466792e-02  -3.2729217e-02   3.4639959e-02  -3.3093601e-02  -1.9638305e-03   6.9652589e-02   7.9522407e-03   4.7025839e-02   7.3868982e-02   6.6437970e-02   1.0718244e-02  -2.5987886e-02  -1.2289008e-03   1.2878249e-01   3.5157774e-03  -1.6254554e-02  -2.9810976e-02  -5.5762534e-02   4.6208134e-02   1.9195626e-02  -7.2942871e-02  -6.6388429e-02  -1.2925395e-02   5.6339583e-03  -9.3322193e-03  -8.8087449e-02  -8.8947632e-02   1.7780252e-01   6.8341803e-02   4.5350975e-02   4.2922343e-02   1.0019676e-01   3.8818771e-02  -2.3912462e-02   5.5185017e-02   5.2166866e-02   1.6653632e-02   6.0102378e-02  -2.7200727e-02  -6.4408449e-02   9.9653930e-03  -6.2647299e-02   2.2978116e-02  -9.3352399e-02   4.5673007e-02  -5.4650444e-02  -3.8642752e-02   8.4821082e-02  -8.2777735e-02   3.9873038e-04   6.1856087e-02  -4.2083227e-02   1.6880624e-02  -7.5158122e-02   8.6236122e-03  -5.1533382e-02   4.3071423e-02   3.0693091e-03   7.5573391e-03  -1.8553102e-02  -2.9921687e-02   1.0957066e-01  -3.4467100e-02  -9.2357285e-02   2.7378258e-02   7.9016159e-03  -2.2184677e-02  -2.4748898e-02   9.2695651e-03   2.2369598e-02  -2.0384004e-02  -9.6204281e-02  -4.2401543e-02
  -1.7320061e-02   5.7476678e-02   6.1294619e-02   3.5427581e-02   4.2757057e-02  -1.8204918e-02  -1.5647035e-02   7.0672026e-02  -7.1376839e-02  -2.7121157e-02  -3.6850459e-02   1.7608854e-02   1.5378530e-02   5.9168109e-02   1.1370251e-01   3.6924712e-02   2.2520097e-03  -7.6891727e-02  -1.0284002e-01   3.4614413e-02  -1.1070118e-01   1.2332304e-02   1.7181772e-02   7.8813069e-03  -6.8325861e-02  -8.4420270e-02  -4.9109189e-02   4.6136568e-02   1.0258775e-01   6.5304599e-02   3.9667333e-02  -4.1855949e-02   7.9284707e-02   1.0242963e-01  -1.2535867e-01   4.9727702e-02   3.1141590e-02   1.0578008e-02  -9.3360019e-02  -3.6842960e-02  -1.6296782e-02   2.8276266e-02  -3.1323584e-02  -1.6482840e-02  -2.6588282e-02   4.6714013e-02   4.4023445e-02   6.7321781e-02   2.1858800e-01   9.7476408e-03   4.1031623e-02   4.5131376e-02  -4.2290170e-02   5.2382085e-02   2.3474967e-02  -2.0421343e-02   2.5583976e-03   4.8720550e-03   1.3404384e-01  -2.0908488e-03  -4.5688598e-02   6.3237087e-02  -6.4349772e-02  -1.0540564e-01   8.7628760e-02   6.0215674e-02   3.0016257e-02   1.0067236e-01   2.9252583e-02   3.4721404e-02   5.0065058e-02  -1.1666867e-01  -3.1872152e-02  -1.0417653e-02  -4.7707098e-02   9.0745454e-02   9.8070502e-02   4.4517179e-02  -2.8496254e-02   9.7745851e-02   7.2813476e-02  -2.8626441e-02   1.1460328e-02  -3.3076906e-03   2.3141698e-03   5.7797351e-03  -4.0074237e-02   2.1654265e-02  -3.2988264e-02   1.9428304e-02   1.2224650e-02   5.6021155e-02   5.1857870e-03   8.2432545e-02  -8.1027280e-03  -2.7102354e-02  -8.5094438e-02   4.4002890e-03   3.4676484e-03  -1.7122123e-01   3.3755231e-02  -3.6479325e-02  -5.1715293e-02   9.4263439e-02   1.3725102e-01  -1.3957855e-02   5.6955024e-02   1.5159453e-01   1.0600188e-02   7.4176092e-02   6.7447229e-02   3.1520544e-02  -7.3548599e-02   5.0410896e-02   1.0072530e-02  -6.2109264e-02  -3.1087475e-03  -3.9580839e-02  -8.9796650e-03  -1.2312047e-01  -1.1743359e-01   9.8032880e-02   5.5339890e-02  -8.5647139e-02  -1.3690218e-01  -1.0871466e-01  -6.6818724e-03   8.9348719e-03  -1.0326305e-01  -9.7058929e-02   4.1744168e-02  -1.1838450e-02  -8.0241479e-02   4.6963091e-02  -1.5151018e-02  -2.3539620e-02  -2.9514809e-02  -4.3862346e-02   2.3309866e-02   5.1285363e-02  -7.7350426e-02   1.3218120e-02  -3.1453818e-02   3.1463031e-02  -1.9772506e-02  -2.1193416e-02   5.1675086e-02   6.7279790e-02  -7.2481309e-02  -1.0196978e-02  -8.9236402e-02   1.1697199e-01  -1.3487659e-02  -3.9076269e-02   6.8861466e-02  -3.9470157e-02  -5.3385714e-02  -9.2278304e-03  -3.8074407e-02  -2.5620003e-02  -2.0457670e-02   6.2063014e-03  -8.3284899e-02   1.1298108e-01   5.6284663e-03   3.0839633e-02  -7.2090962e-03   3.0997903e-02   9.9817276e-02   5.6634646e-02   3.3318720e-02  -1.3892021e-01  -1.5401489e-02   3.3941177e-02   4.0259532e-03   7.5905329e-02  -1.2429453e-01  -1.3360969e-01  -3.2237417e-02   2.5262855e-02  -5.4855021e-02   1.1366939e-01  -4.9938129e-02  -2.4630028e-02   1.2125229e-02   7.1575303e-02   5.1648242e-02  -1.0280771e-01  -9.4799291e-03   3.0377229e-02   1.6924437e-02  -2.2775481e-02   4.6315552e-02   6.9845530e-02  -9.2330841e-03   2.2120286e-02  -4.5994027e-02   5.4586397e-02   1.1232635e-01   6.8041793e-02  -8.9513091e-02  -7.2699298e-02  -6.8080392e-02  -1.6658444e-02  -2.3912792e-02   3.8303654e-02  -2.6257429e-02  -3.2301327e-02  -2.5095162e-02   4.4580272e-02   3.2047377e-02  -1.2275366e-01   7.5815981e-02   2.3387348e-03   7.2241713e-02  -6.5334230e-02  -1.4284031e-01  -1.3082313e-02   1.3477285e-01   2.0710661e-02  -5.3747639e-03  -5.0058928e-02   2.9545160e-02  -5.1153730e-02   1.2058355e-01  -3.4423926e-02  -5.0600456e-02  -5.4884006e-04  -2.2273364e-02  -7.2076892e-02  -4.7594894e-03   2.4473564e-02   1.1911340e-01   1.0888247e-02  -8.1608436e-03   3.2288814e-02  -1.0891944e-01   5.1707571e-02   1.0346544e-02  -8.7606927e-02  -2.7846035e-02   2.1986851e-02   3.3405786e-02   7.1048929e-03  -3.0652896e-02   9.7486639e-03  -3.9242483e-02  -4.3696060e-02   3.3296318e-02  -9.2701566e-02  -1.4593408e-02   1.1652852e-02  -2.6924430e-03  -4.9246146e-02  -2.4099929e-02  -1.2661534e-03
   4.5666258e-02   3.7217728e-02   4.8899216e-02  -1.4138098e-02   1.3583568e-01   3.4416616e-02  -3.0263157e-02  -4.9888279e-02   1.4125010e-01  -6.8781027e-03   4.5442207e-02   6.9203464e-02  -1.2296458e-02   8.5071229e-02  -6.9535301e-02  -6.8671911e-02  -8.6420962e-02  -8.0967379e-03   3.8096314e-02  -8.8408316e-02   4.2345629e-02  -3.1026534e-02   2.9245870e-02  -1.6940666e-01  -7.5174802e-02  -4.2964712e-03   8.3804382e-02   9.3555792e-02  -4.5731623e-02  -1.5285854e-01  -4.2866723e-02   9.2942132e-02  -5.6241250e-02   4.8368053e-02   2.0782431e-02   2.0003895e-02   9.4341019e-02   7.7733837e-02   4.1203938e-02  -1.3477464e-02   1.9686551e-02  -4.9085799e-02   4.1582431e-02   9.9520342e-03  -3.6274521e-02  -6.9503349e-02  -8.2774028e-02   4.6756651e-04   3.4350428e-02   3.2336766e-02   8.1522259e-03  -5.8298953e-04   3.3068109e-02   2.7210153e-02   2.5091032e-02   7.2757728e-02  -1.4019653e-01   2.3096409e-02  -2.2618549e-02  -1.2855069e-01  -7.0042567e-02  -3.1978816e-02   5.5557662e-02  -7.9983201e-02   4.4989452e-02   6.2173912e-02   3.1412854e-02   4.6342832e-02  -7.5284852e-03  -9.7247003e-03  -4.2730203e-02  -1.1874655e-02   4.3511336e-02   7.3560056e-02  -3.1220513e-02   5.3776383e-02  -3.0886723e-02   4.4268999e-02   6.5335108e-02   6.7835665e-02   1.0208998e-02   2.3770741e-02   6.5316469e-02   5.9690433e-02   2.4934430e-02   1.9983644e-02   1.2782122e-01   7.0478115e-02   1.0238428e-01   9.5609417e-02  -1.2896829e-01  -4.6920429e-02  -1.4696008e-01  -1.1074628e-02   1.1124740e-01  -3.0790080e-02  -1.2450026e-01   3.0970234e-02  -5.2907493e-03  -2.7126196e-02  -6.5248700e-02   2.1749203e-02   3.2948738e-02   7.9353170e-02   8.3544268e-03   6.8105975e-02   9.8477545e-03  -1.0083249e-01   1.0243050e-02  -1.2289574e-01  -7.6272857e-03   2.8987754e-02  -4.5957956e-03  -8.3323815e-02   1.0289607e-01  -3.0521899e-02  -4.2615270e-02   3.9963628e-02   2.3542312e-02  -1.1976092e-01   8.8611900e-02   3.2867691e-02   3.0365167e-02   6.3314755e-02  -8.5956492e-03   9.1692734e-02   1.3952432e-01  -3.6267335e-02  -3.4688290e-02   4.0010810e-02   9.6914313e-02   9.4579566e-02   2.2025794e-03  -5.7191058e-03   2.3920391e-02  -7.0715681e-02   2.1019119e-02  -7.2677674e-03   6.0543568e-02   3.3369562e-02  -6.5267986e-02   9.0048928e-02  -9.0565735e-02   4.3704924e-02  -1.6578934e-02   2.2148670e-02  -9.0377025e-02   2.1659882e-02   3.8446188e-02  -4.5874576e-02   2.5958640e-02   1.0819399e-02  -2.6276459e-02  -5.0691105e-02   6.6733434e-02   8.3941923e-02   1.5466977e-02   2.5324332e-02  -1.4852240e-01   6.8905223e-02   4.4724251e-02   7.1121034e-02   5.7968052e-03   2.9961131e-02   4.0587347e-02   4.4866139e-02  -1.5292810e-03   8.9857013e-03  -5.9509703e-04  -1.8520354e-03   1.6718530e-02  -5.2810973e-02  -6.9180405e-02   1.0107991e-01   1.9364435e-02  -4.1016605e-02  -8.1688648e-02  -2.7252438e-02   7.7635044e-03   3.7516167e-02  -6.1530560e-03  -1.1158607e-01  -1.0702574e-01   5.2995072e-02   2.1446356e-02  -4.7968102e-02  -9.3698200e-04   1.0356180e-02  -7.0824613e-03  -8.7603793e-02  -3.7018489e-02  -5.1157863e-02  -1.3941919e-01   3.3185967e-02  -6.4558307e-02   4.1438804e-02   4.9201107e-02  -3.6709410e-02  -1.3751984e-02   6.9198060e-03   1.6857877e-02   3.4781515e-02   8.1641621e-02  -1.8392231e-02  -1.7063215e-01  -1.3739323e-01  -3.0952974e-02  -1.8673065e-02  -5.1405905e-02  -2.1129721e-02   5.7516301e-02   6.3215182e-02   1.0624454e-01  -1.0947868e-01  -4.7410537e-03  -6.8569737e-02   5.7621229e-02  -5.2733850e-02   4.2319001e-02  -4.7290970e-02  -4.3143518e-02  -3.1284072e-02   4.8586936e-03  -1.2014306e-01   8.4794597e-02   1.3253451e-02  -3.1079550e-02  -3.6391146e-02  -8.2361667e-03  -7.8909966e-03  -9.2186365e-02  -2.5153509e-02  -2.5982168e-02   1.0983147e-01  -3.6623775e-02  -3.3215624e-03  -7.0301209e-02   3.1752686e-02  -1.1465957e-02   1.8502642e-02   3.2122564e-02   2.9645043e-02   6.0396824e-02   7.8290988e-02   3.1043240e-02  -4.0165375e-02  -6.2905625e-02  -3.3879665e-03  -4.9544554e-02  -1.2832842e-02  -6.3324388e-02  -1.3898366e-01  -4.3008725e-02   6.5971963e-02   3.6455633e-02   1.9751019e-02
   1.5106035e-02   1.1061516e-01  -1.5053420e-02  -9.0325355e-02  -8.0106178e-02  -8.4581977e-02  -4.6274702e-02   9.0373763e-02  -3.0874333e-02  -5.6339196e-02  -8.3622375e-02  -4.4622904e-02   3.8864045e-02   8.3348673e-03   2.3094283e-02  -5.0857895e-02   1.7128469e-02   8.4452605e-03  -9.2604537e-02   8.1751764e-02   7.6985567e-02   1.8176573e-02   6.4547263e-02   1.2128579e-01  -4.2811494e-02  -8.9442474e-02  -1.4879537e-02   4.9957985e-03  -9.5286767e-03  -3.4695003e-02   4.2969000e-02   9.4361110e-03   2.4097106e-02   5.6082198e-02   8.0169157e-02  -4.2673071e-02  -6.3767039e-02  -4.3705449e-02   4.5843853e-02   6.1485152e-02   2.0528877e-02   4.7377974e-02   9.9863820e-02  -2.0689536e-02  -5.9519155e-03   3.7217273e-02  -8.6238690e-02   2.8326419e-02  -9.8031319e-03   1.3520882e-01  -1.3067763e-02  -1.2807250e-02   4.0094860e-02  -2.8634847e-02   1.9268879e-02   3.6807835e-02  -7.7282707e-02   8.8084071e-02  -4.0319531e-02  -5.1852272e-02  -6.9184082e-03   5.3716014e-02   7.7284949e-02   4.6607859e-02   4.3128894e-02   2.3432779e-02  -7.4152783e-02   6.2928979e-02   4.4327320e-02  -3.7663404e-02   2.1708237e-02  -5.4737779e-02   5.6727961e-02   7.5564656e-02  -1.2295631e-02  -1.7887375e-02   1.6682718e-01  -4.0264168e-02  -1.0367877e-01  -1.0328785e-02   1.4986545e-01   8.2744006e-02   4.9378143e-02  -6.8267180e-02   4.7162855e-02   1.2006720e-01   5.1151278e-02  -3.1972907e-02  -2.2593720e-02   1.5796227e-03  -4.9402828e-02  -4.6040128e-02   3.4224545e-02   6.6652242e-02  -1.0749403e-01  -5.8398180e-02   9.1095950e-02   1.6887162e-02  -5.7923384e-02  -2.2419088e-02   3.4974297e-02   2.2862591e-02  -7.4613856e-02   5.0295307e-02  -8.1532152e-02   7.6470226e-02  -2.0452132e-02  -1.2392053e-01  -5.0485569e-02   6.0908754e-02  -1.2710364e-01  -1.0837651e-02  -5.1121953e-02  -1.2024448e-02  -9.9134501e-02  -1.4450869e-02   3.7379966e-02   5.7085518e-02  -6.0203064e-02  -2.5434567e-03   7.0944064e-04   6.3927940e-02   2.3861246e-02   6.9985177e-02  -4.3838834e-02   9.1071027e-02   1.6919026e-02  -1.6943235e-02   1.3081271e-01   3.2086781e-02  -1.2348939e-02  -2.3635320e-02  -4.7144076e-02  -8.7488066e-02  -6.2593821e-02  -1.9907449e-02   1.4180593e-01  -6.7809033e-02   6.5825095e-03  -3.6118847e-02  -1.6340528e-02  -6.6312135e-02  -1.0810682e-01  -5.0302572e-02   1.8789425e-02   4.3912805e-02   4.0488356e-02   4.0011954e-02   1.0378972e-01   5.3850360e-02  -1.1893998e-01  -5.6018890e-02  -8.6251576e-02  -1.1030555e-01   2.9632183e-02  -7.4812397e-02  -8.2913306e-02  -4.7795269e-02  -1.0868109e-02  -8.1800262e-03  -8.5946626e-02  -1.4101729e-02   3.2098424e-02   3.9738623e-02   6.6456325e-03  -5.1263261e-02  -8.0267814e-02   2.8963162e-02  -1.2723453e-01  -8.7575116e-02  -2.1838329e-02  -8.2577504e-02   1.2601090e-02   1.0851769e-02  -2.0438303e-02   4.4308529e-02   2.5351722e-02  -3.8005405e-02   1.2785120e-02  -3.6546319e-02  -7.8443336e-03   6.2002877e-02  -1.8729115e-01  -6.6048133e-02   2.2924653e-02   1.7738921e-02  -1.2012441e-01   3.9504939e-02   1.1706709e-01  -5.2186665e-02   5.1081629e-03  -3.4550410e-02  -6.8746886e-02  -2.8854182e-02   5.0710385e-02   1.3569262e-02  -8.5433545e-03   2.8739988e-02   2.2419856e-02  -9.0693654e-02  -8.4956294e-02  -1.5053589e-04  -6.0160092e-02   5.7431134e-02  -2.5074638e-02   4.4703527e-02   3.4116315e-02   8.6331943e-02  -1.0932090e-02  -1.1178752e-02   3.1063099e-02  -2.9169033e-02  -1.0951289e-02  -3.6047203e-02  -6.0599632e-02  -1.6248947e-02  -3.9523356e-02   9.9011205e-02   4.2051039e-02  -4.8425686e-02  -8.6992213e-02  -8.6213796e-02  -3.1390164e-02  -6.0084692e-02  -1.7327886e-03  -1.3615027e-02   9.0395764e-02   1.2948566e-01  -5.3808482e-02   1.8578515e-02   1.2537065e-01   4.3559808e-02   3.2090545e-02   8.1223209e-02  -1.2417296e-02   8.7287648e-02   1.1067445e-01  -6.1427356e-02  -7.8319600e-02   5.8223646e-03   9.8204231e-02  -4.7529078e-02   8.3007842e-04   6.8661318e-03   2.3427517e-03  -3.0479421e-02  -1.1614550e-02   8.0874773e-02  -5.5922719e-02   1.9947371e-02   1.2275812e-01  -3.9691550e-02   3.4913971e-02   8.0246505e-02   1.3211851e-01   9.2391087e-03
   6.2499090e-02   6.4171599e-02   5.3192454e-02   4.6270581e-02   6.2404535e-02  -1.2957370e-02   1.1409403e-01   2.5761753e-02   1.6403848e-02  -7.7206011e-03   2.1296261e-02  -7.4875832e-02   1.5912248e-03   6.8251731e-02  -3.4042321e-02   2.2472036e-02  -6.5929934e-02  -2.3016750e-02   1.5139223e-01   3.0891762e-02  -8.6628356e-02  -2.8305774e-02   4.7521666e-02   3.1122126e-02  -1.0350114e-01  -1.3943460e-01  -3.8988258e-02  -5.0260266e-02  -1.9044778e-02   1.8013748e-03  -9.2827038e-03  -1.5162774e-01  -1.1838841e-02  -2.7672668e-02   5.5197530e-02   8.1323597e-04   3.0844617e-02  -2.6818568e-02   8.2911029e-02  -2.0709350e-02   4.7124356e-02  -2.8012556e-02   4.8898318e-02  -5.1697694e-02  -8.9392595e-02   1.5078823e-02  -3.1480889e-02  -1.0628214e-01   3.2775532e-02   6.9585262e-02   3.8635958e-02  -3.0593824e-02  -8.0133656e-02   4.1213327e-02  -3.7272487e-02  -2.0800999e-02  -3.3387711e-02  -5.3192638e-02   2.0036219e-02   1.2404898e-02   1.2113259e-01  -3.6921812e-02  -5.5972592e-02   1.2340113e-01   8.1399441e-05  -9.4895595e-02  -1.0589517e-01  -1.1859592e-02  -6.5152907e-02  -4.5283037e-04   4.9301594e-02   6.4192766e-02  -5.8472781e-03  -8.7014775e-02  -7.3211204e-03   4.0934337e-03  -3.4199525e-02  -4.6027864e-02  -1.6904445e-01   4.0367011e-02   2.3114652e-02  -1.1480057e-01   5.6944860e-02   5.1064711e-02   6.6303401e-02  -2.7191386e-02  -4.3136848e-02   4.1205372e-02  -2.3370147e-02  -1.9306862e-03  -2.9586675e-02   2.4071595e-02   3.9154427e-02   9.0639278e-02  -1.4372864e-01   1.7857270e-02  -3.7859541e-03  -4.7647644e-02  -7.5900880e-02  -2.7780769e-02  -2.9613111e-02   4.0105991e-02  -5.2720884e-02  -1.4518839e-02   5.0312279e-02   1.3405887e-02   8.3590572e-02  -9.8947492e-03   3.1857312e-02   6.6271272e-02   7.9742895e-02  -1.5419680e-02   5.8648161e-02  -1.3465308e-02  -6.6865052e-02  -2.0240793e-02  -1.2678409e-01   1.6476268e-02  -7.9051341e-03  -1.3262371e-02   1.5281120e-01   2.3949561e-02   1.1984468e-01  -3.3390259e-02  -1.2797316e-02   4.6048148e-02   1.5828822e-02   6.5071060e-02   6.0017167e-03   1.6043691e-02   1.0363468e-01  -3.6189538e-02   3.6239946e-02  -1.1230514e-02  -2.1396278e-02  -1.8278082e-02  -6.9504981e-02   1.1799299e-01   2.2057579e-02   9.9852915e-02  -9.7964726e-02   9.4719599e-02   4.6053198e-02   3.7182752e-02  -2.7427518e-02  -7.2941264e-02  -2.5944175e-02   1.0030306e-02   1.1878900e-01  -1.7153087e-01  -3.7119824e-03  -6.7064525e-03  -8.4920474e-02  -2.4604401e-02   4.5705663e-02   9.8437687e-02  -1.3597887e-02  -6.3767977e-02   8.8808291e-03  -1.4357645e-02  -8.0036702e-02  -4.8755586e-03  -6.9463015e-02   1.0156444e-02  -6.6652525e-02  -3.1994379e-02  -1.6732800e-01   4.0946048e-02   8.5315335e-02  -1.0030119e-01  -9.6498049e-03   1.4130163e-02  -1.3535385e-02   4.7149704e-02  -6.1162110e-02  -6.0768255e-02   2.0148416e-04   2.7601431e-02   1.9924574e-02  -7.6461959e-02   3.5220828e-02   7.4052950e-03   5.6795109e-02  -1.7135799e-02   5.7415170e-02  -2.1129211e-02  -1.2351400e-01  -6.0024224e-02   4.4062238e-03   1.4390286e-01   9.3755703e-02   1.2465729e-01  -4.4757413e-02  -1.5925164e-02   8.0122877e-02   2.6183774e-02   6.8240182e-02   3.7995204e-02  -5.5544290e-02   3.6088320e-02   1.2158060e-01   5.4755426e-02  -8.1450753e-03  -2.0613347e-03   4.1505694e-02  -2.4714491e-02   4.1750976e-03   1.0886611e-01   1.0363275e-02  -3.2366877e-03   1.6156182e-02   7.8816735e-02   9.5770126e-02   4.5971815e-02  -7.4002285e-03  -2.3909072e-02  -3.7185441e-04   6.1548477e-03  -1.0321424e-01   6.2243224e-02   6.8798158e-02   5.3082143e-02  -7.7111523e-02  -1.3552283e-01  -4.6411873e-02   8.4440731e-03   6.0693347e-02  -1.8659588e-02  -2.5583932e-02  -7.0656638e-03   9.9431813e-03   2.8722627e-02   8.8394821e-02   1.8413192e-03   6.7002294e-02   3.3679849e-02  -1.4269808e-01   2.4312548e-02   7.5314892e-02   4.6319725e-02  -9.7710492e-02   4.2864147e-03   1.6811267e-03  -2.0502895e-03  -2.4474746e-02  -8.5723148e-02   1.1659624e-01  -3.5194003e-02  -1.5151615e-01  -1.7500940e-02   3.3663486e-02  -1.0343347e-02  -2.9147053e-02  -8.5148487e-03   2.3722013e-02   1.0966933e-02
  -1.5575788e-01   8.1605182e-02  -5.3140424e-02   2.3846965e-02  -1.0800063e-02   4.6784731e-02  -7.7250630e-03   1.7113606e-02   6.9092704e-02   3.6551468e-02  -1.8165899e-02  -3.9077329e-02   6.6413633e-02  -6.5244526e-03  -6.3208330e-02  -1.1805887e-01   8.3207017e-02  -3.4338753e-02  -2.6376762e-02   2.1149282e-02  -3.6229356e-02   2.2958030e-02  -3.9652769e-02   2.0487991e-02  -2.2519838e-02  -2.3397209e-02   8.4795318e-02  -2.0894875e-02   1.3755738e-01  -6.0091457e-02  -1.1710053e-01   1.0077828e-02   2.8153743e-02   4.8811569e-02  -2.7268520e-02   6.5275025e-02   9.5226106e-02   4.9462362e-02   6.0760525e-02   2.7233555e-03  -1.1946956e-01   2.2625844e-02  -8.9448607e-03  -1.5969358e-02   3.1310045e-02   1.8242925e-02   3.4928470e-02  -1.5179578e-01   2.4968611e-02  -8.3292988e-02  -3.5391157e-02  -1.7035404e-03   7.2696430e-02  -2.4099286e-02   9.4501777e-03  -1.1279710e-01  -7.9623480e-02   1.1478519e-01   6.4158398e-02  -1.8037806e-02   2.4800321e-02  -3.2794425e-02  -3.5758173e-02   5.6429492e-02   2.6014345e-02  -3.7387828e-02  -1.1059481e-02   9.0872733e-03   8.7842251e-02   2.3150035e-02  -3.2158596e-02   5.6904655e-02  -1.0681364e-02   7.2845761e-02   8.0047314e-02  -6.8542272e-02  -2.4931330e-02   1.9861532e-02  -1.2130857e-02  -9.7151428e-02  -1.6768605e-03  -7.2772455e-02  -8.5229343e-02  -1.4182697e-02   1.0033053e-01   1.9784366e-02   2.2988101e-02   4.5932161e-02  -4.6524819e-02  -6.9413443e-02  -7.2189001e-02  -2.2277002e-02  -5.2523899e-02   5.1974570e-02   3.9637227e-02   8.8596472e-02  -3.1511643e-02  -2.8897358e-02  -7.8347399e-03   1.9808294e-02   6.7421494e-02  -1.6324823e-03   1.2033611e-01  -3.2320953e-02   3.5460406e-02  -8.2703961e-02   5.6395240e-02   4.9162553e-03  -1.1251337e-01  -7.9484669e-02  -1.4698211e-02   8.2211677e-04  -3.9849363e-02  -6.0469352e-02  -4.2930063e-02   1.6103699e-02   1.0892746e-01  -3.2687107e-02   4.2457049e-02   4.2629876e-02   7.4995231e-02  -3.7916139e-02  -5.6125621e-02  -1.0189108e-02  -8.2734884e-02  -3.3634223e-02   3.5375265e-02  -4.0213811e-02  -2.2384088e-02   1.1932804e-01  -3.2766250e-02   9.0090555e-02  -2.9015963e-02   8.8191659e-02  -2.4466469e-02   3.2373785e-02  -9.2969276e-02   6.4023575e-02   7.3848116e-02  -3.0237563e-04  -2.6664316e-02  -3.1749785e-02  -1.5334157e-01  -7.6117746e-02  -8.3052508e-02  -7.7556450e-03  -7.1063396e-04   1.2492793e-01  -6.7778605e-02  -4.8142722e-02  -8.1127274e-02  -4.5620746e-03  -1.0076027e-01   1.7108801e-02   7.8679446e-02  -4.0417300e-02  -5.3260647e-03   7.8112976e-02  -9.2293207e-02  -2.9187041e-02  -2.2959692e-02  -5.5595380e-02  -5.9906470e-02  -1.9478325e-02  -2.8445061e-02   2.0236019e-02   2.7228518e-02  -8.2173622e-02   4.7377274e-02   4.6286396e-02  -5.5875565e-02   8.5416426e-03  -1.0588638e-01   2.7451887e-02   6.3481817e-03   7.1735692e-02   1.4177894e-01  -8.3128574e-02   5.8104326e-02   7.6685209e-02  -1.0078718e-01   5.8393524e-02   6.6390868e-02  -7.0934832e-03  -1.1415215e-01  -1.9669400e-02   2.8367670e-02   4.9861437e-02   4.0080928e-02   2.4854046e-02   4.7281271e-02   8.4828500e-02  -1.3668626e-02   2.4651635e-02  -2.7711537e-02   1.9859623e-01  -3.0590880e-02  -1.5271978e-01  -5.7580104e-03  -5.3602809e-02  -6.4275404e-02   2.6267695e-02   3.6261661e-02   1.4600401e-03   4.6075928e-02  -4.2032224e-02   1.0635232e-01   1.0465509e-01   3.1242510e-02  -9.4698888e-02   3.8843641e-02   8.9232357e-02   5.2710699e-02   3.4424990e-02   6.8445735e-02   8.3481035e-03  -3.8723164e-02   8.0512849e-02   3.8707175e-02  -4.3223239e-02  -1.4606370e-02   1.2043193e-01   9.3631924e-03  -3.8514294e-02  -1.7505413e-01  -5.7919525e-02  -1.8076737e-02   9.1153085e-02   1.5683413e-02   2.5800574e-02  -7.9196380e-02   1.1084226e-01   9.9514327e-02  -3.0428310e-02  -2.5960063e-02   2.4697136e-02   4.7602970e-02   6.6395583e-02  -2.1992132e-02  -6.0635825e-02   5.0504472e-02  -2.1132263e-02  -6.2043855e-02  -5.7688043e-03  -3.1262341e-02  -7.4352042e-02  -1.6137362e-02   5.4333709e-04   4.4942196e-02   2.0840957e-02   4.8222151e-02   1.1416078e-01  -7.1976136e-02  -4.6150215e-02   1.0692018e-02  -4.9784041e-02
  -4.3857118e-02   3.5294489e-02  -1.0836862e-01  -4.1543592e-02  -7.3938683e-02  -3.5568724e-02  -3.6585306e-02  -1.7996491e-02  -1.1617081e-03  -2.0078353e-02  -1.1490380e-01   4.4711569e-03  -1.5361489e-02  -7.5401219e-02  -6.0545476e-02   2.1998596e-02   5.8687759e-02   7.0568940e-03   3.7262160e-02   1.5892009e-02   4.0510656e-02  -5.2819536e-02   7.0597089e-02   4.6973377e-02   3.3343881e-02   2.6516083e-02   3.2718625e-02  -3.0439169e-02   4.1665427e-03   5.5822335e-02   8.4982223e-02  -6.9812424e-02  -7.4945430e-02   9.8372097e-04   1.3575989e-01   1.4534972e-01  -4.0563928e-02   5.4886264e-03  -9.4835380e-02  -1.0491848e-01  -6.7819374e-02   9.5990354e-02   6.7780827e-03  -5.4832971e-02   8.9072285e-02   5.7129111e-02   2.2779427e-02   9.7341285e-03  -1.0317186e-01  -3.7958816e-02   1.1133704e-01   1.4092354e-02  -4.3832574e-02  -1.4818604e-02  -7.2140408e-02   2.3651383e-03  -4.5852790e-02  -5.1761653e-02   3.7507510e-02  -4.5873446e-02   2.0017177e-02  -9.6523113e-03  -9.8019677e-02   4.3241289e-02  -4.0473669e-02  -1.2884324e-02  -3.0603353e-02   1.6820502e-02   5.2347815e-02   1.3452661e-01  -3.4454080e-02   8.2025644e-02  -5.3560295e-02   2.0834710e-02  -1.0991506e-03  -8.9250653e-02   5.8974921e-02   6.2488736e-02   4.2717550e-02   4.6317360e-03   9.7781727e-03   7.6259963e-02  -2.9686230e-02   1.7681716e-02  -5.0487625e-02  -5.6036662e-03  -1.5052946e-02   5.7893539e-02  -7.9715681e-03   7.2767345e-02   5.6259779e-02  -1.5058157e-04   1.4853192e-02   1.2883767e-01   4.4186539e-02   4.0375480e-02   2.0150495e-02   8.4937414e-02  -1.2237767e-02  -2.9174424e-02  -2.8416960e-02  -3.7281960e-02  -6.9700251e-02  -2.5151326e-02   1.0947403e-02   4.0498791e-02   5.6068175e-02   8.1413345e-02   9.2876471e-02  -5.2742652e-02  -6.8631300e-02   6.2866953e-02  -4.9168075e-02  -4.2249758e-03   4.7771168e-02   1.0650344e-01   7.1795813e-02   1.3288826e-01  -5.3756423e-02  -5.3199567e-02  -1.5484976e-03  -5.8988469e-02   5.9224000e-02   7.9319213e-02   2.6098781e-02  -7.3333826e-02  -6.1273425e-03  -3.3650352e-03   4.4450304e-02  -9.4665211e-02  -5.8005307e-02   4.6816062e-02  -8.9715114e-02   7.7060597e-02  -4.7370836e-02   3.4204882e-03   4.1746646e-03  -4.3431223e-02   3.5999204e-03   2.0551999e-02   1.1342462e-01   9.2056326e-03   3.0043648e-02   1.1308756e-01  -1.6208942e-02   1.9027244e-02  -2.0968095e-02  -2.5016032e-02   6.1191123e-02   1.5812151e-01  -2.0871359e-02  -6.4101284e-02   1.1828883e-01   5.4577465e-02   6.0688287e-02   2.1597336e-02  -4.7157381e-02  -7.1389040e-02  -1.5084553e-01   9.2793744e-02  -9.5797905e-03  -9.2894105e-02  -8.5655816e-02  -7.1191935e-03  -6.2745364e-02  -1.9697979e-02  -4.9332998e-02  -2.3378885e-02  -4.9936007e-02   1.3390083e-04  -8.5011082e-03  -3.4969711e-02  -4.8876828e-02  -5.3265964e-03  -1.0650759e-01   2.1461659e-03  -1.1588014e-02  -5.1708708e-02   1.9443955e-02   1.2114909e-01  -6.6087992e-03  -1.2888264e-01   7.0264746e-03   3.8368776e-02   9.4498438e-03  -8.0715002e-03  -1.6204430e-01  -5.4748313e-02   2.4955258e-02   9.9915863e-03   1.4517105e-01  -1.8231552e-02  -6.2444660e-02  -2.0394530e-02   1.4915471e-02   7.0386616e-02   4.3732469e-02  -6.3658091e-02  -9.7687904e-03   1.0116182e-01  -6.6060456e-02   8.8123154e-02   1.1334951e-01   8.1172795e-02  -8.5110250e-02   4.7668755e-02  -6.2147069e-02   7.0765225e-02   7.3147416e-03  -1.5390071e-02  -3.2898040e-02  -4.1034507e-02  -6.3418035e-02   3.2002468e-02   3.8565800e-02  -8.9632820e-02   2.4359513e-02  -6.3732483e-02  -2.7167166e-02   9.3007341e-02   3.8141065e-02   3.7162099e-02   2.5485099e-02  -9.5701801e-02   8.3459507e-02   5.2265001e-02  -4.0857676e-02   7.3018406e-02   6.3794874e-02   1.3370341e-02  -7.6561643e-02  -1.2834394e-01  -6.3962386e-03   4.3158717e-02  -8.3420099e-02  -4.1700219e-02   1.5286805e-02   1.1212770e-01   4.8149530e-02  -9.0659478e-03  -1.5526137e-01  -5.7221340e-02  -2.8633370e-02  -9.2770425e-02  -1.0029273e-01   2.2358964e-02   1.6115970e-02  -7.8226726e-02   8.2167676e-03  -1.1103123e-02  -6.8909398e-02  -2.1075631e-03   1.0304831e-02  -3.1342060e-02   1.4960285e-01   7.0264614e-02
   3.2049562e-02  -5.0360884e-02   1.2308502e-02   4.8756709e-02  -5.9567619e-02   4.3711411e-03  -8.3835741e-02  -6.5263609e-02  -2.0203318e-03  -6.0474298e-02  -5.2829551e-02   8.6563209e-03   2.5634035e-01   3.9962415e-02   3.5814161e-02   8.4101859e-02  -4.0109902e-02  -8.1973787e-02   2.8048066e-02   2.0921036e-02  -3.1223534e-02  -2.7856862e-02  -6.4685257e-02  -2.1552941e-02   7.8398483e-02   1.7061745e-02   3.5045774e-02   5.0191387e-03  -3.4080227e-02  -1.2456860e-02   3.5811380e-02   5.7554709e-02   8.9166604e-02   2.0728152e-02   6.8163224e-03  -3.5900995e-02   2.9772767e-02   2.4311878e-02  -1.0318212e-02   6.7560913e-02   7.8686670e-02  -4.0081612e-02   4.6114963e-02   4.1682917e-02   2.0578772e-02   1.8651859e-02   1.0184303e-01  -3.2543177e-02  -5.8985024e-02   8.9897854e-02   4.8332976e-02   1.6405755e-01  -1.0102595e-02   1.0857946e-01  -7.3911759e-02   1.4750986e-02   3.9734260e-03   3.8076515e-02   9.4494915e-02  -9.5989239e-03   3.6083930e-04   5.1706081e-03   6.0237288e-02   6.8012358e-02  -5.0932535e-02   6.6281593e-02  -1.8193820e-02   4.0762218e-02  -4.0498702e-02  -6.9397249e-02   1.8070960e-01   1.3812115e-01  -1.6837522e-01  -5.2303837e-02   1.0915561e-01   1.0565651e-01  -5.5190066e-02   2.0629569e-02  -6.5171265e-02   1.3855806e-01  -1.8016224e-02   1.1863296e-01  -1.2821640e-02  -9.3287719e-02   3.2850630e-02  -5.7065729e-02   6.5024568e-02   9.6507037e-03  -7.4197964e-02  -1.2986002e-02  -8.3614988e-03   3.0002661e-02  -4.7604992e-03   4.7575276e-02   6.3366603e-02   2.8741674e-02   6.0254172e-02   1.9979309e-02   1.0193200e-01   1.1578930e-02   4.1500251e-02  -4.9066372e-02   2.8163259e-02  -9.2396008e-02   1.8925404e-02   1.4336789e-02   1.5273499e-02  -7.9921099e-02  -2.0063493e-02  -5.6334706e-02   9.3201873e-02  -3.8276199e-03   6.9211021e-02  -6.2286482e-02  -8.5913261e-02  -2.4203870e-02   3.1052216e-02  -4.5096942e-02  -4.0139072e-02  -5.9245530e-02   1.0495432e-01   2.8209861e-02   4.9691152e-02   9.0331403e-02   2.6781867e-02  -1.0591601e-01  -6.1165521e-03   2.1445670e-02  -3.9619274e-05  -5.9227725e-02  -2.6071194e-02  -2.7034623e-02  -9.8858041e-02  -4.7684122e-02  -1.1393938e-02   9.2030062e-03   2.4750356e-02  -4.2449455e-03   5.4219434e-02  -6.4427338e-02   1.1549118e-02  -2.3849539e-02  -5.7307010e-02  -5.2938441e-02   1.5264070e-01  -2.2434641e-02   1.2124748e-01  -8.3554998e-02   7.2184750e-02   4.5635048e-02  -1.2412852e-02   4.1642153e-02  -1.3769969e-01   1.8060328e-02  -1.4526993e-02  -8.1833506e-04   7.3549973e-02  -2.1124327e-02  -4.5908720e-02  -3.3905972e-02  -4.5923919e-02  -7.6705098e-03  -1.5397614e-03  -5.4525828e-02  -5.1759015e-02  -2.4239026e-02   4.8222082e-02   8.4099847e-03   4.5391385e-02  -2.0791051e-02  -1.3686678e-01   3.2796140e-02  -3.8448793e-02  -2.2770723e-02  -1.0633661e-01  -2.0906359e-03   2.7884900e-02  -8.5221885e-02   6.0643431e-02  -6.4974245e-04   1.6523058e-02  -1.0034335e-01  -2.3528951e-02  -4.6054674e-02  -3.8558311e-03  -2.1138101e-01   7.5994306e-03  -9.2601839e-02  -4.3916774e-02  -8.0686146e-02  -5.2723015e-02  -8.4484775e-02  -3.5046968e-02   7.0555258e-02   3.3355280e-02  -9.5920689e-02  -2.5031052e-02  -3.9782063e-02   6.0208440e-02   4.2946874e-02  -3.5303464e-02  -4.3381467e-02  -4.6272324e-02  -7.5441878e-02   4.7995826e-02   9.6186073e-02   7.6943346e-02  -7.9108228e-02  -3.3946109e-02  -8.3475587e-02  -5.8560645e-02   1.5654557e-01   9.0003344e-02   5.3547076e-03   7.3194514e-02  -4.8573495e-02   6.2897040e-02   3.5110071e-02   6.1590626e-02  -1.4276277e-02   3.6694999e-03  -4.4134440e-02  -2.8735965e-02  -2.3963539e-02  -2.5303895e-02  -5.6271870e-02  -4.9254285e-02  -1.9252543e-02   5.5731327e-02   7.2597401e-03   1.3714268e-02  -5.9663540e-02   1.3401686e-02   2.7980883e-02  -7.9690663e-02   5.8500043e-02  -1.5805987e-02  -3.7418082e-02  -2.5612880e-02  -3.8568812e-02  -2.0488564e-02  -4.7605042e-02  -3.6482233e-02   9.6350208e-03   2.4010299e-02   8.3912255e-02   5.6103208e-02  -5.4287388e-02  -5.0918341e-02   8.1235340e-03  -5.2690040e-02   2.1132524e-03  -1.0387542e-02  -8.8459589e-03  -8.7910745e-02   9.4950915e-02
   2.2575398e-02  -8.2660645e-02  -6.4910649e-02   1.1450503e-01  -1.4382155e-02  -1.4881681e-01  -5.2332378e-02   6.3718328e-03  -1.0149127e-01  -7.3455762e-02  -1.0797101e-01  -4.6184792e-02   9.7198837e-03   2.7079694e-02  -1.2028904e-01  -7.5371203e-02   1.0680562e-01   5.5272364e-02   1.0036477e-01  -3.6738286e-02   2.5366535e-02   4.7305304e-02  -5.5251940e-02   3.5698039e-02  -2.4771451e-04  -1.7699849e-02   8.6651316e-02   1.1326564e-01   8.0954451e-02  -4.8210288e-04  -1.9048644e-02  -3.5511989e-02  -2.3566830e-03   4.6339225e-02   7.4675992e-02   1.1116227e-01   4.0930051e-02   5.7234586e-02  -5.1004113e-02   1.2582213e-02  -2.8322826e-02   2.2009806e-02   1.1436954e-02  -5.6083039e-02  -1.0242194e-01  -6.2356810e-02   8.5881878e-03   4.3376160e-02   5.8088723e-02   2.9823543e-02  -3.3338214e-02   1.0434854e-01   3.1258528e-02   2.7816536e-02   5.0969238e-02   9.6064685e-02   9.1935060e-02  -3.4890149e-02   9.2306836e-02  -5.0408054e-02  -9.7088855e-03   7.3684475e-02  -6.5886640e-02  -2.4290148e-02  -4.0347503e-02  -3.2181480e-02   3.3273204e-02   1.2279347e-01  -1.3248327e-02   5.8878040e-02  -3.3200792e-02   2.9825926e-02  -6.4437272e-02   2.2778452e-02   3.6112983e-02   2.4129282e-02   9.0098179e-02  -4.5496753e-02   4.1126047e-02  -4.8660883e-02   3.0943144e-02  -1.6333534e-02  -2.9592528e-04   3.3187585e-02   1.0645829e-02  -9.0985145e-02   4.7750922e-02   1.0447344e-02   2.7148676e-03  -6.7604528e-02   1.1606451e-01  -3.8001070e-02   5.4610570e-02  -8.1585994e-02   1.0373134e-01  -7.5714604e-02  -1.0884147e-02  -1.0357725e-01  -7.0288610e-02  -1.1567541e-02  -3.3109428e-02   9.3340947e-02  -3.7534780e-02  -4.0956027e-02   3.2187133e-02   1.2482458e-01   6.9379899e-02   4.5044149e-02  -1.3709114e-01   3.1545101e-02  -6.0806981e-02  -8.8360839e-02   7.6359623e-02   4.5962039e-02   7.0410035e-02   9.0625816e-02  -8.8222809e-03  -4.9222095e-02  -5.8794086e-03   1.0293837e-01  -1.1168958e-02  -4.1475494e-02  -1.2801488e-01   2.5033200e-02  -5.6704023e-02  -2.9254429e-02   6.0380085e-02  -1.0493500e-01  -5.0922545e-02   5.9259835e-02   3.8651644e-03  -2.7741580e-02   6.7298926e-03   1.0063578e-01   1.3152209e-02   5.7428077e-04  -5.8985815e-02   8.2490877e-02   4.2680581e-02   6.3249987e-02   3.2108013e-02   6.9836819e-02   4.5970403e-02   9.0644485e-02  -4.7767970e-02   5.4853376e-03   9.4369713e-03  -1.1461698e-02  -7.4134394e-02   3.2525738e-02   5.5388106e-02  -4.3964307e-02  -6.8848696e-02  -6.5173789e-02  -4.2126889e-02   2.5117195e-03  -2.0639010e-02  -5.6384905e-02  -4.3251501e-02  -5.4003618e-02  -2.5398233e-02  -4.2261407e-02  -1.9150930e-02  -2.0897338e-02   1.1457915e-02   3.3883279e-02  -9.1255022e-02   4.8301545e-02  -1.2909809e-01  -8.7680211e-02   7.4234449e-03   2.0403004e-02  -3.4273461e-02   1.6695314e-02  -3.8668979e-02  -6.0108882e-02   5.4683306e-03   9.6620592e-02  -5.1888332e-02   3.7957812e-02   3.3160446e-03   5.3254501e-02  -7.8630487e-02   9.0359600e-02   3.2138164e-02   1.5739860e-01  -1.9907208e-02  -3.1666268e-03  -1.2418002e-01   8.5555526e-02  -4.6679139e-02  -4.3591672e-02  -3.8200352e-02  -4.9724368e-02  -8.4160095e-03  -8.0795343e-02  -5.8061047e-02  -1.5415084e-02   8.9603186e-02   1.2950637e-01   7.7656124e-02  -5.3077128e-02  -2.3223529e-02  -9.4259555e-02  -4.1153951e-02  -4.4712826e-03   9.5636294e-03   4.6331091e-02  -4.1413977e-02   3.3118126e-02  -4.1845638e-02   1.2490680e-01   1.4521822e-02  -7.2685813e-02   3.0851950e-02  -9.9361743e-03   1.5689038e-02   1.0767400e-01  -3.7102448e-02  -1.2798217e-01   3.3337159e-02  -3.8001670e-02  -4.9013422e-02   6.0370351e-02  -5.1492921e-02  -6.4477045e-03  -2.1000342e-02   3.1384087e-03  -9.1459642e-02  -1.4946643e-02   1.9167763e-02  -4.1276662e-03   1.5192825e-02   2.9006712e-02  -5.7517893e-02   1.2896004e-01  -3.3578948e-02  -1.1582960e-01  -3.5060386e-04   1.3978729e-02   2.3674046e-02   3.4922529e-02  -1.3195096e-01  -4.5248109e-02   4.9683155e-02   1.6312833e-01   6.6578981e-03  -2.9809732e-02  -6.1365175e-03   3.4189834e-02   3.6301529e-02  -7.4603271e-02  -1.4386904e-01   3.3933141e-02   2.0638971e-02   7.7615990e-04
   9.0682066e-02   3.7625706e-02   2.2693187e-02  -6.4267744e-02  -4.0055090e-02  -4.3488253e-02   7.2580686e-03  -5.3439859e-02   3.7295055e-02  -2.8701040e-02  -1.2975460e-02  -9.4626101e-02  -1.0318030e-01   1.5771369e-01   8.3323074e-02  -5.7650237e-02  -3.3425753e-02   3.4812786e-02  -1.2910528e-03  -4.6168801e-02   2.4101599e-02   3.3922297e-02   3.3378188e-02   4.7875674e-03   4.2025840e-02   6.3223320e-02   1.1508093e-02   4.7058600e-02   2.9579902e-03   6.7607077e-03   3.4342908e-02   7.5216454e-02   3.4802841e-02   5.6230092e-02   5.9763286e-02   1.4017955e-02  -2.0851558e-02  -5.4029958e-02  -1.4894947e-01  -2.8239498e-02   5.9056826e-02   2.4739751e-02   7.3006401e-03  -1.1021922e-02   2.6437829e-02  -1.2531875e-01   2.1044582e-02  -8.3143727e-02   1.5789086e-02  -1.3582777e-02   1.0021307e-01   1.2473630e-01  -2.4711330e-03  -7.7123780e-02  -3.7197524e-02   1.0564293e-01   3.6687326e-02   5.2034813e-02  -6.5458251e-04  -1.2819641e-01   1.2982444e-01   1.0885335e-01   6.0497406e-02  -3.6929477e-02   3.2731965e-02   4.1575290e-02   2.6127712e-02  -2.6951966e-02  -8.9940076e-03   5.3438617e-02   5.8360011e-02   5.8751858e-03  -5.6087327e-02   5.4672506e-02  -3.3969916e-02  -7.3967973e-02  -1.2679134e-01  -6.6421035e-02  -4.4467943e-02  -9.2581023e-03   8.6371142e-02  -1.2608713e-02   4.6482233e-02  -1.3537067e-02  -5.5644800e-03   4.4135613e-02  -1.0822519e-01   3.4514728e-03   2.4850051e-02  -1.2709413e-02  -4.9624648e-02   6.2025267e-02  -3.6036114e-02  -1.4499606e-02   2.1927733e-02  -2.8852181e-02   7.3210401e-02  -5.6856106e-02  -2.8824735e-02   1.1190256e-01   6.8625817e-02  -1.2150747e-02   1.0480434e-02  -6.5472706e-03  -5.3161052e-02   2.7189412e-03  -5.2981150e-02   7.6527949e-02   3.4991407e-02  -1.3597238e-02   2.4731656e-02   1.7500222e-02   1.9674256e-01  -3.6737542e-02  -3.0736150e-02   9.7201323e-03  -7.3620679e-02   6.5484174e-02  -4.5174104e-02   4.9460701e-02  -9.1434488e-02  -3.0899375e-02   7.2643497e-03  -4.0227221e-02  -1.4673479e-01  -1.8298077e-02  -2.1094875e-02   1.0441419e-02  -2.7767821e-02  -1.1711894e-01   5.5225009e-02   2.6942708e-03   8.5608546e-02   1.6998882e-02  -1.1201851e-01  -4.1613012e-02  -6.0854722e-02   2.7130209e-02   5.2194675e-02   6.3086725e-02   5.8319233e-02  -6.5685095e-02  -1.3358451e-02  -1.1218212e-02   1.3063710e-01   5.1103191e-02  -3.5219912e-02  -8.0625113e-02  -1.7479616e-02   1.9058313e-02   2.8789417e-03   3.9978885e-02  -2.1380163e-02  -3.8683425e-02   3.6671219e-02   1.0015423e-01   6.2204029e-02   1.0747382e-01  -6.1578448e-03   2.0959250e-02   1.1398733e-01  -1.5215890e-02  -3.0013100e-03   5.3057891e-02  -4.3944514e-02  -7.5537098e-02   6.0209496e-02   2.8130777e-04   1.2397163e-02  -4.7482465e-02  -2.7778351e-02   2.1768584e-02   1.7354174e-01  -7.0175304e-02  -3.8963296e-02  -2.6951144e-02   3.0864618e-02  -1.7305129e-02   3.5692319e-02   8.6560066e-02  -1.2809043e-02   1.1372177e-01  -3.0944212e-03  -3.0330273e-02   1.2721180e-01   2.7412201e-02   5.2161213e-03  -2.3366991e-03   6.8458928e-02   2.5279632e-02   4.4788100e-02   2.5772145e-02   8.5845021e-02   2.5493738e-02   3.6944503e-02   4.7895093e-02  -4.7982170e-02  -5.5312249e-02  -1.5049653e-01  -5.9464663e-02   8.3972448e-03  -5.5144352e-02   3.3541636e-02  -1.1865853e-01  -8.6434984e-02  -4.8113070e-02   2.8227966e-02  -1.0409892e-01   3.1697686e-02  -1.6194005e-01   7.4066910e-02   5.9355293e-02  -5.3363320e-02   6.6126441e-02  -7.3327828e-03   6.7123913e-02  -8.6113350e-02   4.6245493e-02   2.5365797e-02  -5.1125762e-02  -8.8661469e-02   4.1293958e-02  -1.7858245e-02  -2.6300445e-02  -1.3452520e-02   1.9435517e-02  -1.2477556e-01   3.6477058e-02  -4.1613483e-02  -2.6557298e-02  -2.2269473e-02   6.5406879e-02  -6.3863251e-02   4.1065848e-02  -1.4555773e-02  -4.3270230e-02  -5.7344498e-02   2.6585186e-02  -8.6890232e-02  -2.3803801e-02  -5.2981973e-02   5.1329195e-03  -7.7837324e-02  -3.8008383e-02  -1.6974479e-01  -1.1234032e-01   3.2380294e-02  -2.7070930e-02   5.3448802e-02  -4.5595461e-02   5.8453109e-02  -1.4733756e-01  -3.1794234e-02  -1.7098375e-02   5.5702383e-02  -8.8557443e-02
