  -2.7500474e-02  -8.4361967e-02  -5.8788424e-02  -5.6861492e-02   0.0000000e+00  -5.5354581e-02  -5.9941703e-02  -5.8788424e-02  -5.6861492e-02  -5.6861492e-02  -8.7442177e-02  -2.9007385e-02  -8.6288899e-02  -1.1529628e-01  -5.6861492e-02  -5.6507860e-02  -5.8788424e-02  -2.9007385e-02  -5.8434792e-02  -2.9007385e-02  -2.7500474e-02  -5.9941703e-02  -5.5354581e-02  -3.0934317e-02  -5.8434792e-02  -8.7442177e-02  -2.7854107e-02  -2.9007385e-02  -5.9941703e-02  -8.6288899e-02   0.0000000e+00  -5.5354581e-02   0.0000000e+00  -5.6861492e-02  -5.6507860e-02  -3.0934317e-02  -5.6507860e-02  -8.7795810e-02  -5.5354581e-02  -5.9941703e-02  -8.4361967e-02  -5.9941703e-02  -1.1529628e-01  -5.6507860e-02  -5.5354581e-02  -8.6288899e-02  -8.7795810e-02  -5.8788424e-02  -3.0934317e-02  -8.6288899e-02  -8.7795810e-02  -5.8434792e-02  -5.9941703e-02  -3.0934317e-02  -8.6288899e-02  -5.9941703e-02  -2.7854107e-02  -5.9941703e-02  -8.7795810e-02  -5.8434792e-02   0.0000000e+00  -3.0934317e-02   0.0000000e+00  -2.7500474e-02  -8.4361967e-02  -5.6861492e-02  -8.7442177e-02  -5.5354581e-02  -8.6288899e-02  -5.5354581e-02  -5.6507860e-02  -8.7442177e-02  -2.7500474e-02  -8.4361967e-02  -2.9007385e-02  -8.4361967e-02  -5.8434792e-02  -8.7795810e-02  -2.7500474e-02  -8.7442177e-02  -5.6507860e-02  -2.7854107e-02  -3.0934317e-02   0.0000000e+00  -5.6507860e-02  -5.8434792e-02  -8.7442177e-02  -5.8788424e-02  -8.7442177e-02  -5.6507860e-02  -2.7854107e-02  -1.1529628e-01   0.0000000e+00  -2.9007385e-02  -1.1529628e-01  -5.6861492e-02  -5.5354581e-02  -5.9941703e-02  -2.7500474e-02  -5.9941703e-02  -8.7442177e-02  -5.6861492e-02  -3.0934317e-02  -5.9941703e-02  -5.6861492e-02  -5.6861492e-02  -2.7854107e-02  -2.7500474e-02  -2.7500474e-02  -5.5354581e-02  -5.5354581e-02  -5.8788424e-02  -8.6288899e-02  -8.7442177e-02  -5.8434792e-02  -1.1529628e-01   0.0000000e+00  -2.9007385e-02  -2.7500474e-02  -2.9007385e-02  -8.4361967e-02   0.0000000e+00  -5.6861492e-02  -1.1529628e-01  -3.0934317e-02  -5.5354581e-02  -8.4361967e-02  -2.9007385e-02  -5.6861492e-02  -8.7795810e-02  -5.9941703e-02  -5.9941703e-02  -8.4361967e-02   0.0000000e+00  -8.6288899e-02  -5.9941703e-02  -8.6288899e-02  -5.6861492e-02  -5.8788424e-02  -5.8788424e-02  -2.9007385e-02  -1.1529628e-01  -8.4361967e-02  -5.6861492e-02  -8.7795810e-02  -3.0934317e-02   0.0000000e+00  -5.6861492e-02  -5.6507860e-02  -5.5354581e-02  -8.7795810e-02  -5.8434792e-02  -5.8788424e-02  -2.7500474e-02  -5.9941703e-02  -8.6288899e-02  -5.8788424e-02  -8.7442177e-02  -2.9007385e-02  -2.7500474e-02  -8.4361967e-02  -5.5354581e-02  -8.7795810e-02  -2.9007385e-02   0.0000000e+00  -2.7500474e-02  -2.7500474e-02  -5.8434792e-02  -8.7442177e-02  -5.6861492e-02  -8.7795810e-02  -8.7795810e-02  -2.9007385e-02  -5.9941703e-02  -2.9007385e-02  -3.0934317e-02  -5.8434792e-02  -5.9941703e-02  -5.8434792e-02  -2.9007385e-02  -2.9007385e-02   0.0000000e+00  -8.7442177e-02  -3.0934317e-02  -5.8434792e-02  -8.7442177e-02  -2.7854107e-02  -5.6861492e-02  -5.8788424e-02  -5.8788424e-02  -5.8788424e-02  -5.5354581e-02  -8.6288899e-02   0.0000000e+00  -5.6861492e-02  -5.8434792e-02  -8.7442177e-02  -5.8788424e-02  -5.5354581e-02  -1.1529628e-01  -2.7500474e-02  -5.8788424e-02  -8.6288899e-02  -2.7854107e-02  -5.9941703e-02  -8.7442177e-02  -5.8434792e-02  -5.9941703e-02  -5.8434792e-02  -3.0934317e-02  -5.9941703e-02  -1.1529628e-01  -1.1529628e-01  -5.6861492e-02  -5.6861492e-02  -2.7500474e-02  -8.6288899e-02  -5.9941703e-02  -3.0934317e-02  -8.4361967e-02  -2.7854107e-02  -2.7854107e-02  -2.7500474e-02  -5.9941703e-02  -5.8434792e-02  -8.7795810e-02  -1.1529628e-01  -3.0934317e-02  -8.4361967e-02  -5.9941703e-02  -5.8788424e-02  -8.7795810e-02   0.0000000e+00  -2.7500474e-02  -8.6288899e-02  -5.6861492e-02  -5.9941703e-02  -8.6288899e-02  -8.4361967e-02  -2.7500474e-02  -2.9007385e-02  -5.8788424e-02  -5.6507860e-02  -3.0934317e-02  -8.6288899e-02  -2.7500474e-02  -5.8434792e-02  -8.6288899e-02   0.0000000e+00  -8.7442177e-02  -5.6861492e-02   0.0000000e+00  -5.8788424e-02  -5.6507860e-02  -5.8434792e-02   0.0000000e+00
  -7.9447069e-02   1.0033008e-02  -8.9909110e-03   8.9480076e-02   0.0000000e+00  -7.5313905e-02   7.2222839e-02  -8.9909110e-03   8.9480076e-02   8.9480076e-02  -7.2242299e-03   8.5346913e-02  -8.8437980e-02  -3.0910666e-03   8.9480076e-02   5.8998443e-03  -8.9909110e-03   8.5346913e-02  -9.2571143e-02   8.5346913e-02  -7.9447069e-02   7.2222839e-02  -7.5313905e-02  -1.3124074e-02  -9.2571143e-02  -7.2242299e-03   4.1331633e-03   8.5346913e-02   7.2222839e-02  -8.8437980e-02   0.0000000e+00  -7.5313905e-02   0.0000000e+00   8.9480076e-02   5.8998443e-03  -1.3124074e-02   5.8998443e-03   7.6356002e-02  -7.5313905e-02   7.2222839e-02   1.0033008e-02   7.2222839e-02  -3.0910666e-03   5.8998443e-03  -7.5313905e-02  -8.8437980e-02   7.6356002e-02  -8.9909110e-03  -1.3124074e-02  -8.8437980e-02   7.6356002e-02  -9.2571143e-02   7.2222839e-02  -1.3124074e-02  -8.8437980e-02   7.2222839e-02   4.1331633e-03   7.2222839e-02   7.6356002e-02  -9.2571143e-02   0.0000000e+00  -1.3124074e-02   0.0000000e+00  -7.9447069e-02   1.0033008e-02   8.9480076e-02  -7.2242299e-03  -7.5313905e-02  -8.8437980e-02  -7.5313905e-02   5.8998443e-03  -7.2242299e-03  -7.9447069e-02   1.0033008e-02   8.5346913e-02   1.0033008e-02  -9.2571143e-02   7.6356002e-02  -7.9447069e-02  -7.2242299e-03   5.8998443e-03   4.1331633e-03  -1.3124074e-02   0.0000000e+00   5.8998443e-03  -9.2571143e-02  -7.2242299e-03  -8.9909110e-03  -7.2242299e-03   5.8998443e-03   4.1331633e-03  -3.0910666e-03   0.0000000e+00   8.5346913e-02  -3.0910666e-03   8.9480076e-02  -7.5313905e-02   7.2222839e-02  -7.9447069e-02   7.2222839e-02  -7.2242299e-03   8.9480076e-02  -1.3124074e-02   7.2222839e-02   8.9480076e-02   8.9480076e-02   4.1331633e-03  -7.9447069e-02  -7.9447069e-02  -7.5313905e-02  -7.5313905e-02  -8.9909110e-03  -8.8437980e-02  -7.2242299e-03  -9.2571143e-02  -3.0910666e-03   0.0000000e+00   8.5346913e-02  -7.9447069e-02   8.5346913e-02   1.0033008e-02   0.0000000e+00   8.9480076e-02  -3.0910666e-03  -1.3124074e-02  -7.5313905e-02   1.0033008e-02   8.5346913e-02   8.9480076e-02   7.6356002e-02   7.2222839e-02   7.2222839e-02   1.0033008e-02   0.0000000e+00  -8.8437980e-02   7.2222839e-02  -8.8437980e-02   8.9480076e-02  -8.9909110e-03  -8.9909110e-03   8.5346913e-02  -3.0910666e-03   1.0033008e-02   8.9480076e-02   7.6356002e-02  -1.3124074e-02   0.0000000e+00   8.9480076e-02   5.8998443e-03  -7.5313905e-02   7.6356002e-02  -9.2571143e-02  -8.9909110e-03  -7.9447069e-02   7.2222839e-02  -8.8437980e-02  -8.9909110e-03  -7.2242299e-03   8.5346913e-02  -7.9447069e-02   1.0033008e-02  -7.5313905e-02   7.6356002e-02   8.5346913e-02   0.0000000e+00  -7.9447069e-02  -7.9447069e-02  -9.2571143e-02  -7.2242299e-03   8.9480076e-02   7.6356002e-02   7.6356002e-02   8.5346913e-02   7.2222839e-02   8.5346913e-02  -1.3124074e-02  -9.2571143e-02   7.2222839e-02  -9.2571143e-02   8.5346913e-02   8.5346913e-02   0.0000000e+00  -7.2242299e-03  -1.3124074e-02  -9.2571143e-02  -7.2242299e-03   4.1331633e-03   8.9480076e-02  -8.9909110e-03  -8.9909110e-03  -8.9909110e-03  -7.5313905e-02  -8.8437980e-02   0.0000000e+00   8.9480076e-02  -9.2571143e-02  -7.2242299e-03  -8.9909110e-03  -7.5313905e-02  -3.0910666e-03  -7.9447069e-02  -8.9909110e-03  -8.8437980e-02   4.1331633e-03   7.2222839e-02  -7.2242299e-03  -9.2571143e-02   7.2222839e-02  -9.2571143e-02  -1.3124074e-02   7.2222839e-02  -3.0910666e-03  -3.0910666e-03   8.9480076e-02   8.9480076e-02  -7.9447069e-02  -8.8437980e-02   7.2222839e-02  -1.3124074e-02   1.0033008e-02   4.1331633e-03   4.1331633e-03  -7.9447069e-02   7.2222839e-02  -9.2571143e-02   7.6356002e-02  -3.0910666e-03  -1.3124074e-02   1.0033008e-02   7.2222839e-02  -8.9909110e-03   7.6356002e-02   0.0000000e+00  -7.9447069e-02  -8.8437980e-02   8.9480076e-02   7.2222839e-02  -8.8437980e-02   1.0033008e-02  -7.9447069e-02   8.5346913e-02  -8.9909110e-03   5.8998443e-03  -1.3124074e-02  -8.8437980e-02  -7.9447069e-02  -9.2571143e-02  -8.8437980e-02   0.0000000e+00  -7.2242299e-03   8.9480076e-02   0.0000000e+00  -8.9909110e-03   5.8998443e-03  -9.2571143e-02   0.0000000e+00
   1.9007024e-02   1.0063552e-01  -8.5950428e-03   8.1628500e-02   0.0000000e+00   1.0080342e-01  -9.0559338e-02  -8.5950428e-03   8.1628500e-02   8.1628500e-02  -7.1552315e-02  -1.6789762e-04   1.0411981e-02   1.0244083e-02   8.1628500e-02   1.8839126e-02  -8.5950428e-03  -1.6789762e-04  -7.1384417e-02  -1.6789762e-04   1.9007024e-02  -9.0559338e-02   1.0080342e-01  -9.0391441e-02  -7.1384417e-02  -7.1552315e-02   8.1796398e-02  -1.6789762e-04  -9.0559338e-02   1.0411981e-02   0.0000000e+00   1.0080342e-01   0.0000000e+00   8.1628500e-02   1.8839126e-02  -9.0391441e-02   1.8839126e-02  -8.7629405e-03   1.0080342e-01  -9.0559338e-02   1.0063552e-01  -9.0559338e-02   1.0244083e-02   1.8839126e-02   1.0080342e-01   1.0411981e-02  -8.7629405e-03  -8.5950428e-03  -9.0391441e-02   1.0411981e-02  -8.7629405e-03  -7.1384417e-02  -9.0559338e-02  -9.0391441e-02   1.0411981e-02  -9.0559338e-02   8.1796398e-02  -9.0559338e-02  -8.7629405e-03  -7.1384417e-02   0.0000000e+00  -9.0391441e-02   0.0000000e+00   1.9007024e-02   1.0063552e-01   8.1628500e-02  -7.1552315e-02   1.0080342e-01   1.0411981e-02   1.0080342e-01   1.8839126e-02  -7.1552315e-02   1.9007024e-02   1.0063552e-01  -1.6789762e-04   1.0063552e-01  -7.1384417e-02  -8.7629405e-03   1.9007024e-02  -7.1552315e-02   1.8839126e-02   8.1796398e-02  -9.0391441e-02   0.0000000e+00   1.8839126e-02  -7.1384417e-02  -7.1552315e-02  -8.5950428e-03  -7.1552315e-02   1.8839126e-02   8.1796398e-02   1.0244083e-02   0.0000000e+00  -1.6789762e-04   1.0244083e-02   8.1628500e-02   1.0080342e-01  -9.0559338e-02   1.9007024e-02  -9.0559338e-02  -7.1552315e-02   8.1628500e-02  -9.0391441e-02  -9.0559338e-02   8.1628500e-02   8.1628500e-02   8.1796398e-02   1.9007024e-02   1.9007024e-02   1.0080342e-01   1.0080342e-01  -8.5950428e-03   1.0411981e-02  -7.1552315e-02  -7.1384417e-02   1.0244083e-02   0.0000000e+00  -1.6789762e-04   1.9007024e-02  -1.6789762e-04   1.0063552e-01   0.0000000e+00   8.1628500e-02   1.0244083e-02  -9.0391441e-02   1.0080342e-01   1.0063552e-01  -1.6789762e-04   8.1628500e-02  -8.7629405e-03  -9.0559338e-02  -9.0559338e-02   1.0063552e-01   0.0000000e+00   1.0411981e-02  -9.0559338e-02   1.0411981e-02   8.1628500e-02  -8.5950428e-03  -8.5950428e-03  -1.6789762e-04   1.0244083e-02   1.0063552e-01   8.1628500e-02  -8.7629405e-03  -9.0391441e-02   0.0000000e+00   8.1628500e-02   1.8839126e-02   1.0080342e-01  -8.7629405e-03  -7.1384417e-02  -8.5950428e-03   1.9007024e-02  -9.0559338e-02   1.0411981e-02  -8.5950428e-03  -7.1552315e-02  -1.6789762e-04   1.9007024e-02   1.0063552e-01   1.0080342e-01  -8.7629405e-03  -1.6789762e-04   0.0000000e+00   1.9007024e-02   1.9007024e-02  -7.1384417e-02  -7.1552315e-02   8.1628500e-02  -8.7629405e-03  -8.7629405e-03  -1.6789762e-04  -9.0559338e-02  -1.6789762e-04  -9.0391441e-02  -7.1384417e-02  -9.0559338e-02  -7.1384417e-02  -1.6789762e-04  -1.6789762e-04   0.0000000e+00  -7.1552315e-02  -9.0391441e-02  -7.1384417e-02  -7.1552315e-02   8.1796398e-02   8.1628500e-02  -8.5950428e-03  -8.5950428e-03  -8.5950428e-03   1.0080342e-01   1.0411981e-02   0.0000000e+00   8.1628500e-02  -7.1384417e-02  -7.1552315e-02  -8.5950428e-03   1.0080342e-01   1.0244083e-02   1.9007024e-02  -8.5950428e-03   1.0411981e-02   8.1796398e-02  -9.0559338e-02  -7.1552315e-02  -7.1384417e-02  -9.0559338e-02  -7.1384417e-02  -9.0391441e-02  -9.0559338e-02   1.0244083e-02   1.0244083e-02   8.1628500e-02   8.1628500e-02   1.9007024e-02   1.0411981e-02  -9.0559338e-02  -9.0391441e-02   1.0063552e-01   8.1796398e-02   8.1796398e-02   1.9007024e-02  -9.0559338e-02  -7.1384417e-02  -8.7629405e-03   1.0244083e-02  -9.0391441e-02   1.0063552e-01  -9.0559338e-02  -8.5950428e-03  -8.7629405e-03   0.0000000e+00   1.9007024e-02   1.0411981e-02   8.1628500e-02  -9.0559338e-02   1.0411981e-02   1.0063552e-01   1.9007024e-02  -1.6789762e-04  -8.5950428e-03   1.8839126e-02  -9.0391441e-02   1.0411981e-02   1.9007024e-02  -7.1384417e-02   1.0411981e-02   0.0000000e+00  -7.1552315e-02   8.1628500e-02   0.0000000e+00  -8.5950428e-03   1.8839126e-02  -7.1384417e-02   0.0000000e+00
   7.0561896e-02   5.7059154e-02  -1.2752770e-01  -1.3502742e-02   0.0000000e+00  -4.1141860e-03   8.3217232e-03  -1.2752770e-01  -1.3502742e-02  -1.3502742e-02   7.8883619e-02   6.1173340e-02  -5.6965803e-02   4.2075372e-03  -1.3502742e-02   1.3173524e-01  -1.2752770e-01   6.1173340e-02   1.7710280e-02   6.1173340e-02   7.0561896e-02   8.3217232e-03  -4.1141860e-03  -5.2851617e-02   1.7710280e-02   7.8883619e-02  -7.4676082e-02   6.1173340e-02   8.3217232e-03  -5.6965803e-02   0.0000000e+00  -4.1141860e-03   0.0000000e+00  -1.3502742e-02   1.3173524e-01  -5.2851617e-02   1.3173524e-01  -6.6354359e-02  -4.1141860e-03   8.3217232e-03   5.7059154e-02   8.3217232e-03   4.2075372e-03   1.3173524e-01  -4.1141860e-03  -5.6965803e-02  -6.6354359e-02  -1.2752770e-01  -5.2851617e-02  -5.6965803e-02  -6.6354359e-02   1.7710280e-02   8.3217232e-03  -5.2851617e-02  -5.6965803e-02   8.3217232e-03  -7.4676082e-02   8.3217232e-03  -6.6354359e-02   1.7710280e-02   0.0000000e+00  -5.2851617e-02   0.0000000e+00   7.0561896e-02   5.7059154e-02  -1.3502742e-02   7.8883619e-02  -4.1141860e-03  -5.6965803e-02  -4.1141860e-03   1.3173524e-01   7.8883619e-02   7.0561896e-02   5.7059154e-02   6.1173340e-02   5.7059154e-02   1.7710280e-02  -6.6354359e-02   7.0561896e-02   7.8883619e-02   1.3173524e-01  -7.4676082e-02  -5.2851617e-02   0.0000000e+00   1.3173524e-01   1.7710280e-02   7.8883619e-02  -1.2752770e-01   7.8883619e-02   1.3173524e-01  -7.4676082e-02   4.2075372e-03   0.0000000e+00   6.1173340e-02   4.2075372e-03  -1.3502742e-02  -4.1141860e-03   8.3217232e-03   7.0561896e-02   8.3217232e-03   7.8883619e-02  -1.3502742e-02  -5.2851617e-02   8.3217232e-03  -1.3502742e-02  -1.3502742e-02  -7.4676082e-02   7.0561896e-02   7.0561896e-02  -4.1141860e-03  -4.1141860e-03  -1.2752770e-01  -5.6965803e-02   7.8883619e-02   1.7710280e-02   4.2075372e-03   0.0000000e+00   6.1173340e-02   7.0561896e-02   6.1173340e-02   5.7059154e-02   0.0000000e+00  -1.3502742e-02   4.2075372e-03  -5.2851617e-02  -4.1141860e-03   5.7059154e-02   6.1173340e-02  -1.3502742e-02  -6.6354359e-02   8.3217232e-03   8.3217232e-03   5.7059154e-02   0.0000000e+00  -5.6965803e-02   8.3217232e-03  -5.6965803e-02  -1.3502742e-02  -1.2752770e-01  -1.2752770e-01   6.1173340e-02   4.2075372e-03   5.7059154e-02  -1.3502742e-02  -6.6354359e-02  -5.2851617e-02   0.0000000e+00  -1.3502742e-02   1.3173524e-01  -4.1141860e-03  -6.6354359e-02   1.7710280e-02  -1.2752770e-01   7.0561896e-02   8.3217232e-03  -5.6965803e-02  -1.2752770e-01   7.8883619e-02   6.1173340e-02   7.0561896e-02   5.7059154e-02  -4.1141860e-03  -6.6354359e-02   6.1173340e-02   0.0000000e+00   7.0561896e-02   7.0561896e-02   1.7710280e-02   7.8883619e-02  -1.3502742e-02  -6.6354359e-02  -6.6354359e-02   6.1173340e-02   8.3217232e-03   6.1173340e-02  -5.2851617e-02   1.7710280e-02   8.3217232e-03   1.7710280e-02   6.1173340e-02   6.1173340e-02   0.0000000e+00   7.8883619e-02  -5.2851617e-02   1.7710280e-02   7.8883619e-02  -7.4676082e-02  -1.3502742e-02  -1.2752770e-01  -1.2752770e-01  -1.2752770e-01  -4.1141860e-03  -5.6965803e-02   0.0000000e+00  -1.3502742e-02   1.7710280e-02   7.8883619e-02  -1.2752770e-01  -4.1141860e-03   4.2075372e-03   7.0561896e-02  -1.2752770e-01  -5.6965803e-02  -7.4676082e-02   8.3217232e-03   7.8883619e-02   1.7710280e-02   8.3217232e-03   1.7710280e-02  -5.2851617e-02   8.3217232e-03   4.2075372e-03   4.2075372e-03  -1.3502742e-02  -1.3502742e-02   7.0561896e-02  -5.6965803e-02   8.3217232e-03  -5.2851617e-02   5.7059154e-02  -7.4676082e-02  -7.4676082e-02   7.0561896e-02   8.3217232e-03   1.7710280e-02  -6.6354359e-02   4.2075372e-03  -5.2851617e-02   5.7059154e-02   8.3217232e-03  -1.2752770e-01  -6.6354359e-02   0.0000000e+00   7.0561896e-02  -5.6965803e-02  -1.3502742e-02   8.3217232e-03  -5.6965803e-02   5.7059154e-02   7.0561896e-02   6.1173340e-02  -1.2752770e-01   1.3173524e-01  -5.2851617e-02  -5.6965803e-02   7.0561896e-02   1.7710280e-02  -5.6965803e-02   0.0000000e+00   7.8883619e-02  -1.3502742e-02   0.0000000e+00  -1.2752770e-01   1.3173524e-01   1.7710280e-02   0.0000000e+00
